
迭代千次:1
Input weights:
[-0.5261000299746007, 2.0424798702547533, 10.857536240715584, 0.2746033700704047, 0.03792830967167575, -1.5178853830457384, 0.2833840541707951, -0.20245047184052545, -0.011561082944665483, -0.5542986065800999, 0.11140768811008869, 0.04390859910294869, 0.0935490786992424, -0.04668832224026148, 0.34805740729792756, -0.32039615967038504, 0.1454200839104555, 1.978396180519025, -5.637402915464848, -0.1571903286502987, -0.35365257481550494, 1.9161741054913355, 1.059762956147244, -0.04666873427633506]
[0.6390013514588374, -9.297352625505352, -4.646465210321975, 0.008805421267433663, 0.3380553595848295, -9.761012487348072, -0.33455706781315137, 0.015053128055433856, -0.10410322324211711, -0.19098083886706219, 0.11668972430350787, -0.13362276755162555, -0.1865215975574591, -0.15622486850641668, 0.41142376438205785, 0.1403306675279779, 1.2996653625069479, 0.24186766239594987, -2.7587879863685805, -0.05837764838699144, 0.29689031325959553, 1.335694795464307, -0.656182595841656, -0.08546151495988837]
[0.6388027414682222, 9.276586186640971, -6.219317632188211, -1.491478904209939, -0.027682147178605135, -6.482585089421451, -1.4943973226280225, 0.08040761885494269, -0.20209837812046527, -1.2627713592240788, 0.17793029976548827, 0.12031770780871874, -0.3099578663766032, -0.07223100681950548, -0.6989924063653882, -0.2297902239896029, 0.19603985029784196, -4.431368110835104, 2.3888434503554516, 0.6279291456318268, 0.2420198909430224, -0.9671147667905452, -0.5102179386580636, -0.3177346295860832]
[-0.38320044063613257, -4.332264885820351, -3.7187652225967596, 0.28014591229778574, 0.2014220826974407, 4.26864848895381, -0.021927773776705517, 0.06176342532596284, 0.1085750147001082, 0.4546710051439127, 0.06729706960623134, 0.04624909195666529, 0.947338937350815, -0.16625719946055093, -0.630855958736285, 0.007148841635939776, 1.741805239465316, 3.152550063267237, 8.203352287609844, 0.13066369691986188, 0.5409282288022425, -1.7281292088762275, -1.3105073187374887, 0.028925227068165065]
[-0.27704566747259013, 0.05649981908188786, 1.7744891786518473, 0.018448404012324907, 0.15734463505986326, 7.522894388665555, -0.02871129955277203, 0.04604087029025877, -0.15908754845211312, 1.314259845690981, 0.1769334350703953, 0.028795823265411736, 0.05494226548411883, -0.24889257765082126, -0.1924109475539424, 0.18669736284921276, 0.35870792794819795, 3.2494119630197695, 1.5438870153616162, 0.3552267773738772, 0.2292190490266498, -1.9130260523948688, -0.053661600565624176, -0.08775289451312844]
[0.9433003780918325, -2.3990733094187897, 1.1928833827091752, -0.36000070571879766, 0.018403345229781334, 5.722598773994602, -0.09302373273944312, -0.2411102748612785, -0.21486828241576836, -0.5372796004674656, 0.242704168769113, 0.2795983675154322, -1.1508326472836115, -0.10608286728204769, -1.205318390474741, -0.43617717301131453, -0.926699878823219, -0.18485824064742032, -1.9804359893803074, -0.22928010248034242, 0.1099091018268842, -1.9953280289005277, -0.38041025636647546, 0.04067733224640709]
[-1.032926185934319, -0.20724589713247618, 3.5799591907191237, -0.03294836600151521, 0.20417995281002424, -5.719670637347797, 0.17518185583839743, 0.07251226385531098, -0.16079315309664957, -0.01066183459820302, 0.0995073966413056, -0.02356237699569868, -0.05716236919848924, -0.12290790203959, 0.26908763581753137, -0.2559989488512622, -0.27212885724421143, 1.455612655586512, -1.292996721544857, -0.10798358137488422, -0.3881961931084339, 0.5191505476228748, 1.0409304652274807, -0.18567091665525043]
[0.01672947095114007, 0.33027893071492065, -0.31733324124763773, 0.28787244668550244, -0.03219743452837754, 3.6635807929875464, 0.13858515556723008, 0.029410040806205063, -0.06502528309742736, -0.3195565903137011, 0.021918451775991523, 0.22409861131029685, -0.02439305590749353, -0.08875591229036138, 0.12745053633928038, -0.18915482763160416, 0.36428113129625894, 2.8412493729693384, -8.723221512449358, -0.31548433831957945, 0.1294569552679964, 0.16026959120698267, 0.2909083939346264, -0.13042833548386085]
[1.3601103759134119, -0.5253765394352468, -4.298508947038327, -1.5258897953261716, 0.2192234692431776, -4.11866495197852, -1.5782000478414515, -0.2686333523830425, -0.04827881163175748, -0.9969641919268152, -0.03801309422989407, 0.11372629709082342, -0.5653604936268918, -0.08467162121539257, -0.24942166982771607, 0.11549943209317441, -0.2027666788876736, -5.133554975832455, 3.618374478448369, 0.9703505381483706, 0.2904062020653437, -0.12735734647558666, -0.906995009199855, 0.014873835242658322]
[0.3244465363487039, 3.5388382654417665, -3.392272281116197, 0.06657549838075373, 0.08177138803981492, 1.6714614507828212, -0.3154803458719787, -0.21346141012599038, 0.021147137089149955, -0.6897213953542676, 0.20002057053310393, 0.10937170586560692, 0.2997820340546442, -0.23478359872820107, -0.637994908488902, -0.23249570226194105, 1.026557856393781, 1.9814848357003134, 2.9795050355872195, 0.12597535329505022, 0.3393212520437041, -1.2328324810431819, -1.7550236148956946, -0.1759112984184002]
[0.08593657764345283, -1.2063851503085552, -0.3607131930547653, -0.16863667714634908, 0.158669107678021, 2.9426221434612425, 0.13966668956578981, -0.12754057057340884, -0.1730114321856087, 1.2910401678229388, 0.12943365671568127, 0.11066454753941903, 0.1881483763685489, 0.07513759229737743, 0.6171290393464313, 0.025445455832853004, 0.6581177141260557, 1.7670282309637093, -0.24260457861770984, 0.6506222001133065, 0.2976837068177487, -0.7185938481501409, -0.30482283386424075, -0.10105458641560937]
[0.7406862806649203, 1.4692739990570869, 1.4940482228590841, -0.580289167665275, 0.12976809159619918, 4.844355007791613, -0.48619157444664457, -0.18738866788813532, -0.020274008714027104, -1.3286585620682543, -0.012819515206230014, 0.30560322422394764, -1.29473969310657, -0.12530241392291205, -0.6402540799568935, -0.4942492612829601, -0.8350781616437423, -0.9446334325135823, -0.8746736029127724, -0.22095200463818265, 0.053351454280239095, -1.5333670269046185, -0.05198713783698293, -0.22331729283843152]
[-0.009464890402111396, 0.3150743694327201, -0.2187180751040505, -0.10384908764563322, 0.15169991503044322, 1.149939572929829, -0.10536722404483859, -0.0159089448314416, 0.07720347912637784, 0.02942436144224019, -0.07008586916175902, 0.10348532073771743, 0.08383155615604934, 0.15919311575142261, -0.03055198473938687, -0.08271086334861787, 0.1257629704576128, 0.050312323844305215, -3.48924363843518, -0.1739672085766906, 0.09728569487739688, -0.39651193309726546, -0.22903096126112632, -0.055533483259718845]

Output weights:
[-1.5005328732888275, 1.6791909612705118, -1.4590512302407075, -0.8507961284066802, -1.0556774463152359, 0.33780435536262454, -2.321311849253462, 1.318587666030609, -1.5886318418457954, -0.2506795630233914, -1.5207357588804253, -1.4738893006920983]
[-0.285499980438393, -0.5669554058382771, 2.206079990077162, -1.096108482872531, -2.07852899518263, 1.7205633595483871, -1.520744441944979, -1.3132062684718346, -0.8693153751918035, -2.840603065716491, 4.048573766503885, -2.70513125373859]
[-2.7108768303542345, -3.7834031509394896, -2.988454961126153, 1.447715021540459, 2.695982717380391, -2.0365532665042183, -2.3071743393086077, -3.837727913698692, 0.4936243415320761, 3.0565563268098, 4.27461097425841, -3.9596863120607937]
[-0.7061637608967268, -0.6687908307554176, 1.1102762114350393, 1.0017702816731784, 2.5353332383546054, -0.6040290936292231, 0.2566635295390579, -1.4536870571902103, -1.1280808148026908, 0.6632402406061448, 0.3949150590239746, 1.4245061333876556]
[-2.1107981180365925, -0.2892278678629186, -1.7748458184048386, -0.07637233633397168, -0.4595412821328657, 0.21858328211406, -0.4797367428691202, -0.3571442664612634, -2.7085150828556466, -2.8102618066517238, -0.5960188393267845, -2.4345985571005224]
[-0.8976255878797419, -5.080811596026335, 2.17174443449591, 3.273185225568314, 1.9995677440352633, 0.2472862323553825, -0.5944077650340591, 2.6702370980355514, 3.0613231360301305, -5.310677864414509, 1.8784125954134943, 3.124681054368991]
[-0.253907341438667, 0.33489537651531237, 0.7361789296074844, 0.26625470597247924, 3.162626868544331, 1.1779508002725279, 1.8362688903066524, -1.7837615629050767, 0.15041983943652382, -0.06881035213050513, 1.014736876921544, 0.05092141587512443]
[1.1587751256629442, -0.447413003655809, 0.28246013068626974, 1.3434624439316873, 1.1883671403294243, 0.6324736505858326, -2.011646340686598, -1.2789480723085862, 0.0016516680568945585, -0.9921826215507933, -1.7403544095654018, 1.4323846711152945]
[1.7696161830958206, -0.7901315735819574, -0.38655040293770565, 1.2333657614550095, -1.7596069059509551, 0.5657342641210218, -1.4957061097966886, -0.8274934513084792, 1.3142817095700334, -1.7815178814450818, -1.8519142837496787, -0.33753393475835436]
[2.5422612197536005, -2.24269083117965, -3.0540180147851284, -0.23376144594603976, 1.0005190289085313, 0.6987912689370376, 2.457305604255357, 0.00825119535022591, 0.8600322352667356, -0.04801969668101009, -1.430136074940921, -1.010798558434131]
[-2.175567021544428, 1.5872463046949683, -0.3446983459304684, -2.857120388162984, -1.6310345638630102, -0.731170204004506, -1.828844953323586, -0.4871944858958543, -1.061986581530143, 0.37073978192558893, -1.6312981406956544, -0.7673531000037507]
[0.269365769182169, 0.5779815907173215, -2.245778173659908, -0.260439468484853, -1.3234274643352613, 0.943151947173117, -2.824380005069047, 0.08944688118902508, 0.3402879299384039, 0.6202058992253943, -0.5849900653504321, 0.26330551129264046]
[0.442307500330089, -0.17007497454768028, 1.2727776222219898, -1.6305492767693406, -0.10037566007155002, -0.8973676882111598, 2.5942805191909, -1.0957258149374884, 0.44563679936614625, -1.8296980450073368, -2.4556684031475506, 0.6697170020276929]
[-0.05494249678564096, 1.6036642875596594, 1.7765329760665436, 0.6636266072018612, 0.2839409104237594, -1.1315657509289068, -1.6312399581667811, 1.276262030457412, 1.5526474959767056, 1.1160581659018958, 0.7943268219659874, -0.3204162420783291]
[-0.778205182930564, -2.145395135345976, -0.6689550537835168, -0.579689221078192, 0.17462649746543615, 1.3049649842825126, 0.013616588691623292, -1.879439154159993, 0.5149738304984316, 2.6274247247129243, -1.790143638090504, -0.6145540932904825]
[0.7539993100609883, -2.240988684036941, 1.5259977835987282, 1.0993854890382107, 1.0416002201002956, -1.5455239812330477, -1.678676142848039, -0.6665079888319276, -1.9581268228616706, -1.2210062993419233, -3.2699730092674173, 1.3090838335414656]
[2.108647022828415, -1.9446145653342368, -0.9566579538822171, -1.2290207956044554, -2.3386443239013857, -2.393164803675196, 1.4069969083191385, -1.1110331758972496, -0.9700566622728065, 1.8497794988417133, -0.8912744043724872, 0.35515972972178694]
[1.1742125657483211, -2.1111744961230956, 3.18267829293379, -0.40161089940068734, 0.9934702017567185, 1.297318283704253, 4.866379306572449, -6.46236083063886, 0.8721694873395582, -0.7574506960933579, 1.04214925391593, 0.4107114730738946]
[-1.6577481305560369, -0.16250254421549434, 1.185391435026655, -1.8467384522952666, -2.7732085411867184, -3.34878033618128, 5.495272667714448, 2.311778439118935, -0.6692377129054046, -2.8147675022307124, 0.23712566868808277, -3.2428884439431247]
[-0.13821322574911593, 1.5137297657928404, -1.174002283045594, 0.6280623007571908, 0.5685837072062253, -0.09505772190930403, -1.7949742151893282, -0.851092641907896, 1.1875224963749935, -0.2211508059342203, -5.08744755508205, -0.8744754613284719]
[0.5189510416539576, -1.5770392851922868, -1.7497346497968411, -1.2698782918780882, -0.25487230169768543, -1.8840072760664683, 0.19064794600441906, 0.13799957404035423, 0.6327645749970798, -0.5841757648835065, -0.37128738259965166, 0.012308584733980318]
[-0.6426777916781423, -1.36530308782213, 0.5089726704492856, -1.3704625121666634, -0.9160431245665045, -1.0636173394197879, 0.3641605951742599, -0.5949969907783172, -1.0066117824857068, 4.805129148013352, -0.4496297922714237, -1.1926713238739224]
[1.937192307651567, 1.2552905559296883, 1.5974662001900874, -0.3919237968085274, 0.8220344405880623, 0.3525660459679441, -3.334736643187966, -3.632945361912947, 0.8260450783158615, 0.2082924050786332, -1.854197409259257, 0.06535605528926587]
[1.0312067550529909, 0.5164094771268438, 0.08768960880539133, -1.4450354245610015, 0.8188037085210187, -0.11874737019789812, 0.6763292131392352, 1.0433563831467814, -1.1184055276487488, 1.0179294629822022, -0.8848205242552258, 1.9065041433398937]

迭代千次:2
Input weights:
[-0.517973361784188, 2.1956490520146237, 17.178524538913425, 0.9298118831228724, 0.04413972783899358, -2.2877238598964698, 0.2745013600678832, -2.1870578867897117, 4.476317023174277, -0.8498133458727993, 0.1175552763104931, 0.051721972040864234, 0.08944692751887386, -0.05675692448433612, 1.7290386747725701, -0.3286349000701192, -3.466863193671247, 2.9155550505971783, -5.998434296023995, -0.8182492472153774, -1.289202705454818, 1.9162784382789304, 1.026919857958427, -0.06237233370124336]
[0.645531407190856, -13.419759443060903, -7.388571460216915, 0.14256684689753468, 0.3442228893177348, -9.992322754213436, -0.34283723436735725, 6.270455618060459, 0.20011006942786622, -0.6074720916391667, 0.12069045462798957, -0.12777821785951038, -0.19111498819840445, -0.1666933180660301, 0.7314374085897942, 0.1486276293654904, 2.419811502904671, -0.9475333100561584, -4.319022175895593, -0.13461043982465398, -0.10423334439571157, 1.335785010593995, -1.141059946206623, -0.10256653767255183]
[0.6399317006240104, 12.667323526567266, -8.657494056583927, -1.261667939386606, -0.025423323786430977, -8.979360537720245, -1.494464701113187, -5.947534287422412, -5.675651494491129, -1.2115149030595143, 0.1774929039578252, 0.12672833517180537, -0.3127666486857111, -0.07706450129419545, 1.130822057771998, -0.21957538952961778, -1.1120979466444385, -6.323530108647576, 2.1190301787059833, 0.4728433995506982, 1.1475496317708016, -0.9670663016236333, -0.4685932928454521, -0.3135680476850937]
[-0.3759811151315188, -2.092397121036025, -6.240045218048701, 1.1587297327744792, 0.20426974199757073, 2.9420616445544634, -0.03148628228254414, -0.6800567530570117, 3.934695999177739, 0.7518894536066989, 0.07071647504846879, 0.05254316190315819, 0.9431016640646741, -0.17007791793230972, -1.893475147091591, 0.011592631164671904, 2.182909749252974, 7.381542871448699, 9.502391531981402, -0.3458670474226357, 0.7692518061850929, -1.7280947639718358, -1.3011076437388174, 0.034524191439113644]
[-0.2670425728339732, 4.987799922261455, 4.056563718138113, 0.6905830007256228, 0.1595856420532207, 9.895531368030639, -0.03905349461409709, 0.7541292676762911, 1.523584683578358, 1.7576125682733756, 0.18265338956136848, 0.03507886843028183, 0.05165779119078655, -0.2525353237739452, -0.7023189246492569, 0.19233545414289926, 0.2615706777591386, 3.841243234830974, 1.474181092860097, 0.26899870459528613, 0.03444794620322536, -1.9129884892969165, -0.4715859728548086, -0.07791663846659502]
[0.9512228064252304, -6.373268230439031, 0.3980753341350906, -0.05424813208675849, 0.025059905333912207, 5.752609314783949, -0.1024807813358101, -2.233972911641393, -0.9733758011060336, -1.0003545428500926, 0.2545655743079059, 0.2873039098356994, -1.1532933498914684, -0.11187687169141987, -3.753415983339489, -0.4265582613106773, -1.0872369618393973, -1.8873070717323261, -0.9723392397718432, -0.8123949733445855, 0.1109343921372298, -1.995272424134432, 0.24786675355053872, 0.046004004109447126]
[-1.024800012003801, 1.9268702062429128, 1.8794539057344866, 0.7517155522680277, 0.2102057160206567, -8.819809349669528, 0.16642012833461092, 2.1022181261910062, 2.886696569904875, 0.2443307403009668, 0.106846652285749, -0.015461631764096182, -0.06277468183748242, -0.13382678273736437, 1.1546617415317588, -0.26326242057647636, -3.1537319371138883, 0.22218382454732763, -2.399058806037454, -0.5820816481978149, -2.064093880380837, 0.5192518911099382, 1.9819873391111595, -0.19790123293990208]
[0.023729176432323074, 0.5618124069610871, 0.4627849589439421, 0.7822049614533744, -0.024058609274885557, 6.390959768938304, 0.1300649589650612, 1.5761202227287097, -1.1638272357376755, -0.2450755132632266, 0.029493010034328367, 0.23069971454958957, -0.028859198968891473, -0.10181208319730574, 1.2178755615747967, -0.1845438298506662, 1.0659507714580985, 6.541957207729108, -11.66480388900392, -0.9451594025685249, 0.762898168084734, 0.16036614969852822, -1.1639761538129751, -0.14894892911296326]
[1.3616342636975338, -0.4742488002654654, -6.774959307333797, -1.5707601103554032, 0.22137582559853725, -7.281833510201782, -1.578800953541345, 3.1266537664076965, -2.3544628426730343, -0.7169785595824518, -0.03820459963151972, 0.12051423880104842, -0.5673890069675267, -0.09185262548571875, 0.10595504607935627, 0.12631460707577663, -0.01670982632157212, -7.897197291012794, 7.028112262562507, 1.027159854220277, -1.4691944473513923, -0.12729793034859038, -1.4132476482374492, 0.018914045652446237]
[0.33024848997261996, 1.8290288738500575, -3.44633706172441, 0.7400868459886629, 0.08576578508160941, 2.7602082916267503, -0.32425785369180915, -2.92564595239862, -1.322257124669451, -0.7630173751509429, 0.20551630216863756, 0.11601406841297114, 0.29444113426499396, -0.2398077680058894, -0.5936525518674903, -0.22672984292926437, 1.0072093960861699, 3.4060167865263113, 2.7478936330240438, -0.33896698472899517, 0.6123035147784552, -1.2327948508668944, -2.673324069117372, -0.16811619725894675]
[0.09528286735080851, 5.254412528665212, -0.33842571435196017, 0.541002476652334, 0.16019053912919515, 4.837632127311276, 0.12892798705042852, 2.129355422671446, 0.3960524863458833, 1.57969676477222, 0.13382749383107562, 0.11716254375520042, 0.18328637382759427, 0.06997467640667546, 0.014711842999540205, 0.031143969734447465, 1.1076269898106126, 2.060006306530436, -0.4713197262598808, 0.7647089420923338, -0.06508300418022435, -0.7185546733255052, 0.06170154909507496, -0.09022097665802661]
[0.7486143062928208, -7.90980974675135, 4.154715582786845, -0.3261625099978311, 0.1361508020049418, 8.10186691495888, -0.49555851422893116, -0.4154314416085562, -4.258046111793629, -1.6972599312695429, -0.0006594426149668592, 0.3137784146803008, -1.2977265225214847, -0.13151206545469785, -1.5703115203183418, -0.4847484591200003, -2.0597863388218913, -1.8903520689540712, -0.1900526100342744, -0.7729173897862678, -0.32211518248246596, -1.533310996954422, 0.5342538387182784, -0.21415780192193642]
[-0.008899522519820536, 0.7450382121615586, -0.1782617177033324, -0.16046073560165197, 0.15222657561548955, 2.069053425701218, -0.10601388557143435, 0.18535175868541898, -1.0154033626504815, 0.018169989446280014, -0.06922978333078594, 0.10431579136161802, 0.08354340712882917, 0.1584063259804555, -0.21327818980523308, -0.08192425397026303, 0.13915999326597203, 0.09248583703482509, -5.008117529336204, -0.2252539043332272, 0.11809349688721385, -0.39650711751357093, -0.11891703166383132, -0.05518775949572096]

Output weights:
[-1.6066298630854428, 1.6544173250935323, -1.9701594636330317, -1.852677680906317, -1.8072517647126316, -0.7058325186641283, -3.5418162445517334, 0.13413045247633412, -1.8480538546231167, -1.5658866341615545, -1.8907540495248363, -2.027096191884588]
[1.886747078700721, -1.6388533603096578, -0.29586533962149436, -0.6626595109458115, -1.532942922559601, 1.8877355094687944, 0.8437281889754512, -2.585895601618784, -2.046842643613721, -3.352734826529073, 2.6896246526962764, -3.3074983137813927]
[-3.5801963865253823, -4.5595885117244865, -3.9574190581683313, 1.1542732758573517, 1.6485604466360317, -1.7136964426780865, -4.477045512683252, -3.8295959329044647, 1.4337552201367034, 2.7882920679655987, 6.836906052527827, -5.045898929539612]
[-0.2172746226427898, -0.19162143778298407, 0.4268711814347243, 1.7909032645996965, 0.9290626132017324, 0.11781863178772028, 0.7510761286048877, -2.252401441904767, -0.36751730693988266, -0.08517640543651799, -0.022401611917534415, 1.6180639053376022]
[-2.2169060737018644, -0.3139662754559951, -2.285909915192857, -1.0779929471551446, -1.2106839105901306, -0.8251591720519582, -1.7001703049988897, -1.5418711460652428, -2.968070094634128, -4.125429862650711, -0.9663439821073556, -2.9878003556246804]
[-1.0284564136560808, -5.085310454861783, 3.286424134905698, 2.540940487886618, 2.152748180172856, 1.0223805228647223, -3.195513898484, 3.479750550467112, 3.151376450485664, -6.2878260133511725, 0.10188457420807258, 3.844725493482078]
[-0.2539086452864861, 0.33489537639526507, 0.7361788469170728, 0.2666587719373219, 3.1623966425716086, 1.177950767317199, 1.836268886845142, -1.7837615629791863, 0.1503608693151085, -0.06881227428114077, 1.0147195501898931, 0.05091793205296107]
[-0.2645092529222145, 0.1960927778584773, -0.6290829535573501, 0.4203860771710043, 0.9395487261757196, 0.6899881090255339, 0.24347063291574955, -0.7603879667372913, 0.49967851586741824, 2.0224697899303288, -4.853596075875066, 1.3348869195063133]
[1.7859283191744755, -1.0976491964736927, -1.1308844389963295, 0.8735732919661807, 1.745678619818711, -1.740818249864562, 0.904177974947988, -0.29445034619689575, -1.6080994982101664, 1.3751203373003975, -1.37788108742865, 0.6457095717882477]
[2.419315278966661, -2.244008762403769, -3.0562492974976303, -1.282785013585793, 1.5757839061475094, 0.6964423771154181, 2.4390615463067804, 0.2917678309587986, 0.3112039168522435, -0.060833878727278724, -1.4461702813547115, -1.0175606615633248]
[-2.2815940635280416, 1.562671562175557, -0.8555175021162977, -3.8586291959686405, -2.3819538765732458, -1.7758365700036824, -3.049254324936839, -1.6718275375565619, -1.3215845402238433, -0.9442771139037662, -2.001375813426917, -1.3204255505859184]
[0.16339163978747506, 0.5534385579435203, -2.7567719077494632, -1.262113927268555, -2.07451987929489, -0.10117905861908535, -4.0448283216978576, -1.0950236468166092, 0.08056719821504221, -0.6941099924681136, -0.9551777613635075, -0.28987394872681815]
[0.4422716589162254, -0.1701103411841082, 1.2727391427452006, -1.6304146756459645, -0.1003773332047839, -0.8973747001162328, 2.5942991826016892, -1.0957266840840052, 0.44563025214934987, -1.8297049528893434, -2.4556674997632126, 0.6696076700607551]
[-0.054993065298470256, 1.6035643980043979, 1.7764027238426425, 0.663517082571797, 0.28366453966600347, -1.131137522537969, -1.6313192228608653, 1.2765146390629376, 1.5526284297538422, 1.115943166729429, 0.7942407630897059, -0.32045433768863135]
[0.30923137891954205, -0.9212508264080942, 0.30953837434933446, -1.5256858293054958, -0.9644911766952817, -0.7729922003925368, 0.6970560865573155, -1.9246015446800775, 0.9670607032281285, 2.768697494689972, 0.15521612967371137, 1.248898629099036]
[0.7539728042701819, -2.24127064950347, 1.5259754356719397, 1.0993299425479417, 1.0415974215235937, -1.5454869281872023, -1.6789177528188106, -0.6658503711873919, -1.9582999498095457, -1.2210116920005993, -3.2699821827484694, 1.309074611787157]
[-0.3543501267536377, -1.123825262154053, -3.3894564265932616, -0.37811425067822874, -0.7113151724819444, -1.7550210768556989, 3.8580260364377414, 2.1637264285499667, -0.050352873693811404, 0.6269009612269952, -3.7596260283716623, 2.0279942371239055]
[3.056536495426162, -3.305459931568592, 2.602425190261701, -0.00640023701227735, 0.11229592231626107, 0.04864075793921756, 5.558559564468867, -7.150887589873564, 2.3338340474044514, 1.490828077757223, -0.4969384314280632, -1.6113579223120142]
[-3.098161664524879, -0.2755168696969147, 2.4347737365302478, -0.38426539431177, -2.681125597262591, -4.077542337320501, 7.434978253202, 2.9453123305103888, -2.573859436340262, -2.8166531946490574, 0.48725897448567107, -3.8561388647402173]
[0.5237729430014514, 0.828551759461577, -1.0021792762927955, 0.9727211582884808, 1.162293775150596, -0.12992734765411174, -1.9006006758640726, 1.1861186492410374, 0.8834447322884108, 0.1215659874862749, -4.966803031883797, -1.6363067776284812]
[0.26382016370480177, -1.486247587106092, -1.822241099968471, -1.5620866578483363, -1.1173017561495007, -2.909640922313984, 1.4369917382010065, 1.8421603655884653, 2.5176598396493155, -0.32851829817375, -0.2429995514243232, -2.8801997670927606]
[-0.6426780282988792, -1.3653030937757906, 0.508972670448432, -1.3704625193609563, -0.9160433275054051, -1.063617341552829, 0.3641605947396783, -0.5949969907783172, -1.0066118400647945, 4.805130061173587, -0.44962981825939113, -1.1926713238884892]
[1.8291473569076107, 1.2293076378314884, 1.5486887525466568, -1.7974076505643406, 3.4624020348880147, 0.34884381776886264, -3.3348349654777527, -3.632961054580645, -0.31126628225920044, 0.12134027855283779, -1.8997143089291928, -0.025446700945665597]
[1.0310706095890854, 0.5161825936529094, 0.08744870080595656, -1.4452935471039372, 0.8180735870353104, -0.11811704871716702, 0.676007836883997, 1.0447246688267602, -1.1185350498443583, 1.017495948395964, -0.8850252131246324, 1.9064144161183563]

迭代千次:3
Input weights:
[-0.5177991559567453, 1.2537135678504492, 16.51707551852118, 0.841225480590808, 0.05001044687486075, -2.325646957732424, 0.27087001409298844, -1.2116480364163826, 11.720113950248823, -0.6355829825016182, 0.12278406086304754, 0.061358169271818155, 0.08619858192144501, -0.06120759591237788, 4.9581932896333125, -0.39120091430570003, -3.524492800153801, 4.115280369643336, -6.641112611982718, -0.9016786172398367, -1.4508197272296133, 1.9162844661295926, 1.0173026843471131, -0.07026562196652836]
[0.6458362549484004, -14.498843810281716, -9.129925396303982, -0.0033221684637218447, 0.3495330380419657, -9.88654492918616, -0.3462197759764783, 8.949729300765712, -1.9765836796757845, -0.9269789971410081, 0.12306372868817006, -0.12059117549766163, -0.19482643172600808, -0.17132369283382207, 3.5849267243023566, 0.10938334518708395, 2.6190972196842037, -1.9396420798367657, -4.015701740124631, 0.12492304677162015, -0.13272594240037905, 1.3357902520880562, -1.172830463726144, -0.11324111912828688]
[0.6397431958803073, 13.702349291434098, -10.116110708004436, -1.6250481284633578, -0.022846234940517126, -9.28233716988895, -1.494486360801451, -9.357987219581517, -10.067149198213693, -0.5994695823187259, 0.17870546623337427, 0.13399381264712595, -0.31517397871450575, -0.0795649971811606, -1.0722765213948666, -0.11012149530309444, -1.3052957473481912, -5.2293920475779805, 2.512996314478925, 1.4437949833880313, 1.4416789951874622, -0.9670633924438712, -0.4644250720096487, -0.3149549679843764]
[-0.3765406017882057, 2.8179120045933845, -6.862814331878336, 1.8773420143346546, 0.20733634690973188, 2.4624834797137614, -0.03537699712110572, -1.0254047227339547, 7.211208258430992, 0.4073473076960172, 0.07424195143232022, 0.059743232549709334, 0.9395066206842726, -0.1720768260764977, -5.2796274246095045, 0.09157659461144006, 2.8537885109015955, 8.408111343108907, 11.084485803894028, -0.7390234461502834, 0.9760302079460291, -1.728092765879673, -1.3662641177619776, 0.03472896503321744]
[-0.26665017723845735, 8.620401050634245, 4.994944925044903, 0.709294590223803, 0.16181284661268933, 10.681086552058355, -0.04329828129277115, 1.138328160158873, 0.8217048015315364, 2.1814568114367714, 0.18634974725405756, 0.04168927873780379, 0.048932160459218006, -0.254880780338017, -0.761111315858409, 0.2648177824431203, 0.24016019951809883, 3.191968662165277, 1.5993387686405365, -0.13944349055946414, 0.027572981747821416, -1.9129863194621108, -0.5694361604358724, -0.07416670909840556]
[0.9507587952859912, -7.408407742223079, 2.1934762979189477, -0.7447855020855713, 0.03139926200317388, 4.786141949835781, -0.10632635581669614, -6.634977131409973, -1.9101419383916087, -2.0725628228322583, 0.2612441359264787, 0.2950850090617134, -1.155321076373973, -0.11520772971048106, -7.474709184307934, -0.35185602704474217, -1.233345615963899, -3.126964236839712, -2.132547950469809, -0.23418814904322133, 0.1371674121409417, -1.9952692518729387, 0.2936897456251522, 0.04829512495551275]
[-1.0246125022270316, 3.4784106668670542, 0.3367994643797963, 0.8193693065473074, 0.21577633579189434, -9.15388966037943, 0.1628377413341329, 2.655344227197587, 8.174705322465716, 0.07064799967495416, 0.11138840554105141, -0.007539010733595952, -0.06707003153503624, -0.13874129851440412, 3.0369067051240006, -0.3165567273616745, -3.4735844263132485, -0.8769883695289674, -3.9545449212995214, -0.3733834442218435, -2.5110899701163345, 0.5192577072515351, 2.13105856816898, -0.20329270870882507]
[0.02399613149699098, 1.5567757312867583, 1.3935058191279368, 1.5726221100878524, -0.01705833175915137, 7.264486650423152, 0.12658137135524153, -0.9520242247426367, -5.7208726265860435, -0.9845323480934418, 0.03257508034877639, 0.23656213099545903, -0.03247027493203304, -0.1075946852201764, 3.453063779586965, -0.23954820508807878, 0.918181464901087, 7.602738923892457, -16.0374036622595, -1.9455833083420169, 1.044994164250384, 0.16037177098544664, -1.2896011803913123, -0.15942346161876525]
[1.362163066969008, 1.741157269076413, -9.656898199562756, -1.683565471610064, 0.22376444999584447, -7.986571849024977, -1.5790588130415875, 5.612499596429715, -0.7787848280759605, -0.6433505879772932, -0.037693593152820046, 0.126820079197307, -0.5692393978989754, -0.09536936414574147, -2.996816315741996, 0.2497960184882926, -0.057125917175181146, -7.958802869889125, 9.475940863947171, 1.867433695854189, -1.9390023031168226, -0.1272943839231543, -1.4643741363747422, 0.016890896104226793]
[0.3293773282958631, -0.5671039382805158, -2.5412373794980856, 1.0830864776016174, 0.08981836642763451, 3.0326325667304155, -0.32783206642541357, -3.7213795901039783, -3.737976879946165, -0.08276167438708193, 0.2087741662676602, 0.12153679398910637, 0.29007395040664763, -0.24249092552558782, -2.8412181450001213, -0.16829346749136442, 1.2389453740415823, 3.7023648788165353, 4.435300531947314, -0.6522764969672181, 0.6447737370067403, -1.2327926296304907, -2.8531518403088594, -0.16629819853345215]
[0.09544796874013535, 8.201819011861856, -0.9065342671974106, 0.8096228146654278, 0.16167837789545642, 5.338405221764755, 0.12452218285416428, 3.2039382066401516, 2.823270790412763, 2.5096717122169268, 0.13607288333138012, 0.12251529806420154, 0.17934815223795503, 0.06697614745332664, -1.2306057353360988, 0.09838537733866921, 1.2418783537952363, 1.8096412471611203, 1.1781853550308434, 0.3443073127414662, -0.09453944664209647, -0.718552374181589, 0.09481859643990038, -0.08644548490881543]
[0.7481888688880579, -14.308950848678213, 5.930332482291821, -0.7240510142956275, 0.14236289005754305, 8.398065987502836, -0.4993678308893382, -1.2675185522152423, -5.666384517720212, -1.5701638892035952, 0.005356683807453827, 0.3202457136384577, -1.3001519337752694, -0.13508566097261343, -0.8990228007254207, -0.39655614407274475, -2.4564898314019077, -2.201401800977639, 0.4774555403918787, -0.654619723111398, -0.40662383433227106, -1.5333077691924828, 0.567735147901641, -0.21053581298320403]
[-0.00892718688199291, 1.8421650845171695, 0.08078260183823383, -0.2802273856776575, 0.15273229970992952, 2.30087157489294, -0.10627712997728361, 0.15430980783713508, -3.181421248385674, -0.039880527197208825, -0.06871032198297676, 0.10516542151243798, 0.08331139022631372, 0.158004538249407, -0.8327991096629688, -0.07738073061405851, 0.1722324838829572, 0.12040227926200706, -7.665196435533832, -0.32714545423674163, 0.13378962029123992, -0.3965068393834784, -0.10647507281493873, -0.055163505279224874]

Output weights:
[-2.112874985496456, 1.4291861308336709, -2.3825583931877468, -2.2255296863708094, -2.0286147255398403, -1.1036742908600796, -3.964793973776931, -0.04571945653498265, -1.9169274794506646, -1.4846201460048858, -1.7876386012118095, -2.208770128034464]
[2.3363843147179586, -0.5050487711023102, 0.7829555759111836, 0.4561040180011722, -1.8178317315530268, 3.277367135112473, 0.954741223159725, -2.8853934687227287, -2.439979200334191, -1.4155921742033026, 2.6835346687289294, -4.145893551308782]
[-4.3360247283567785, -4.671601418879572, -4.062639418651292, 1.485651213858841, 1.9830220461649708, -1.9419966915796583, -6.466608485093962, -3.829601790792805, -0.30650351183362906, 2.325736957675128, 8.846073268162248, -5.819738421073547]
[-0.6735178457903331, -1.2228625753589926, -0.10737437810262193, 1.391196954041944, 0.682155804695828, 1.004515288460311, 1.6151121744605446, -3.4109286029036423, 0.7045385468197282, 0.04274042454517334, 0.26429233349179654, 2.61833336488338]
[-2.7231572920439913, -0.5391909684858361, -2.698295384439817, -1.450513580304753, -1.431985561498496, -1.2230530032403002, -2.1231251007494625, -1.7217938942842435, -3.0370191514519274, -4.04414680047107, -0.8633425483571043, -3.1694475592954534]
[-1.0624769885869738, -4.019192499345598, 4.111999778829508, 2.6325919023512543, 2.709786247636181, 1.5344187747901041, -3.4822891083546237, 3.3185165148468445, 1.558507073593893, -6.503645228976561, -1.781025587531252, 5.007533551365231]
[-0.2539091778341435, 0.33489537638329697, 0.7361788456488965, 0.26683418492591165, 3.1623016560201362, 1.1779507862561307, 1.836268886837833, -1.7837615629791863, 0.15032035834992807, -0.06881244112376324, 1.0147158850948816, 0.05091757248127758]
[-0.18692910138091173, 0.1796306294636316, -0.679878822820837, 1.2193628151572236, 1.6275575784717473, 0.7238781888666305, -1.247132358406254, -0.4258563334011318, -2.239622221361223, 2.9743859710434846, -5.720389758485901, 2.457817584418225]
[3.3108288515713995, -3.2288978172188836, -3.8968635670673, 1.0690698627387423, 1.7272160320911722, -3.1751878760465906, 3.3048614175796724, -0.29409711479176653, 1.5911428464121344, 0.9149559979335904, -2.6337357678207507, -1.0585215692002239]
[2.2442063745639738, -2.244728145735283, -3.0586204817379268, -2.0567795793325394, 2.1008603091494202, 0.7082050221285019, 2.1755951037335852, 0.6513518690441619, -0.20481771999735057, -0.1227537274580239, -1.4473074010695015, -1.0204657122445624]
[-2.787807440314804, 1.337525072300315, -1.267792372262159, -4.2310913742772955, -2.6032002247606925, -2.1741735714449075, -3.4721986588589577, -1.851700359271343, -1.3905394052178648, -0.8628989511217434, -1.8982965040925543, -1.5018511072537695]
[-0.3427912151563612, 0.32826393210881677, -3.1691353521330727, -1.634637247603229, -2.295809400859937, -0.4992027948240936, -4.467745250070282, -1.274875914439163, 0.011509295104311885, -0.6124295913459419, -0.8520375646383493, -0.47149576784934893]
[0.4421724183731599, -0.17011044957441263, 1.2727352548565602, -1.6303035422122027, -0.10037779636350173, -0.8973755705104808, 2.594299955426201, -1.0957266830157664, 0.44562959623569476, -1.829706461489039, -2.4556667879612304, 0.6695993544851532]
[-0.055018577612694956, 1.6035274479787853, 1.7763573375165564, 0.6634842090785816, 0.28359871460088865, -1.1309495880830724, -1.6313475203863526, 1.276583637365806, 1.5526017188297891, 1.1158758271508988, 0.7941683927817865, -0.32054666175294066]
[-3.73107100987905, -1.5936769729238045, 0.6774650054235166, -3.226406768210224, -1.5663431737597915, 0.6313994929598138, 0.006789429476427954, -1.9246146025223412, -2.3564489296550337, 3.0063380151464645, 1.4379426145624834, -0.11901599337904412]
[0.749833304965805, -2.2431468911236694, 1.5245394818935747, 1.0995215707783623, 1.0414925310602534, -1.543244893710107, -1.6976342254728176, -0.6048450174584139, -1.9836933930837033, -1.2211146606737873, -3.270015865691513, 1.3086985864112612]
[1.3029593273717095, -1.9582217340869725, -4.340458591528619, -0.6430770028169145, -0.7907122473008912, -2.898871097772414, 4.522603305031274, 2.5283158889968167, 0.04369050410459809, 0.4642092223081076, -3.7601889283044803, 3.615357201746528]
[3.259075776562659, -1.3407678229594824, 3.3035765641543997, 1.0105514186934896, -0.12430030559554842, -0.5829279391738563, 5.460742299112793, -6.758619230207037, 3.511401381293791, 1.747647658761294, -1.0609041572182396, -1.4971826456641841]
[-4.013338997919976, -0.8819055517975385, 2.9284755356657244, -0.6830948379771059, -2.454547331333943, -3.7649161156144175, 7.390821746225782, 2.4297291500258456, -4.581169335459828, -2.8198544370855325, 0.35200398432138336, -3.9297486091778824]
[0.44659679641940986, 2.006624413930249, -0.29535573828226475, 0.17231004145123943, 0.879284883996446, -0.5828342012096601, -2.0250769755694105, 1.4654719926484034, 1.1521384329641697, 0.20851660856833817, -4.302259387782976, -1.9875152175552364]
[0.3860947424989913, -1.6173426979477665, -1.9627607911396392, -1.5134221158053474, -1.1680108345386786, -2.9321879217902005, 2.000839214736591, 2.6257997623761025, 4.024707477724797, -0.2894535298421679, -0.12816923855168827, -5.433544183826927]
[-0.6426780467879012, -1.365303094191001, 0.5089726704484151, -1.3704625195154772, -0.9160433442701138, -1.063617342058728, 0.3641605947044067, -0.5949969907783172, -1.0066118517101534, 4.805130110267834, -0.4496298225946164, -1.1926713238961395]
[1.7406364214625005, 1.225039485433298, 1.5479590898461506, -2.6961031910954447, 4.112067391607412, 0.3481207257168755, -3.3348357592894327, -3.6329614226940254, -0.5425640576443492, 0.08002087503262457, -1.8849542412501616, -0.26322410284968223]
[1.0309684247399669, 0.5161235876305733, 0.0873210970931428, -1.4453169495190368, 0.8178526134392713, -0.11773754608355777, 0.6756746041703628, 1.0455094011251438, -1.1186654502989437, 1.01717179537159, -0.8853636672356345, 1.9062328270853253]

迭代千次:4
Input weights:
[-0.5171696970388127, -2.157977726067853, 15.235048306405373, 1.235142113187932, 0.054384766653502906, -2.5643040022935133, 0.2678426453058747, -0.0573411166455349, 17.901456835728613, 0.8545851814665182, 0.12789384790553712, 0.06731241063860204, 0.08441180729353819, -0.06520446489746179, 5.325566173500271, -0.5146764445369097, -3.735339924946989, 4.9420767293740955, -7.672052067076942, -2.25379341509736, -1.6630002366255963, 1.9162871935825205, 1.0131995986507063, -0.3549740944637946]
[0.6472685535218252, -16.051732375059725, -10.421809817174108, 0.16111101831222643, 0.35454848979988773, -10.230810569252585, -0.3490515048083556, 12.770496344994289, -4.255243231341906, -1.538158762167819, 0.12532095776039753, -0.11614225348108127, -0.1968721745254161, -0.175781200036183, 4.313039138386106, -0.08679574707290426, 2.586386011149323, -1.7944634706790064, -4.454758702654455, 4.201212581731615, -0.187197041011328, 1.3357926265979183, -1.1839707580480199, -0.305733107384563]
[0.6391103719576753, 17.175140233731394, -12.868340840092062, -2.0878943756379047, -0.0234924651621662, -9.264513435520945, -1.49452832198278, -10.541278273836818, -15.303204461528017, 1.7613035371805899, 0.178879396586262, 0.13809657823965382, -0.31648967950886026, -0.08117375140236667, -0.21826016240099932, 0.28843611263542407, -1.2527716806016338, -4.555045254175528, 2.9156166625564817, 1.9919893076849995, 1.5954174055870174, -0.9670620865290676, -0.45565461913033817, -0.13551581905538365]
[-0.37637656933136904, 5.8218030426756195, -4.559210576023455, 2.716340736245317, 0.20676198091743295, 2.552852395560119, -0.038633517259090755, -0.9913374856681872, 8.712408495287264, -1.0350537267396565, 0.07687191793091348, 0.06412933253733297, 0.937536046215551, -0.17314034604331727, -6.454331188033114, -0.018022940608045653, 3.0540095246630306, 8.446638900111939, 11.866390628742403, -4.608971710977361, 1.1601080893914015, -1.7280918597389099, -1.4381722595476247, 0.32826654866814414]
[-0.2652678402192696, 11.459463409536639, 5.263440373548628, 0.7682446407227095, 0.16038124871511514, 11.01712827493622, -0.04680196398466137, 2.104307705513751, -1.6314328747116063, 3.4884165515402588, 0.18805071794546355, 0.045452714836818724, 0.04743193123719949, -0.2559112691358891, -2.151991274410751, -0.023680403984416457, 0.38461176713449324, 3.6333775725151565, 1.6195574183142811, 1.1898665001269222, 0.02487607439342501, -1.912985332814662, -0.6525365941932006, 0.03653350027145329]
[0.9506807362547712, -8.001791075699966, 3.807104233855551, -1.0698535896778554, 0.032332442934274015, 4.577409045315177, -0.10957342303430381, -7.525001731130703, -3.191262565452378, -1.823507600664815, 0.2664660042877965, 0.29977461121212196, -1.1564331389623346, -0.11717186426732626, -6.534920482090359, -0.17565764395902558, -1.381302624778804, -3.5060090946954108, -2.8640172671259347, 0.489339898725962, 0.08365785709154405, -1.9952678133391553, 0.32572839200279874, 0.05677563040063635]
[-1.0239493007144782, 5.541424890771877, 0.6511401652935538, 0.8406567317848983, 0.21967340441679434, -9.248678558827326, 0.15985392561157033, 1.355283390911686, 9.984738799984449, 1.4499421345019146, 0.1165063936190591, -0.0027317961364417614, -0.0694512205449335, -0.14294776386229416, 3.598255854927062, -0.2964867888184122, -3.495455562841965, -2.404861451944841, -4.612292663794338, -1.6194749972481042, -2.749035312432891, 0.5192603330659008, 2.243783411511188, -0.42741148123746847]
[0.02531295547256943, 0.9072914493310767, 1.1032933359249084, 2.404753305483932, -0.010467539829000986, 7.473281810235826, 0.12367987376258749, -3.8822999006762284, -6.846961930992465, -2.931235152008304, 0.036403268994705994, 0.24015378997020062, -0.03446018297081425, -0.11313388281312209, 3.91898909292589, -0.5458324946449046, 1.0023398555611231, 8.067347871692327, -18.702983178963226, 0.7931067734648305, 0.9995466812099002, 0.16037431324123058, -1.3692148286766848, -0.3140002211600704]
[1.3626930576077134, 2.2504904005548463, -10.845779068408872, -2.1111021061850077, 0.22385414548423146, -8.377748929783255, -1.5792497428957493, 6.8619840430364665, -1.8033646155570304, 0.3993053417460299, -0.037352038603249066, 0.13031878201297808, -0.5702413108553469, -0.09797832409109701, -3.7476959360108806, 0.7087062331645564, -0.16243116678546277, -8.394383615104667, 10.802480067688224, 2.4833367873443635, -2.0228676317404393, -0.12729279856561898, -1.4750385137544024, 0.20310000567924497]
[0.3286868590559249, -2.992215490754735, -2.3054233203306476, 0.9351393694592054, 0.08966982363728382, 3.4409893246805594, -0.3307703304961084, -5.2179681595377865, -4.6847906361095655, -1.0468741933828192, 0.2118080447031781, 0.12476502558330772, 0.28766617483449275, -0.24406045832086598, -4.288119695353435, -0.29338715495061796, 1.2846294701034753, 2.8476546626516908, 4.66408333677632, -4.895083270840301, 0.7774195383316284, -1.2327916263045409, -2.9896998400406014, 0.16725023242953968]
[0.09672995919915287, 7.582174602059233, -1.4469116755305813, 0.781872693674635, 0.16006858993626363, 5.305371944014488, 0.12090501077356756, 3.8251775548687403, 6.494348519522876, 4.437616352824992, 0.13744401485061844, 0.12550100291053687, 0.1771716421501138, 0.06540401418059603, -1.7494580298623565, -0.1408672958062779, 1.3085593179312844, 1.4946628147292529, 1.7282601222142944, 1.5378920416603203, -0.03883489135145498, -0.7185513332835997, 0.07777218595959645, 0.025069858993129378]
[0.7480295565566041, -18.30223078129501, 8.659352705123359, -0.8020432085081258, 0.14286594589036836, 8.747644161404583, -0.5025890603393306, -1.1999972883355732, -5.7523392967820435, 0.262344016443759, 0.010519863710200849, 0.32397353320703565, -1.3014877607451607, -0.13716813895114813, -0.8538216483495307, -0.16987604182455263, -2.639908312983328, -1.710720011713182, 0.6489018248429557, 1.076975341992033, -0.46825821626537806, -1.5333063120282746, 0.5854929773005672, -0.1792985987401686]
[-0.008939726678334446, 3.0263160445871318, 0.4909118411257799, -0.3542442366708681, 0.15282394213600606, 2.4400866491269952, -0.1064978784523437, -0.2583487042088887, -5.929672785750863, -0.5466507593389586, -0.06825972439105676, 0.10567857208355615, 0.08318384212009546, 0.1577339167083177, -1.1114240059376148, -0.08756810256951371, 0.18504079794491896, -0.016232790334207586, -9.762304656063552, -1.0304535482502248, 0.12499420934570392, -0.39650671388826353, -0.0981253208936691, -0.05664391808850913]

Output weights:
[-2.727689178832302, 2.1331451387439984, -2.679581922548026, -2.201982894842387, -2.732346340253104, -1.2143579031229763, -4.199503903377449, -0.2082737329580126, -2.4743302199644135, -2.1031887083722687, -0.8293881753064065, -2.689981341835015]
[3.0923982674221624, 0.19896829024298957, 1.483027745911439, -0.2226269313416569, -0.3857122568584094, 3.6944690934315925, 0.6676293842907096, -2.9878827178969214, -3.8669198240669393, -2.4847582815446083, 2.5174810609069693, -4.742328082049583]
[-5.083841810286824, -4.6717640470169775, -4.147435651949299, 0.961288434412561, 2.684729610582259, -2.187848639880009, -8.063700155599612, -3.8012908207710376, -0.864397014244791, 1.7624997706511008, 11.405418324393267, -6.060736572973757]
[-1.108675671958264, -4.322088522497595, -0.09327404894392116, 1.3433578349311976, -0.024343003815696422, 1.4277580841298314, 2.1920206589317806, -4.0691547827534285, 0.6173135121967693, -0.34252481876599034, 0.8742919902555619, 2.712525287398116]
[-3.337965098607372, 0.16480131700797543, -2.9952843195095253, -1.427051330602616, -2.1354532327804785, -1.3337572156773192, -2.3578238483154768, -1.8845571761646507, -3.5944544539343157, -4.662702864613793, 0.09484106317306834, -3.650653732718097]
[-1.1929312940108625, -4.195912332783128, 4.684088650949679, 2.9888832003012413, 2.9800462871566538, 1.4661504004439976, -3.833840648306957, 3.195663210711145, 0.7749361494141186, -6.92335364914024, -2.7085734051245396, 4.832597496478672]
[-0.25390917989307427, 0.33489537638314526, 0.7361788456164792, 0.266937353844647, 3.162225589028257, 1.177950786375068, 1.8362688868378014, -1.7837615629791863, 0.1503117195517447, -0.06881247619266531, 1.0147095365776775, 0.05091749153551954]
[-0.5674073449032689, 0.8839587256387929, -0.9317673854123333, 1.4453636040638635, 2.4645184450521236, 0.6375933078830457, -1.1598704925770642, -0.3834966446725596, -3.4191021844200518, 2.647498703444003, -7.541494257243211, 2.7392000423135623]
[4.092114679028925, -4.569175335945477, -3.8483737062393693, 0.5271309402243503, 2.017041204314367, -4.132997389039755, 3.9053357937463025, -0.2940354907162241, 2.289380097296623, 1.287179545252979, -3.4265504892537852, -1.2917365418810622]
[1.3346784786342314, -3.598228344582253, -1.5969486516091869, 0.7350262990744194, 1.1802234138839214, 0.4776224780116419, 0.9996413330660538, 0.3161229462100636, 2.406903268057295, 3.116177494445641, -3.913976102146277, 0.6333568672936742]
[-3.4025826686830363, 2.0415832207228317, -1.564725768980413, -4.20759122739162, -3.3066212586966652, -2.2851122262591277, -3.7068904231184026, -2.0143003214999564, -1.9478664699169008, -1.4813793051402369, -0.9400998888841419, -1.9830074904410113]
[-0.9575652213722842, 1.032284435418283, -3.4661374480526352, -1.6111818059303082, -2.999280638288683, -0.6099834531781152, -4.702425222169167, -1.4374353740216632, -0.545961255208689, -1.2307105041788249, 0.10614649957516711, -0.9526985899922025]
[0.44210162548420584, -0.17011050438552658, 1.2727348095912838, -1.630242241524913, -0.10037816914977128, -0.8973756218817223, 2.5943011003132272, -1.0957266747696688, 0.4456293577059946, -1.8297077793717724, -2.455666561983949, 0.6695985334851985]
[-0.05503855274799032, 1.6034640918667424, 1.7763042365834272, 0.6634609992292757, 0.2835473845711394, -1.1308566920648047, -1.63136152973376, 1.2767699994609578, 1.5525230833322565, 1.1158181957508295, 0.7941415117136558, -0.3205659857520312]
[-4.726471472527102, -2.6044340171913456, 0.6620532001949839, -2.6403247513098926, -2.064231388254486, 0.9651567894699647, -0.1298502825486858, -1.9246163489221226, -3.0426908804196167, 3.6341334702199375, 2.8674147656005156, -0.4815128873835871]
[0.7435289024004078, -2.4568472118615046, 1.405611142880122, 1.099281107841417, 1.0412492537205582, -1.5247268386339963, -1.9954752953990924, 0.31944391269682665, -2.0394274690883227, -1.2213787484720557, -3.2754977248382935, 1.3001035938200376]
[1.4380123275643537, -3.13838032396379, -4.910998898689995, -0.8052767000488915, -0.830674985689974, -3.36631800049552, 4.8727470381724824, 2.4699082508558385, 0.3169265375546193, 0.3863978655145261, -3.760224303688105, 4.579475610209277]
[3.307189667072786, -1.242311445876336, 4.072770440849481, 1.0192803449525256, -0.021119982947901315, -0.2549333345656083, 5.17665479472226, -7.00267554553155, 3.5329752288715035, 1.5632939755685653, -2.5828343235932363, -0.6441881624084568]
[-4.669056981242041, 0.00823930895502997, 3.3197578892491677, -0.534611198354843, -2.377047739301317, -3.832058299734528, 7.969087087005888, 1.9961116276200814, -6.1345205675827295, -2.8203131861737183, 1.330772177956463, -4.053921796518879]
[1.1979247770565746, 3.231812689041134, 1.462611320996367, -1.0072241045867754, 0.5283164258103852, -0.9653800685630364, -1.4744178725600476, 0.9046249092998356, 1.7652586394724357, 0.44662489613241185, -0.8094869576723053, 0.7928915712656386]
[-0.10411188049614406, -2.8083579662506764, -2.3349656974051243, -1.5187069769773287, -1.1719360770423768, -2.944156067164227, 2.0046257041686553, 3.651761383995505, 4.597664432669569, -0.2895570295495455, -0.07895325013535465, -7.063871419540306]
[-0.6426780469247216, -1.3653030941786417, 0.5089726704484151, -1.370462519614184, -0.9160433524759979, -1.0636173420669042, 0.3641605946539013, -0.5949969907783172, -1.0066118565208606, 4.805130129552079, -0.4496298676408106, -1.1926713239136644]
[1.738381990478207, 1.2250392311643883, 1.5479512668084836, -3.095489649622788, 4.549234421182148, 0.34810341037166637, -3.334835770950158, -3.6329614683524296, -0.5906468849478412, 0.03754882588224568, -1.87827896501984, -0.2758904605263821]
[0.9596384126540424, 0.5141252837331686, 0.18729935835007788, -1.4134979315047176, 0.7996288693002072, -0.21756811065193002, 0.7873026854434773, 1.567217181548684, -1.197429051911238, 1.00310476610943, -0.8995320147150835, 1.803471589983775]

迭代千次:5
Input weights:
[-0.5160879006027301, -5.175749703810125, 14.804112683522112, 1.4611466186952908, 0.05760808193000281, -2.491538170999754, 0.2663563017930717, 0.7622745378911933, 21.18012330414313, 1.3683321045805392, 0.13138855748171155, 0.07188980681419457, 0.0840776344669418, -0.06818509710420957, 7.387205253470033, -0.7126943000374517, -4.054719166946333, 5.041413332323765, -8.256535164674816, -2.485509787811921, -2.3198460171709994, 1.9162920927011773, 1.0065170896382474, 0.3031336993953541]
[0.6493754001590432, -18.155591418867058, -10.766831381123732, 0.3525042246529191, 0.35720571310986593, -10.30315573366252, -0.35044062236163653, 15.484950696564571, -5.059532973143816, -1.6436586677305693, 0.126735539040139, -0.11265874437567096, -0.1972440830743405, -0.17862367642975938, 5.7262472507511895, -0.14805175691263445, 2.7836051612606383, -1.8700662994798314, -4.912675168474572, 4.770978872169927, -0.021617975654355144, 1.3357968681453471, -1.2045026489657529, 0.5604430518806719]
[0.6387404077083012, 18.95861579274132, -14.386552396615798, -2.0197889947207757, -0.022249163991910986, -9.347338921044798, -1.4945472400678228, -12.997947158171094, -16.982258812404226, 3.067003537646519, 0.17970045409702196, 0.14110032322430452, -0.3167125178461407, -0.08327429242943765, -0.7590242435080278, 0.7445490294710508, -1.3136169932312984, -4.508576231086181, 2.8606832968358487, 2.651231124679709, 1.858259944749139, -0.967059793201302, -0.4647599518354936, 0.2263730085140856]
[-0.3739255282263322, 8.473962589711574, -3.365229402461458, 2.9471714547785393, 0.20828877430072043, 2.530429051013458, -0.04019098472679175, -2.3675355475890307, 9.782168874971418, -2.0019787659800556, 0.07954455369672937, 0.06753573794971067, 0.9371939689666556, -0.174933905842635, -8.774528829084854, -0.461411824701208, 3.735780164549203, 8.621407198757595, 12.757695390960375, -4.425306343282155, 1.2695919659714796, -1.728090241208082, -1.4320238880802574, 0.021726467501647757]
[-0.26359644473794736, 14.536154352870183, 5.865297587154843, 0.7730476229183315, 0.16213829200068242, 11.046285196660282, -0.0485102673424904, 2.6403097199182652, -3.1422276355437733, 3.2463009301005816, 0.1898966877535219, 0.048297628249578485, 0.04716396524215056, -0.2579274912271938, -2.3600679718645723, -0.44217061577813727, 0.2731169653988132, 3.6899552450023605, 1.7439702193299358, 2.004612014452219, 0.010316443892162306, -1.9129835773871675, -0.6752125527029443, -1.689135785098919]
[0.9522324302322148, -6.579201386241037, 2.813795166387037, -0.9161515553713888, 0.0353397802567303, 4.4798260025127785, -0.11115667999372957, -7.965778630111927, -3.688353908116175, -3.0504727145266473, 0.27071159601507744, 0.30339387651495303, -1.1566297921111641, -0.1197585946982098, -6.615086262751904, 0.12660995184603582, -1.4954939813707628, -3.6272219474023215, -3.298525920552063, 0.4081404140008832, 0.2181529302216742, -1.9952652095847245, 0.3708652085015076, -0.24021950570328784]
[-1.022989704806737, 9.140116552530186, 2.3640747877829864, 0.8865950696528144, 0.2230142230184687, -9.329449294396783, 0.15839698181723363, 0.5878007966955293, 10.914955291661814, 2.621295333163291, 0.12033971880051933, 0.000988611617170584, -0.06992297289668978, -0.1462721439502657, 5.528362715767177, -0.442599339022104, -4.071553028306559, -2.457139568179422, -4.561783809207871, -1.2298613852817635, -3.6475811230214594, 0.5192650862323215, 2.2904046541885417, 0.612941960221233]
[0.027139214405783225, 0.6570693864109748, 0.9804038758765123, 2.653322433140686, -0.0068695654391617384, 7.539278838186686, 0.12226072995370629, -5.867103381426702, -8.209099002899366, -3.8946770511842366, 0.038932640108604824, 0.24298930007404848, -0.03482433805284891, -0.11667419072359836, 4.417861426965269, -0.6551406396217481, 1.2183395683839422, 8.180744227200522, -20.32343020888362, 0.5688743480124869, 1.1949744502473096, 0.16037885598826115, -1.428995772706897, 0.3902448390357389]
[1.3622288237497384, 2.8303988655507513, -11.640964923445477, -2.1563774643673157, 0.22550845741463132, -8.585008819466145, -1.5793473390845898, 8.953990522025903, -2.543189395473235, 0.8481179268325345, -0.03621944044691616, 0.1328984183928734, -0.5703959654586426, -0.10073891390218952, -4.471212833129748, 1.062685490791029, -0.2546785953583921, -8.338233254840304, 11.720972656342038, 4.164725950641519, -2.229309042309564, -0.12728997791751026, -1.504633284391305, 0.7001235929485594]
[0.3304049259010627, -5.216821367378417, -1.8456530497218624, 1.026057770161182, 0.09163204925522728, 3.584798505715964, -0.3321776939833707, -4.097017215719267, -4.3187502536879006, -1.5282517999819287, 0.21492767407306554, 0.1272582055086079, 0.28722327628940203, -0.2462970808548562, -8.203604196874277, -0.5933847991756852, 1.5648158828755467, 2.8022376404341407, 4.753591970242055, -5.566270959321962, 0.9371351667859822, -1.23278984722083, -3.043569977002509, 3.799496520015779]
[0.0988311918748028, 7.786887732589173, -0.834655827573431, 0.7365836657142107, 0.16182019209543075, 5.311283648473851, 0.11914765628415014, 3.961849623458616, 7.269413719563961, 6.001259860933722, 0.1395042099992669, 0.12783483162574052, 0.17676821082271507, 0.0629291697493903, -2.4835217841771073, -0.3713090682266178, 1.1934566224200645, 1.4347088446993561, 1.9035617462376866, 1.706630104389718, -0.07854065500406288, -0.7185494902969727, 0.12693251168984093, -0.5994227734557038]
[0.7491946183721657, -22.471134395120377, 9.19874306989275, -0.6639643208139875, 0.14587126886237387, 9.017570018898361, -0.5041605504291395, -1.504895361113214, -5.718973201772643, -0.7615808197980075, 0.014879300143772202, 0.3268374515968186, -1.3017317130925403, -0.14001787900702514, -0.5232827433864776, 0.19133143201048214, -3.004070919193535, -1.8256370498135532, 1.0102822869462622, 1.8083895116509954, -0.45875703712760524, -1.5333036782356155, 0.6220217538868684, -0.08794405794985008]
[-0.008850633789189488, 5.2485162153673155, 1.1232285250598508, -0.3526479501796239, 0.15311846100866974, 2.5630238849953377, -0.10660524482478317, -0.5223530490278384, -7.978051928962116, -1.0897688120769962, -0.06785725480183133, 0.10607833283907495, 0.0831607378200489, 0.1574244534438589, -1.783547486807784, -0.13012020354292061, 0.19572390633944944, 0.0058585947202367365, -11.266112926140492, -1.2810976995923102, 0.1429007062705362, -0.39650648748161404, -0.0918560135437967, -0.005970733791044991]

Output weights:
[-3.2440801314485306, 2.5419521124138975, -3.218144234663244, -1.8290055720653797, -3.6539605203193033, -1.190504928350165, -4.022711776481864, -0.19394301430021765, -2.6789658984022147, -2.8947336518665954, -0.6780029227213863, -3.36877631706646]
[3.427175187223451, 0.31450359628992514, 1.4232119357732136, -0.07729080867960238, 0.06457246521447556, 3.779298776961061, 0.7774399934005304, -2.6604126536197428, -4.9262548182664, -2.6772778249920406, 2.201120047315076, -5.0745742373421585]
[-5.42935104942683, -4.674770211602951, -4.211679815685731, 1.243670452362345, 2.6788455241667375, -2.568463064637871, -9.06633342163699, -3.783956475311052, -1.7044128520357233, 1.8470140532402577, 12.61123947255054, -6.226436588355292]
[-1.587146150380215, -5.5850501602894, -0.37813004787126586, 1.7182395160457238, -0.9206035235101367, 1.7285732598196462, 2.4877397194888093, -3.998260289105483, 0.5819074463610653, -0.053264122180420904, 1.0068328044422892, 2.182103356228413]
[-3.8543518265777017, 0.5736140626095808, -3.5338346707036985, -1.054435477716374, -3.056794310228746, -1.3099210049698253, -2.181027858678216, -1.8702705970573155, -3.7990503915693408, -5.454241451276645, 0.2461751506196655, -4.329446654376355]
[-0.9783106989423666, -5.446198291892408, 5.112064226666456, 3.600442238887697, 4.971315428250241, 1.4499548660668315, -4.50525850659877, 3.3758126830953756, 0.5312660836529958, -7.478571299011865, -3.684686490497256, 4.192920491355601]
[-0.2539091799163911, 0.334895376383143, 0.7361788456156088, 0.26695207536245724, 3.1621915704718973, 1.1779507863855783, 1.836268886837801, -1.7837615629791863, 0.15030822924511553, -0.06881252474121367, 1.0147063814848842, 0.050917480428436045]
[0.19323862202184452, 1.2634827961548663, -0.41250860308949755, 2.1048441530508266, 3.4059034031096083, 0.5410925427441092, -3.4591191284482115, -0.18836610908213477, -4.757560257240195, 2.7568584693997975, -8.17358533638165, 3.1229464584522098]
[3.7309822932869685, -5.2520281628386085, -4.231579235484597, 1.597752639904212, 2.902777205215917, -3.781627962104917, 4.593038186337293, -0.293758185891294, 2.29507521882806, 0.8122515322215069, -2.45462477127179, -1.4386342971736774]
[0.7642886537600114, -4.899080309868827, -0.5261093734229557, 2.6732288244387545, -0.7764654139945363, 0.5982073529986293, -1.6716075472102232, 0.18992728995558897, 2.365666391151352, 4.345184622757754, -5.083795165914067, 2.091351240720475]
[-3.9189541855253283, 2.4504528666058145, -2.1032198793544796, -3.8349609229237864, -4.227941359935641, -2.261439141566649, -3.530090299670807, -1.9999791576475088, -2.1523528259793925, -2.2728722113728885, -0.7887647426211183, -2.661779626970673]
[-1.473929622216661, 1.4411354248797763, -4.004684797415618, -1.2385669005975641, -3.9206278673258956, -0.5861997102292685, -4.525619093437934, -1.423105557270451, -0.7505922847972297, -2.022088511886235, 0.25747381790484314, -1.6314903404735344]
[0.44207676493018716, -0.17011055474085202, 1.2727346161478652, -1.630231398093048, -0.10037842949539501, -0.8973760284108608, 2.594302659513599, -1.0957266740246467, 0.44562934174144925, -1.829708736278393, -2.4556665658617525, 0.6695979549809559]
[-0.055049721436942665, 1.6034363151085038, 1.7762767743656116, 0.6634515947026881, 0.28352429418244823, -1.1307890479754354, -1.6313678282118667, 1.276805304213246, 1.552436198725289, 1.1157801501181641, 0.7941319456288629, -0.32057256179327187]
[-4.636496946275852, -3.6494761419319897, 0.6207735985878352, -3.4532424771541197, 1.76947901865958, 1.327766863772344, -0.3110111265494116, -1.9302381257514771, -2.986932825228691, 3.92619115144232, 0.04611133107111413, -0.9714136987272319]
[0.6569508633637573, -2.1508273052858695, 1.2598534296109378, 1.094237216222327, 1.040547343193928, -1.5840287196073581, -2.0221798390012937, 0.6915280764068131, -2.0755902586374853, -1.5046048627958644, -3.279942856195557, 1.1639106277965405]
[0.8142043523520865, -3.4675831469526726, -5.226158565024874, -0.8856033128811044, -0.8338818557585748, -3.695566257586165, 5.056884328453752, 2.8006215773697445, 1.1688525149684275, 0.27425724021455133, -3.733802114751425, 6.143384828817753]
[3.5838522929891456, -1.6956465475899434, 4.443437922781018, 1.4772316478809504, 0.018760762504839858, -0.05506281539027658, 5.718884801056174, -7.635534061933934, 4.3488799819527335, 2.4790461100585643, -2.936495152248252, 0.45755150571832043]
[-4.892619673261204, -1.045462220029868, 3.201750368646454, -0.2864214109323438, -2.3735488676763934, -3.9398110551040113, 8.035195791777623, 1.52030366566237, -6.917775754519055, -2.8204405842546785, 2.182709062990082, -3.5506437285141312]
[2.5533990155478783, 3.6436237733871413, 1.2090496860071651, -3.178506195412664, 0.670170756333444, -1.150230666761734, -0.4981630482458093, 0.7165159078308505, 3.065672116497762, 0.4179672634521738, -0.1449619807991306, 0.6611816647073139]
[0.008567162602844229, -3.2043186995543578, -2.4072352116216784, -1.5007537617323388, -1.1901757066021557, -2.9994670439731044, 0.8602863520861185, 4.161851160068776, 4.9444063573287504, -0.24143273631978504, -0.055887979718520595, -8.144916702916428]
[-0.642678046954033, -1.3653030941719928, 0.5089726704484151, -1.3704625196939941, -0.9160435388459437, -1.0636173420689738, 0.36416059463032585, -0.5949969907783172, -1.0066118567846423, 4.805130140578939, -0.4496298726928315, -1.1926713239527427]
[1.73833491601311, 1.2250392129158376, 1.5479477059609765, -3.3697276456166887, 4.623588447046704, 0.348100061810562, -3.3348357742382793, -3.6329615349245428, -0.594158674032881, -0.05047142819255978, -1.8753767424690622, -0.27681986935774855]
[0.5474214507253456, 0.6166249470263447, 0.17967948710672488, -3.9978707285131936, 2.218954959601319, -0.20547962691539864, 1.0524308154112685, 1.3485692938348366, -1.001712069861864, 0.6783318814847966, -0.741497628447665, 1.3056986365161651]

迭代千次:6
Input weights:
[-0.533411205952697, -6.951758127707082, 14.402346063626856, 1.5400765055351755, 0.059971246078780134, -2.7652890411346207, 0.2652783011069134, -0.9389818515784992, 24.11919436986871, 1.5920468280139723, 0.13387564377614802, 0.07520084449930207, 0.08407941271031062, -0.07044785944877421, 7.868416551766255, -0.28637288605887085, -4.108704270264694, 5.066989262743277, -9.056022532281503, -2.043696506623995, -2.303385319449975, 1.9162964998733196, 0.9635347210157466, 0.6309213006992063]
[0.6375673028691439, -20.82149357810862, -11.72906862278863, 0.35464306658234024, 0.3590399303904666, -10.52776836071614, -0.3514486326129356, 17.34306927205625, -5.8357363768489545, -2.2097937960611542, 0.1257672297823459, -0.11008671146850661, -0.19722276933493096, -0.1809270539868195, 6.511728025701666, 0.09299351008771546, 2.9264674698003357, -1.8431007211533963, -5.651578614711418, 4.568756439701988, -0.007817125644743593, 1.3358006944335596, -1.1829308873156428, 0.5602952205603051]
[0.636746064167562, 19.77623162750601, -17.604610239334665, -1.9831992106636256, -0.0214225099884253, -9.458454441983795, -1.49456238104866, -15.845639042239876, -18.591936197337013, 3.4578456096908625, 0.178208187229571, 0.1431441093436147, -0.31665943524008194, -0.08512596109680043, -1.3299462919837957, 1.067458893735417, -1.339836632714073, -4.580823747845873, 3.2864708156367617, 2.870657952984102, 1.8321083619794387, -0.967057821661342, -0.5412938311651029, 0.18686908927500348]
[-0.38590160336808244, 10.699815048189151, -2.3759357291270113, 2.9224111009983136, 0.20939185598478116, 2.6034290340896487, -0.041312901057367735, -3.1678673112548292, 11.473719415373036, -2.284052387404767, 0.08037265804013295, 0.06997035769547005, 0.9372562658987604, -0.1765088748619905, -8.99013191814789, -0.22019804757924905, 4.022102566219941, 8.585014755955287, 13.457943624052817, -4.280015659431504, 1.2872735566548072, -1.7280887737927526, -1.4326568077768949, -1.224874558177345]
[-0.2854781148419782, 16.273040086171868, 6.522781777354057, 0.789867612286686, 0.1634742740634072, 11.282030815898679, -0.049742036904687176, 3.4497445147666608, -4.345735637784503, 3.6468039705734365, 0.1898570823359238, 0.05026491614534452, 0.04719949446382967, -0.25971034861616493, -2.9413330580686265, -0.8262677585760304, 0.009581731089863505, 3.6774737695451245, 2.47046376836665, 2.6689468628330824, 0.0200454023072184, -1.9129819796284573, -0.7099894198796417, -1.9199614209853624]
[0.9372766722157894, -6.272428371226545, 2.611899500689497, -0.8896654260757947, 0.03754570899575099, 4.53559051118452, -0.11230735530550845, -7.202525604196461, -4.67451981678271, -2.9659905231985317, 0.2718073123739475, 0.3059620814403701, -1.1566053659665916, -0.1220461245686496, -7.592982970390956, 0.8188023123688738, -1.5113399151399318, -3.771234146383289, -3.579761987527089, -0.14927644609258348, 0.19894299004794477, -1.9952628221461561, 0.41372658579680566, -0.09431962320252467]
[-1.0417250562490157, 10.299587174954704, 5.376724788702326, 0.9626562068089461, 0.22546868852423763, -9.387510376589427, 0.1573419276352274, 1.0507430100016695, 12.168759039189865, 3.146058927418968, 0.12275255345336947, 0.0036344788924438176, -0.06997150726574845, -0.1488184942814145, 6.176785781902051, 0.04638686739611315, -4.646162591923167, -2.5870958839456275, -4.240632369968198, -0.7747980135720473, -3.65183757657918, 0.5192693606408375, 2.3131905339051935, 0.9485131797598402]
[0.012973260933666695, 0.7844459241702906, 0.6461924544128066, 2.6411757032195258, -0.004337083889905709, 7.679091121897218, 0.12123225803886069, -8.388325586807788, -9.249962319061492, -4.633733182376303, 0.03896781125344476, 0.24504610413124014, -0.0348078445703615, -0.11946573175381549, 4.473933841772616, 0.1026084635017819, 1.266110442286365, 8.428896569946666, -21.679565975824, -1.048412367987996, 1.2351991574706258, 0.16038291560828238, -1.44739882632306, 0.2581611035064809]
[1.3561876162310331, 3.763684357950244, -12.227929192170201, -2.1285923472678157, 0.22662455498192005, -8.818834320042004, -1.5794159477689074, 12.891608115737192, -2.820022939023715, 1.603733301197903, -0.03777196378198786, 0.13461775214457677, -0.5703257485847014, -0.10308165028259242, -4.677448085957469, 1.4032315320165352, -0.12112728394075492, -8.242796404927311, 12.588104578623454, 4.727854085937539, -2.2918841534782484, -0.12728756959227355, -1.5711470302686408, 0.597886951041629]
[0.3207433117466822, -5.356337420069661, -2.039560012773743, 1.0047848328721807, 0.09304227520948018, 3.5307717816787294, -0.33319035842179795, -3.6021139792288626, -5.4247600389665305, -2.615427274763878, 0.21573709099282332, 0.128954496185229, 0.2872496103747513, -0.24822415288810348, -9.123380242027624, -0.022332228438204607, 1.671845810734008, 2.6890330284643222, 5.050846061625152, -6.136234772268623, 0.9248897347028305, -1.2327882507543468, -3.13183425280434, 4.517057657976437]
[0.07946428797637434, 7.2616977956263415, -0.5737405104445831, 0.7548727994568936, 0.1631380117253813, 5.261039373935077, 0.11788197442952836, 2.218558265537231, 8.238384508329315, 7.280157679130679, 0.1394236643208612, 0.1294277675941773, 0.17678722168515415, 0.06081205097241805, -2.6447308715842013, -0.03720663935403877, 1.2662787002762057, 1.4407367330087308, 1.5842316381830608, 1.9793179856515637, -0.0696164174634283, -0.7185478262999025, 0.19010996839782476, -0.7831993437508797]
[0.7327653235206905, -26.277055043333924, 9.761320614193245, -0.6834228914883025, 0.14806912164555586, 9.28834144644548, -0.5053031966005406, -0.7127989556171734, -5.601654794052552, -0.9748789951582222, 0.01595245537568929, 0.3288080021828338, -1.30171679206976, -0.1424942465284262, -0.8313356407291654, 1.1444446645074788, -3.0428446185758555, -1.7902506804994625, 1.2079951433085465, 2.097668405919852, -0.4763746852745081, -1.533301289738651, 0.6507140118767436, 0.13118052043320855]
[-0.009973595675214537, 7.107388797386666, 1.9422269295936825, -0.35059600687932485, 0.15333298034284634, 2.5780097502995156, -0.10668310702317783, -0.45954629484402754, -10.094373198874722, -1.4524766892081533, -0.06776625408619656, 0.10636243639852284, 0.08316223967067739, 0.15716128130564538, -1.9970951085318096, -0.14288372593049728, 0.21830256418698807, 0.0329051037496636, -12.372516137613854, -1.3826456236856455, 0.1444485639901355, -0.3965062840270417, -0.08602263568238847, 0.039734274944544824]

Output weights:
[-3.39409906812236, 2.9062739176210757, -3.5287450085886065, -1.9212205460154794, -4.487637187743553, -1.1541499832014415, -4.015258417844139, -0.2664833914288053, -2.5718270587316865, -2.941095820664717, -0.2728792343199086, -3.614382504320029]
[3.4329531459712164, 0.20633298752576357, 1.901201865424884, -0.28952021965290886, -0.032681631292662085, 4.110873998387241, 1.0495429523341069, -2.0681374982278062, -5.387417468889175, -3.536107981549679, 1.4869968409169252, -5.54319954328271]
[-5.731542514053675, -4.677074988663924, -4.236536697670947, 1.0112408995759397, 3.0675560144068177, -2.691157659978264, -9.487483933823603, -3.769786199986099, -2.1744174156959257, 1.9763776695041777, 13.437780387254138, -6.035171147940202]
[-1.728445394016062, -4.862161312844411, -0.6724356198667374, 1.6271312914892833, -1.7536176182164698, 1.8545474139203673, 2.5505279400921452, -4.058836237726513, 0.6890303470729693, 0.332498387213388, 1.4140011621315014, 1.987874454809025]
[-4.004368419563873, 0.9379451983862912, -3.844426719215033, -1.1474182467829055, -3.8898366705130107, -1.2735816304866814, -2.173572801069177, -1.9428379744187056, -3.69188054937098, -5.500602637046603, 0.6511948769670872, -4.575052546765506]
[-0.8611984622916025, -6.699442845332798, 5.261138818470174, 3.6609374846742813, 6.0621919338932155, 1.5324692195554055, -4.81485564481168, 3.469960921018969, 0.7572541443638495, -8.60671762505836, -3.4258600365650254, 4.035195740497708]
[-0.2539091799283507, 0.33489537638314243, 0.7361788456155586, 0.266954211365894, 3.162167674007965, 1.1779507863948688, 1.836268886837801, -1.7837615629791863, 0.15030542658119594, -0.06881254538191627, 1.0147039692493927, 0.05091747048910272]
[0.08478217471040515, 0.5388562602887248, -0.06447580633208587, 2.180272613752419, 4.863122769134098, 1.13694966249556, -2.181122863517367, -0.1172476772559215, -4.340786226911268, 2.9676343727277565, -8.457648851341673, 2.9135599000961605]
[4.163781687572833, -5.8453760236026975, -4.268271848897468, 1.8957520815588134, 3.8682963303656464, -4.1549844712879835, 5.0024829237083965, -0.29361271105082576, 2.5107651983810495, 1.1479802620945272, -2.501748744151933, -1.8462086284684618]
[0.5826270062288665, -5.737584595650087, -0.4947926011581705, 2.9949419026227178, -0.6085175676588622, 0.7046607431569208, -2.085088128213872, 0.31183492764233744, 2.3449776405237652, 4.271770148486425, -5.515773084463008, 2.439448823990031]
[-4.068960279212503, 2.814861566834911, -2.4137594984478894, -3.927932456425197, -5.06097694991411, -2.2252572719706145, -3.5226307663843595, -2.0725247093411143, -2.045104374453613, -2.3191961237033274, -0.3837366655702499, -2.9073777534259406]
[-1.6239350949694344, 1.8054952755609093, -4.315273824745488, -1.331549876632643, -4.753671739512729, -0.5499017788173591, -4.518156429972625, -1.4956464298275602, -0.6434564920143405, -2.0683346983777633, 0.6624874088173791, -1.877095865837576]
[0.44207016737775456, -0.17011061870184593, 1.2727344629915982, -1.6302288613565097, -0.10037855840174277, -0.8973762427761431, 2.5943058589284047, -1.0957266738267493, 0.4456293340439629, -1.829709625992958, -2.455666550997537, 0.6695959307671102]
[-0.05505593969187131, 1.6034078610924594, 1.776255590633276, 0.6634446297413982, 0.283520770870423, -1.130731445456535, -1.6313718430996431, 1.2768261465557467, 1.552370409966956, 1.1157514960955641, 0.7941203110917991, -0.32057465996031304]
[-5.15709768952363, -4.060951206655792, 0.5817312236503104, -4.046728401333908, 2.545726522559072, 2.309351129180275, -0.36435837153306855, -1.9342533042780226, -3.4289636634113, 4.342471639741897, -0.689821987646083, -1.7715725223424048]
[0.40158333295513043, -1.5981399906769473, 0.9372883265837972, 0.9080570403841016, 0.46326535276961356, -1.4791028795859897, -1.993470727405223, 0.7072938810926329, -1.8694173315213294, -1.580473922403978, -2.9653665390001582, 0.8778275324027505]
[0.8223710734543734, -3.8890267305592134, -5.410122277495056, -0.9430693423082471, -0.8347131148627231, -3.9431905561990535, 6.022425538278644, 2.847558177771165, 1.348591418177589, 0.21924774948531134, -3.738299271436368, 6.825648345635054]
[4.009043142840619, -2.008145741238841, 4.5841912227509285, 1.4723721703288115, -0.7334487415080551, 0.18362033168544661, 6.742031847772193, -8.033901738733768, 5.0692484356643, 3.0490816662620253, -3.5769642210711994, 0.3033484124369329]
[-5.13856037302546, -1.208251376110413, 3.37050238336027, -0.23345243455145523, -2.376147381568301, -4.002439245546191, 8.876655377508996, 1.5074444181649918, -7.7121907727370695, -2.820460791460826, 3.058118991499433, -4.260568847351149]
[3.298857083611847, 4.008001057191403, 0.9021322485224365, -3.3239141328277424, 0.49063560802575346, -1.0762828985437392, -0.029625118521236324, 0.5339357948508905, 3.665271149361762, 0.5910629241808633, 0.3836120589451724, 0.42368638104178713]
[-0.11727046511818749, -3.627130812496808, -2.458778243157647, -1.5033054897139122, -1.1904566920719408, -3.0009947804215042, 0.2131029865219836, 4.373389731395209, 5.313768474846561, -0.24143283326628726, -0.061276861140623716, -8.772364885391196]
[-0.6426780469672422, -1.365303094166668, 0.5089726704484151, -1.370462519699796, -0.9160436582350668, -1.0636173420746258, 0.3641605946255286, -0.5949969907783172, -1.0066118568444928, 4.805130159856417, -0.44962987563718243, -1.1926713240018099]
[1.7383331072741115, 1.2250392128224208, 1.5479465191785675, -3.7816108329548412, 4.683392106415865, 0.34809722042560637, -3.334835775674302, -3.632961555093649, -0.5942327050618573, -0.1308412432809637, -1.8705231493517511, -0.27684010911016604]
[0.3982854358342654, 0.9810925912245474, -0.07119007284327773, -4.853480484157829, 3.075087826566591, -0.1728431158800399, 1.0600667236636137, 1.21238963930144, -0.8277895233638182, 0.8142077835253734, -0.3075783055675081, 1.4252859735995695]

迭代千次:7
Input weights:
[-0.3407632360020215, -6.389882731164881, 14.366301769688281, 1.5765712695115943, 0.06238499306930968, -2.7010023539787578, 0.2646094822709088, -2.36156450145663, 25.45993971576185, 1.686497316877567, 0.1375209145371544, 0.07823411407421578, 0.08399299000905962, -0.07256116776349089, 7.9326588043682, -0.28646666317861774, -4.629709253879654, 5.134314136159273, -9.315911873893663, -0.3947142182163582, -2.4370548539385624, 1.9162981698732635, 0.9509075902320643, 1.1144589061899817]
[1.0483750194393342, -23.19523683801418, -12.27798594227773, 0.3441089055182139, 0.36102948792554823, -10.69557689546796, -0.3520737961583439, 17.312049188984695, -4.499075624279954, -2.229887447316189, 0.12702766019435513, -0.1077441236774653, -0.19732450891371997, -0.18290830495992444, 7.051037399163404, 0.09291580309351828, 3.457527241628679, -2.192585954066557, -5.58095331236256, 4.078109222497526, 0.029008500317216968, 1.3358021409750576, -1.2244398648327988, 1.0674709088643297]
[0.44795381465149825, 19.587752571715765, -21.062844407479936, -1.9924208279704305, -0.02070919070510392, -9.35107827446406, -1.4945716404040015, -18.047745854481633, -20.554960710134218, 3.214108272132276, 0.1788923414632693, 0.14488053015567795, -0.31671314878268675, -0.08664159643052878, -1.5762568915901976, 1.0674543734740831, -1.4921990964613152, -4.593919671828059, 2.9462561512761187, 2.410794568487461, 2.0261629139350554, -0.967057052764842, -0.5284359615345999, 0.3255439831197856]
[-0.3362520401421273, 12.197721078746673, -1.324084048120744, 2.8906682167136797, 0.21037254890172688, 2.598182287979335, -0.04198874146435605, 0.5763494525066364, 13.823570437331153, -2.389473380022006, 0.08289506117962542, 0.07215794151154344, 0.9371682804956077, -0.1778433301432574, -9.251570617589246, -0.22028305897791933, 4.1843114418056615, 8.538147069220098, 14.43053196946289, -4.241775099039225, 1.2916953912925921, -1.7280882209223123, -1.415392034023584, -1.826325019804699]
[-0.35495624249222707, 17.84412224736112, 6.727136050548729, 0.7991019769385805, 0.16466307186025247, 11.279357659179585, -0.050502393527618684, 5.789253902757144, -5.407081563604027, 3.6054188286861164, 0.19150937182830133, 0.052003369842625234, 0.04712984197665068, -0.261227798718978, -3.152978016896465, -0.826399212915686, 0.13291909381138906, 3.7779274868943276, 2.659251692801773, 3.0221503624547426, -0.14570152198263014, -1.91298137861703, -0.7326309173576074, -2.3748839049152304]
[1.0336483267088818, -7.166274018787397, 4.038690949560291, -0.8847471286138032, 0.03968354456614946, 4.634218630318529, -0.11301791468181276, -7.909870630717093, -5.425535004413565, -2.912689201459115, 0.2755676719605226, 0.3083430723897392, -1.1566528632487985, -0.12399293452063646, -7.94745565750712, 0.8187171733722465, -1.68804557546326, -3.8827483161308782, -5.427544391239241, -0.9593696284116456, 0.24213377522908416, -1.9952619285586204, 0.45614122645011806, -0.3251802797542971]
[-0.9470644392621987, 10.947759606014719, 7.306231199311887, 0.9835738560635413, 0.2280000655156033, -9.58822986129188, 0.15668916643093833, 3.026282443763067, 12.599889843263789, 3.549412262822136, 0.12713293166729409, 0.006170554659463495, -0.07010977066000001, -0.15110718065414833, 6.496383098418236, 0.04628233599558923, -5.44917441870246, -2.7190933011347895, -4.234856842110585, 0.5862492760392733, -3.9201796310050656, 0.5192709814874656, 2.337556376892733, 1.156589239536981]
[0.40552111015282005, 2.48003694227348, -0.270090752218405, 2.618439254409582, -0.0015847265622175634, 7.638650965455617, 0.12059504350965065, -10.785350917383658, -10.24480550392015, -4.99132449200879, 0.04167409120150095, 0.247029283453596, -0.03491014521254464, -0.12187568587621996, 4.669519398411459, 0.10251762609464413, 1.735607967420176, 8.556354849066174, -22.93072302499155, -3.0760698627453897, 1.3367497257451517, 0.16038446026779785, -1.5171144149294569, 0.5209966577260691]
[1.4189254899219912, 5.688393110175763, -12.01986371803451, -2.1431221326333807, 0.2276886426183188, -8.965754707151694, -1.5794615514722812, 17.220360016558473, -2.7528385356543184, 1.302777867835818, -0.036355148755301755, 0.13615969998015096, -0.5703582117134153, -0.10497531315871421, -4.775373744639934, 1.4032020812892638, -0.17333872171929182, -8.194465984693261, 13.415898017773529, 5.453899973364659, -2.29702708929161, -0.12728662603583013, -1.5773003394935283, 0.4889309901691634]
[0.5278559606081349, -4.953745383862309, -3.2111882998453836, 0.9643535251635832, 0.09436188101146965, 3.6669584505277455, -0.33379853204168586, -4.3858110169970965, -6.7976070965720075, -2.687250917456818, 0.21893462421872736, 0.13055558182688093, 0.28712296095129186, -0.24980914001607854, -9.907610390456536, -0.022392803781522027, 1.4847854572089414, 2.841530693809811, 4.933224900168905, -7.194117333265466, 1.0355536413207882, -1.2327876461499727, -3.165986569416989, 4.9462622869935275]
[0.1269807763985741, 7.348982224168531, -0.7935995839967794, 0.7728677368491196, 0.16434233343416194, 5.28049086428672, 0.11710520240680546, 2.9180522673784437, 9.501511341610202, 7.671813906717069, 0.14183759368895438, 0.13094614748372596, 0.17667241697627137, 0.059075741199634865, -2.544461123660684, -0.03732895715339576, 1.3609151626889195, 1.499630017224157, 2.0335035487067086, 2.0312198041391976, -0.21941276595844247, -0.7185471979446589, 0.22889502160980557, -0.9436833904373911]
[0.47323044928766633, -28.571754454834267, 9.375497367019312, -0.6946203726712363, 0.1502142974786954, 9.737730902160603, -0.5060092334409392, -3.05149395567538, -5.655275588258357, -0.7234593777720452, 0.02030115436075288, 0.33074837905403914, -1.3017826088267752, -0.1445607690854284, -1.022714409184203, 1.1443560451893053, -3.1324729677764225, -1.6842168642162214, 1.7754381155830514, 2.959896131268705, -0.4331990648812757, -1.5333003898452549, 0.6836221739140412, -0.1407298092369086]
[-0.007271394866420804, 8.540909293634668, 2.699101539886458, -0.3498618731651194, 0.15354303306025088, 2.670102755012988, -0.1067310487653337, -0.07981853314841508, -12.082108864595002, -1.521299005006537, -0.06736424107206415, 0.10663009652367207, 0.08315643926986754, 0.15693860924620748, -2.1335178878709744, -0.14288999263575203, 0.2309848189695113, 0.0771807907854619, -13.434738237201236, -1.430531051581257, 0.14929206687027902, -0.396506206880388, -0.08269587541057902, 0.07107763848708211]

Output weights:
[-3.6188791333944277, 3.035979926466776, -3.651006997265391, -1.6492606312778026, -5.262796936091205, -1.179198321063191, -4.31612163781698, -0.2677362100733464, -2.8200984766705037, -2.979023158768463, -0.061870866501951144, -3.763296932884629]
[4.014061796040427, -0.21527724848118662, 2.0398300343166285, -1.072851608028363, -0.2806342949974528, 3.9623353045157286, 1.4043373755456092, -1.3806819831688586, -5.935546412971807, -4.102406335670681, 2.182043001620708, -5.485379877292565]
[-6.1282230109760025, -4.677800957604713, -4.201263127229138, 1.567326854346967, 3.4739586080991334, -2.4619651864878778, -9.717456459468249, -3.6515156773465827, -2.6404154586693243, 1.9328704194088648, 13.70899950447685, -5.978617458076457]
[-1.9538644865942767, -4.500645591655891, -0.7900011546935758, 1.468294851637639, -2.367647733102476, 1.8346209244918292, 2.311052631957012, -4.014734637160277, 0.42504800445100693, 0.4783169690138705, 1.5910054124852369, 1.8948110388963382]
[-4.229906826220354, 1.06765788889762, -3.9666830931476786, -1.3072097262724063, -4.503885584823818, -1.2986316974958143, -2.4747742272143256, -1.9441204581563072, -3.9558186190414792, -5.564145678854834, 0.7917323885658505, -4.729281009256992]
[-0.8252086803374532, -7.777597614028068, 5.417114652017471, 3.542934816232957, 6.407949202207391, 1.7560142985274627, -4.59748743471683, 3.7031468557273706, 1.1555131783394499, -9.393241233055699, -2.8117461562097805, 3.9295974414111714]
[-0.25390917993836243, 0.33489537638314243, 0.7361788456154249, 0.26695841936331144, 3.162153203059355, 1.1779507863975966, 1.8362688868377934, -1.7837615629791863, 0.15030213693901445, -0.06881255233353228, 1.0147011983672587, 0.05091746397694744]
[0.036503853519675444, -0.026167869583736313, -0.04422268876094021, 2.6101680360018933, 4.87915641302736, 1.3540347946805942, 0.8000173231507622, 0.031423160740759355, -3.69348390586833, 1.4185244772199541, -8.558403339769681, 2.858715793553187]
[4.340024762825464, -5.89919577995617, -4.19869185682682, 2.672570637251884, 4.533523945506416, -4.647443170242674, 4.623643893055963, -0.29341880546918614, 3.03793295334681, 1.348316909689405, -2.5792230182854583, -1.5121460704342873]
[0.36874550945008217, -6.395724838675928, -0.48672099048413037, 3.3160391837335084, -0.3074368443233055, 0.8364474070080367, -1.9287923379240635, 0.3168228997088713, 3.048318028925198, 5.4661429758397775, -6.568902348188123, 2.5320930627986113]
[-4.294491792746801, 2.9446324078026485, -2.5359718423617945, -4.087698974503751, -5.67498253568881, -2.250432165304055, -3.8238274813244617, -2.0737827616026676, -2.3089890112436056, -2.3827024733067073, -0.24319182177558898, -3.0616012422599472]
[-1.8494666066641228, 1.935241110678112, -4.437526886169476, -1.4913403437622215, -5.367720954986785, -0.5749870603428225, -4.8193525427652535, -1.4968997565251223, -0.9074295955700827, -2.131769827300038, 0.8030136745125622, -2.031324099397215]
[0.4420684972712137, -0.17011071446581502, 1.2727343607858623, -1.6302243747841252, -0.10037864649366536, -0.897376270947231, 2.5943062244896025, -1.0957266770536886, 0.4456293286302301, -1.8297106394239764, -2.4556665898828935, 0.6695950830254052]
[-0.05505985206320358, 1.6033840318565882, 1.776239986572772, 0.6634328439772107, 0.2835010772202536, -1.1306875985741842, -1.6313748496805556, 1.2768481260294187, 1.5523169774969598, 1.115724106253522, 0.7941028188187151, -0.3205760531272288]
[-5.505925296396134, -4.129771351699832, 0.5304851033582788, -4.315093106961061, 2.9450730738773645, 2.7791155789621556, -0.8675978642531303, -1.9393649631583874, -4.453386018734292, 5.156087398148264, -2.6509986439004076, -2.259362590804436]
[0.17604332434646908, -1.4684344062302772, 0.8150260776575354, 0.7482717527066974, -0.15078783337179466, -1.5041405202929479, -2.2946737795672547, 0.7060410708014193, -2.133400654817152, -1.6440266983560352, -2.824845497228155, 0.7235986295460393]
[1.2312570148018558, -4.088492967988809, -5.402260812671395, -1.3928301924533475, -0.8362818258632435, -4.145640348959259, 5.218698214999852, 2.6718741274784588, 0.8601982164037824, 0.20880292249796864, -3.7592205405112713, 7.131113206702109]
[3.988039291049455, -2.1983169086116328, 4.653026012942267, 1.3386776463808092, -1.0589450232113835, 0.16739911790891002, 7.552383960938418, -8.352589828225195, 5.1972645093099565, 3.231531136709766, -3.7759341332445984, -0.03362657619345382]
[-5.354360162310307, -0.9228549398646466, 3.250504365277089, -0.24917871629176, -2.377810032508785, -4.33029967159537, 9.644650632860724, 1.3460830056204514, -8.281041002016684, -2.820491541395907, 3.2634945959425465, -5.631592603374664]
[4.002570906658902, 4.139977016678994, 0.7889631742504148, -4.265388378009388, 1.299524305116369, -1.0627266169132101, -0.18966619836101747, 0.5326841435454195, 3.793895405077106, 0.529198568935114, 0.16033372841950833, 0.3658991762700994]
[-0.3332930838613782, -3.8989133468557977, -3.0694282664356685, -1.5044520324621942, -1.1905165913875788, -3.0239475333241974, 1.2359763139296898, 4.900494792922021, 6.163314259153204, -0.2414330307711088, -0.12102137681885117, -9.054570948016273]
[-0.6426780469697355, -1.3653030941632167, 0.5089726704484151, -1.3704625197017613, -0.9160437251284124, -1.0636173420834811, 0.36416059417824986, -0.5949969907783172, -1.0066118569509448, 4.805130163118875, -0.44962987615546446, -1.1926713240062123]
[1.7383275938217484, 1.225039212812051, 1.5479451322788196, -4.301025276716932, 4.814753617898003, 0.34809155249054025, -3.3348357762290775, -3.632961951473983, -0.5949830155879606, -0.14586003283535226, -1.8678657121107787, -0.2768491960050839]
[0.18709734479862167, 1.1110022743441619, 0.5955712271891238, -5.562095750166122, 3.8210639821881274, -0.5012153815637229, 0.7604967431993255, 1.0370041690918599, -0.5301717663137441, 0.8023433876830385, -0.1630959248811575, 2.2268954847827924]
