0.1360970007139813, 0.07052256957219297, -0.04712538721948058, -0.09124203565926173, -0.018729587035850325, -0.03750725909829291, 0.11445357369245603, -0.0896785746513634, 0.002136729601551339, -0.01537000142245576, 0.16731764463447898, 0.011420236159764232, -0.04791066836377768, 0.09341049303266649, 0.050438203968517635, -0.11634955480288278, 0.13983647539975086, 0.18511104630527664, 0.11313808423303667, 0.20194682111521312, -0.058273818905085324, 0.06618539701667843, 0.15241018518102076, 0.0579066522358615, -0.011436788179454803
-0.16177755734660068, -0.060054930203184566, 0.030120353522686195, 0.1701961803484486, 0.16381651578694872, -0.008615124245819285, 0.1471171231393949, -0.1040495022335663, 0.13454226091497248, -0.014613305169161716, -0.18794125160858105, 0.09751289525075497, -0.006078691472176635, 0.12164662128108521, 0.07091541647401911, -0.21772677785478659, -0.024897961700816575, 0.13860271295629828, -0.11201197269854352, -0.027829896805066423, 0.1643871476585057, -0.15028331395385966, 0.023886640291181517, -0.12063581522956465, 0.18670414146901876
0.11856390136920435, -0.05282642025539572, -0.18447918742906047, -0.0673625468923418, -0.016665246054668542, 0.17363063828918704, -0.155678521146064, 0.015527702009039369, 0.0962220069272735, -0.01940804314381132, 0.13415040611949353, 0.023722283127618156, 0.21761033048035336, 0.033869664503007234, 0.03882764119365864, -0.04012250940444739, 0.021214908679954788, -0.05380390664625643, 0.021218325884707033, -0.039560625258765955, -0.10803496427054429, -0.15332724861376407, 0.04510221568589326, 0.048017112279553846, -0.009686733127815633
-0.16584730451300445, 0.07182363327380888, 0.13498766736130732, 0.17529310287671054, 0.11389900556302295, 0.15972263097982511, 0.17048820872316398, 0.010598199634804692, -0.03218727636076815, 0.03569949375066491, -0.08399632389158246, 0.13603964602937088, 0.170382319600133, 0.1494899119263182, 0.03955590099185777, 0.16205322606343248, 0.013191415902903332, -0.026700834471478654, 0.053661303552816265, 0.24492087137410676, 0.18455961812185342, 0.08705263273860966, -0.17424346978624589, 0.028418165722217077, -0.005726019882445493
0.04983269561547943, 0.1077582027335573, -0.12225255353155369, 0.09888462842291426, -0.17596212628995628, -0.1114054500071882, 0.11914367906836885, -0.07648287462660361, 0.1421795560192828, -0.1976569723702279, -0.1351798654120348, 0.09085476281220892, -0.15359505304553975, 0.023083091755434944, 0.16726873770652328, -0.003654276995670954, 0.0568598344537404, -0.19675194483833613, 0.044326769648376285, 0.0843879456643537, 0.04781216730696705, -0.0795317304521072, -0.05819305610542879, 0.17670663986682283, -0.18572586446978
-0.1936815460090187, 0.14980428226987338, -0.14388002365966374, -0.14504977762844953, -0.13574725366174964, 0.12079883138529927, 0.17599380627222, -0.20629955732088018, -0.008901828277161848, -0.19262198015002, -0.09046391594597263, -0.10158568481000398, 0.08604023053075571, -0.0671526157633947, -0.12411649877508905, -0.015848564676396806, -0.1999247184747297, -0.16544815087934026, 0.18560954045576547, -0.0752993587204657, -0.04114963171017187, 0.05736997053035402, 0.13811700132794336, 0.15778296293597407, -0.13252084003437495
0.06667296958695641, 0.15541805170945527, -0.1906900814801488, 0.07567913219479226, 0.12025685492851913, -0.06245557107944461, -0.09867574029367301, 0.024241339299564943, -0.0044012843797042, -0.16408406942536705, -0.004913386835061427, -0.02595808394478454, 0.05663492685298096, -0.003676390167375018, -0.07103221077223029, -0.07329646223960257, 0.1172538995072473, -0.10686957064277375, 0.01565923467918842, -0.14954094528590975, 0.11170873399604893, -0.09784637239017648, -0.1796251955890632, -0.09750921093357251, -0.10427721883560422
0.17921059400664166, -0.09092329143242325, -0.10135150025362667, -0.05089599028030334, 0.1621830941260502, 0.05404404004860187, 0.048850659954658204, 0.07218196992655734, -0.029421881995873752, -0.07179461889249125, 0.06571168239545644, -0.1886067817292743, -0.09267062708536443, -0.0717189634422002, -0.1004358940665965, 0.038538041424483194, -0.06541807014567237, 0.14321975066281925, 0.019735349274130915, 0.006883704818762323, -0.021071826030267797, 0.044130885825806807, -0.033211141608991, 0.057549745446937486, -0.18158961168584345
-0.024033379327871408, -0.1307610929745868, -0.15068933181148958, 0.016287066776056222, -0.022829498804666865, 0.025063589626207756, 0.10278308635039042, 0.1386490815565008, 0.014118207888223868, -0.10238446011792393, -0.007414176028166175, 0.1328205117602209, 0.18473500216645672, 0.11865525653678557, -0.12133447354471923, 0.18389183397608094, 0.030865972115869156, -0.17241579563100667, 0.08449404023837548, 0.23893553948588364, -0.02236436482705949, 0.03984600031743899, -0.07821826808646096, -0.12719610062324657, 0.08666013500163393
-0.20133487405908465, 0.09731155832321615, -0.0015485065197882125, -0.15521590296034835, -0.16696554082356763, 0.06013298164173916, 0.15017673549234825, -0.10395717606249481, 0.20656738180507495, -0.18716067809941175, 0.14891746420074387, -0.03074159284145771, -0.13511781164159437, -0.09438565939999595, -0.015777328738747935, 0.10121506635097675, 0.12149280538912731, -0.15213253559461912, 0.002688218356385339, 0.1035630799278322, -0.044751210229276916, 0.11751063792844609, -0.08691130786767766, -0.20493884381734115, -0.18400998539907634
0.0698345791663259, -0.00865362059708948, 0.1694192372307398, 0.18137933087361688, 0.14779148473417536, -0.18268231806241425, 0.10052858243591098, 0.06315666569039366, 0.07663448843586322, 0.06563562018199579, 0.16910048181301365, 0.06412730145356008, -0.024393519784524274, 0.011310663816694952, -0.11364498465112251, 0.019781101710129173, -0.21882632967149837, -0.14540420569154275, -0.07331699448362725, 0.15483911827206076, 0.10259398528516009, -0.09535951241517666, 0.048644089181334754, -0.19432555377355698, -0.1347170367118868
0.18990281926420147, -0.11906981942054452, -0.050421665838778405, 0.02439415921695931, -0.09954982984128158, -0.008462681908424417, -0.10326496585979608, -0.19688679191482414, -0.11266062471043661, -0.011817089739127169, -0.16320932497724752, -0.030477906115907477, -0.04384397742795146, -0.03959650986746175, -0.15689912640631365, 0.14867714117215375, -0.037482298805378685, 0.13092279507729523, 0.18905872656447553, -0.030306324989085642, 0.005730011013904517, 0.05362656410687773, -0.02798815723130016, -0.08982286488517692, 0.0936709861816516
0.15512251404256278, 0.13287247943334146, 0.041896603555484434, -0.04491058508852193, 0.16993032414284087, 0.055896054807905084, -0.17280939552661728, -0.186286576536305, 0.12146794695046698, -0.19235715470860412, -0.18870038817388463, -0.03337761403136717, 0.032104543423475115, -0.027177548217367932, -0.0016505448544775153, 0.019743407085887132, 0.047458785398987735, -0.03585295880349229, -0.05315108158049393, 0.23023161714755475, -0.08070772371877268, 0.08202006628753762, -0.03070550829507003, -0.07041224704056208, -0.1746838738935408
0.14313504236899194, 0.04560062902098598, 0.15248658865902676, -0.014200450450871148, 0.049806994158434724, -0.1520528193723288, -0.03981467447786327, -0.13859798492291642, -0.1654565745924465, 0.16112560600845247, -0.1071117471290553, -0.1336597693767786, -0.09745159883996893, -0.055383457132460505, 0.021630922000894025, -0.15241467535654055, 0.17063226891855354, 0.1855996741546379, -0.14848789899634446, 0.00830503431866106, 0.08846052978970677, 0.12383539891741493, 0.003416459825454808, 0.15639693460311646, -0.0712907608877604
-0.0033404966141156, -0.03651457564509525, 0.06167423464062648, -0.11424267773621122, 0.020717086124168834, -0.11210584780971417, -0.06284904931966889, 0.1611644931443713, 0.16921035730878942, 0.11228216623602938, -0.17710540810356126, -0.13497367730429435, -0.07504923358830354, 0.10696398096353331, 0.13931466112510987, 0.01811233204461904, 0.061828938616305264, 0.1163642957158705, -0.18424807199165988, -0.11688509491434827, 0.16429570836801055, -0.20883128580294943, -0.10702321349370042, -0.1946854848409325, -0.19414084596026454
0.13527509610867594, -0.10197884015333429, -0.1379866762389108, -0.13512376328591869, 0.04025008394853187, 0.1877539908900277, 0.003243475638541448, 0.13068704006907322, 0.018581713651305124, 0.01998991289732309, 0.0770429338950671, 0.13128001736933625, 0.12313723480143753, 0.19057270151837305, 0.100430145778762, 0.14705344380685553, -0.1417977874266052, 0.006976399184189601, 0.030366325959516997, 0.18184584814278051, 0.007685442475019407, 0.08819675784803019, -0.046560290031526, 0.018368045821709412, 0.14025441824123558
0.11736155938993206, 0.02711123816777535, -0.2034655408265026, -0.12180017536074365, -0.021527083878733803, -0.09781775396369334, -0.17255968274575398, 0.10703753870699753, 0.19721818258358045, -0.08375717388729514, -0.032039988219931675, 0.13204251355629792, -0.16408734328312904, 0.052988782158587225, -0.14670366026090104, -0.10154847025743972, 0.10493273585962684, -0.18706145410618744, -0.19817925969090558, 0.011955052889436185, 0.013087086381266343, 0.11630136220504085, 0.0861233242841084, 0.05907315824328925, -0.13971120396807374
0.1923539125327017, -0.08163207110503903, 0.04325998221756253, -0.03989295372045174, -0.20542730213418847, -0.011286008909418003, -0.13818738340831566, -0.23228200128768287, 0.07041064043478375, 0.04518408198664639, -0.15220993982933462, 0.02760856631486347, -0.0508470520547706, -0.04947093430540568, 0.1133154910240396, -0.01912014019965133, 0.13031899935945895, 0.035530718259632534, -0.023653141802060587, 0.09761365115324655, -0.051769893632392, -0.17976117894013782, 0.07550470450998914, 0.042119110985882446, 0.11514935327070033
-0.15141962090356614, 0.11130862258375272, 0.12380577520654121, 0.17178995371084585, 0.12791033254975653, 0.07275089247361527, 0.12560178862592108, -0.03597907364613945, 0.13936697844142723, -0.13312635173294438, 0.1196809233933001, -0.013346516437940695, 0.1118469862451349, -0.02162348516693343, 0.11942425359965925, -0.18517785830025013, -0.2058391152628235, 0.16714259108279625, -0.014609230050201472, 0.20314625579597928, 0.1940380232035284, 0.0380606377346828, 0.029444431219968484, -0.1221737480975699, -0.1629026757459981
0.12536348873911943, 0.10725648783494743, 0.11647895755441985, 0.08350693025887924, -0.05441639766468107, -0.0773457225711642, -0.15294088352030985, -0.07660393680094288, 0.046768299916121615, 0.1544068122468715, 0.18163635903072517, -0.02736986293962341, -0.14661813654120495, 0.10391418618906305, 0.09793970949821165, -0.2032956978800928, -0.04892739004862045, 0.06955016745839128, -0.1967023860899279, 0.21633612265442032, 0.2028377441949573, 0.06242532269451527, -0.16930468677429172, -0.1831169447096393, -0.056565091132409547
-0.19040325354955343, -0.11309038843163342, -0.19417944359974018, 0.19420471215976864, 0.10263594740551688, -0.17125651621560214, 0.15913372381216906, -0.16775801110918076, -0.09530817562668228, 0.06424675887182149, 0.18157788305197073, -0.14323253021733354, -0.18548495671641443, -0.05873513328200532, -0.18582391697445266, 0.026142416486284, 0.11659912862843852, -0.13113525252259403, -0.16485482888567002, -0.012674069176546147, 0.19964007349891544, -0.17343671124757715, 0.1881632945366345, -0.06746159089308458, -0.01091958035422399
-0.08499494988219605, 0.12987579210194544, 0.18221406288681943, 0.05931344587033583, -0.14957840723296112, 0.19770667282161317, -0.1574134181925914, -0.019009938015600983, -0.1148935280408389, 0.16118848648332057, 0.1835583413252662, 0.13305849710301182, -0.06213935385743697, -0.1066715022008604, 0.10616552255835375, -0.09980529356880473, -0.055174539051956455, -0.1901821130717307, -0.15714014261506887, -0.14642711226422153, -0.15374961236399326, -0.20122654474580423, -0.02812261335165281, 0.013577407837633787, 0.09606389211367784
-0.14470009642055134, -0.07565323554630435, 0.05388163691169546, -0.1620422967240836, -0.044592300636358606, -0.051782282636153885, 0.18101379169364973, -0.22898661056328581, -0.011971827856047782, -0.04652624172484403, 0.09557605901462285, -0.06239047884130904, -0.10249055420885189, -0.0896166574845093, -0.006994366785320671, 0.16286313130166732, 0.09617085549957126, -0.09761838171832207, 0.01585070952088407, 0.12147126617705843, 0.13195128625743768, -0.04697106576598171, -0.03588812939941888, 0.09825239136066798, -0.02759224055192901
-0.10301720177951099, -0.06715603412819972, 0.1755326849862133, -0.13871505981999963, -0.03377108195083691, 0.05537880220998196, -0.00525387108816025, -0.17385980004649457, -0.1766050706852643, 0.05985442865514777, 0.05500017047863549, -0.1871144421134609, -0.06820348329774911, 0.10017257189474393, 0.056358332268665656, 0.0005366462870982992, -0.15913208008649476, 0.07496331700658934, -0.01762422709648001, 0.12004898700361097, 0.11729407731647055, -0.12975656552706424, 0.10573722833162104, -0.09612503704324596, 0.1933225309360295
-0.15382689238079014, 0.10440949127298361, -0.18212979082446967, -0.09262505726603078, -0.009753225010925447, 0.03309906010849211, -0.03986255592047043, -0.214688245602672, -0.07562425414293157, -0.10238321829712654, 0.10765720680983452, 0.17499915819619294, 0.04845668696325175, -0.18734533304633263, 0.1209023928204634, -0.09541484438744484, -0.09179443828992453, 0.005090360769349784, -0.10618236601935642, 0.22151789937118369, -0.12433323417655631, -0.060569754558832255, -0.07792983514600374, 0.001080731909831279, 0.02933442970979265
0.048498704395201375, -0.03614443503319287, -0.033047331551101664, 0.059256809858351286, -0.06087365896556058, 0.1118795356845965, 0.11663198302283774, -0.14432308771430977, -0.025516634688848957, 0.03947114075175332, -0.13133734373490666, 0.09105656089490816, -0.036743444180548625, 0.03579637905599215, -0.14019067063439866, 0.049329230324975396, -0.08928352565271225, -0.018188635917050916, -0.04072259652227056, 0.03874359076331218, 0.08979296564436039, -0.09763458802241835, 0.06954282769103799, -0.18157145462948956, -0.08018666221276664
0.0961597967935591, -0.22353720911056157, 0.052251092291232, -0.18500554305418893, -0.03258915036986373, 0.15590732296491372, -0.19439546694902385, -0.05122588759212512, -0.14800158897301607, 0.126929880587995, 0.08073311061755478, 0.10982015496292023, 0.07608837727398451, -0.1999631544346018, -0.17915965057827435, 0.032330339220089876, 0.17006325784646453, 0.1417633724368414, 0.07425279653749402, 0.13498426286624568, -0.09442764906576732, 0.07719112906479475, -0.07723801048177566, -0.16077564835361416, -0.015938673275169162
-0.07029233852220242, -0.17751700469360243, -0.0259572545736494, 0.1632389430852824, -0.04698806704973009, -0.02069274790671323, 0.08494086197278741, -0.05939878833681471, -0.12255732404135596, 0.15428742692140723, -0.016617856174389038, 0.12568915343780468, -0.024388674274930754, 0.11979044442766816, -0.039635450513064815, -0.12887157432442328, -0.15438615226896701, 0.1680958916434744, 0.02603755985690095, -0.13700376972052702, -0.030648007110241335, -0.1301425808246501, -0.16204981410196445, -0.12775064879609366, -0.17748450517844952
0.05309751034815721, -0.1675234662434963, 0.05182056738570902, 0.0493498983862655, 0.06270312206084669, 0.0053538981243072764, -0.08488282601628279, 0.08978473715348313, -0.03131626378195678, -0.021930605476418157, 0.05645088139860816, 0.014720759337835072, 0.20996421569272122, 0.17683919961821987, 0.1768477507693591, 0.15746399168452072, 0.0018444781252658859, -0.012290180213761418, 0.0735909982114624, -0.0698488839684869, -0.08191436052609548, -0.20446082912268676, -0.13000174193828123, -0.20557600152634073, 0.061617077230958994
-0.1462849393851316, 0.07414596951664201, 0.07365792576488563, 0.19248947229376712, -0.0636447928536439, 0.16903782710046805, -0.017181523391909172, -0.11318853140731104, -0.1309808708083129, 0.1408716974680036, 0.1271075925750262, -0.06390816325890644, 0.008702827366086243, -0.07477448676714875, -0.1836623358770375, -0.1979630946249431, -0.07911091364369532, -0.12249842205455548, 0.002405608229803941, -0.08595858062741804, -0.11257255016195061, 0.04469162700071108, 0.09865260274919216, -0.0815110598211646, 0.14375463838336844
-0.10062249341338779, -0.09457932472969242, 0.08366643863690398, -0.17797983553341784, 0.15026480603156683, -0.17060516638341008, -0.01435985771314881, 0.036938307431548155, -0.15649339070167784, 0.106294470600159, 0.20125426206622993, -0.008308487309019173, -0.12866821872251027, -0.17148071964604555, -0.15554098969765667, 0.09203204210010663, -0.06142679401190629, 0.15992410988523412, -0.029906865561774895, -0.12819105565555144, -0.020030492313637682, 0.07874642135946859, 0.13932571160500218, -0.18985408521779687, -0.12810532549529466
-0.006221357975834884, -0.18251577132961466, 0.1498565589194686, 0.1778100485510258, -0.09506305825551542, -0.025579892018601152, 0.024224010054010515, -0.1320935863079743, 0.04344903761854273, -0.1381121957083496, -0.07136217705845667, -0.016403128406131385, 0.06675494261971503, 0.010014818228868664, -0.09083021013043076, -0.12074771068858145, -0.17728921170118275, 0.10678477283555403, -0.16769874832535803, 0.13528731317707887, -0.08600368111146908, -0.10937061382101489, 0.10706614161074872, 0.05731384723380117, 0.09650058934774569
0.003777784941332221, 0.11086992060356003, -0.15561203814102562, 0.0616113531991593, -0.17664769827123336, 0.09542299085869428, -0.054765207615443005, 0.02981386140938644, 0.10916660812890863, 0.048540726020738986, -0.10242555741386128, 0.13774533839000203, -0.07668065437428974, 0.0030183612447831185, 0.07492106753612304, -0.11960151572083111, 0.028285279642106382, -0.09301506823749493, -0.13978067706192832, 0.1629007760128447, 0.03480517701410811, -0.09481223372006439, 0.04760117433144652, -0.19656416792190756, -0.1483363220159239
-0.0443310406796725, 0.15954949518507217, 0.0024004912059287335, -0.16599890075535986, 0.08254432457372621, 0.11301864679723676, 0.1114122873332087, -0.019576969627884584, 0.10384038691974931, -0.13553778939527253, 0.10151915636492571, 0.1320595081373454, 0.12966701258947866, -0.06235580443915619, 0.0417233205827673, 0.03947617036473934, 0.1355922955091774, -0.16492117062662404, 0.12380265941359705, 0.05060914748806655, -0.04330191175051631, -0.046129663455055835, -0.18507078411514322, -0.11711624149796764, 0.06081291501629736
0.062030297208988096, -0.03550852941306978, 0.18018654283010713, -0.0037482356366685763, -0.09851762165130022, 0.13937404711367, -0.09460133281605557, -0.00020881490377968958, 0.10675660751383094, 0.10960098736667216, 0.12292834607632293, -0.043410501411543255, -0.15132964476759864, -0.18947819750378747, 0.09579206918699679, 0.17335973332244087, -0.09263355048478131, -0.028917869975654504, 0.08350872303575597, 0.10585751841352996, -0.0792325270782956, 0.04296600145729756, -0.06871212003196059, -0.06686366467702655, 0.015488317784191971
0.09106412757736028, -0.16893472755276867, -0.19448986152265138, 0.054924491122722796, -0.2108063688657062, -0.1815762696772088, -0.10798703915207125, 0.03024694730447688, -0.14476078776786516, -0.19828902456782357, 0.19714716773688698, -0.02853754848615165, 0.18183834831818577, -0.11724078595174568, -0.020408566852435008, -0.06977330877021706, -0.15802228055588083, -0.07268385452621832, 0.19750017230408762, 0.13892048058664436, -0.031880620210273665, -0.05955545257208151, -0.08560256725550282, 0.001293098483850191, 0.0940264493079301
0.0730788029500793, -0.047463586592433986, -0.19146662279501384, 0.17138600276148203, -0.05252389342351438, -0.04351637038595, -0.19690459544757816, -0.1663136919444395, 0.17774290279863697, -0.01818850866066029, 0.09830725902791897, -0.14139113625473615, -0.045893561779541577, 0.13062751894155628, 0.13401629343437746, -0.11342544473112111, -0.2151742668993772, 0.12040332647970228, -0.12496513985291667, 0.1583164519219463, 0.08649609396261354, -0.15575783107230526, -0.15223478359751005, 0.15917631096620802, 0.038961810282852796
0.04620172163639111, -0.04549193692005694, -0.15140021421155025, 0.0434884846388576, -0.11469007002626337, 0.12294939287523288, 0.0948329201307561, -0.20569825269122216, 0.19967986104294067, -0.22014339829101284, -0.15827076845982926, -0.08271658367659812, -0.11661640451896628, -0.11023276374309132, -0.051916047520467794, 0.08194451230221736, -0.06531998939570721, -0.09572143259262453, 0.0002650621732187652, -0.002132033114875237, -0.06352609487177015, 0.135247264850717, 0.03931099891337697, 0.17913477559688776, 0.10897565843592269
0.02574492410423326, -0.12732924571108406, 0.057998968456602594, -0.015159853252936752, 0.06968650468111233, -0.03808285660634706, 0.00018617940156663497, -0.21212817729744357, 0.12132699605123584, -0.22955250710394928, 0.08170251435064914, 0.032651432698592484, 0.13877841394329585, -0.08821963221116798, 0.08058228364260547, -0.1303777226506439, -0.02056868720745318, -0.06982067535959559, 0.19261888771628613, 0.2311696468132472, -0.10494873125747234, 0.00488575372514582, -0.04823060278097219, 0.17650007759990755, 0.16957128827978168
0.03151087221382777, 0.05581558636752336, 0.05006731674698317, -0.056812968556376825, 0.14736407049359682, 0.1602778910744803, -0.0653386907245981, 0.08444355285212798, -0.16923891844305233, 0.08483648730859294, 0.037894104273064826, 0.17890818703063013, -0.027573813613872292, 0.045347918690031776, -0.06435500099511184, 0.10067971025643764, 0.011052592153222029, 0.1898145920437433, -0.1980292623184542, -0.10348423946677054, -0.17268696683624984, -0.17070151792286392, 0.1904861531642974, 0.16783561405469663, -0.008098243939608986
0.17611845192054287, 0.0932440274098003, 0.08657895994553118, 0.1009831011730253, -0.14655278956925555, 0.020076926024971034, -0.02883938546906561, 0.16932632074500686, -0.10290844126241938, -0.1779147013215772, 0.07440349541573109, -0.1403945814393657, -0.12933566873919242, -7.39998508317235e-05, 0.12498584643105053, 0.03128308018671466, 0.07235346241028429, -0.09626769620396466, -0.07645806954508065, 0.007525400216951531, 0.20709001432176594, 0.0656357877094275, 0.19554015884319187, 0.0028985259180224457, 0.02157314114837856
0.19360485556026372, -0.15986239339087283, 0.08682932283535748, 0.11890140759480128, 0.11920215403357176, 0.10048815396661033, -0.13576808613243152, 0.05314451663460496, 0.19653869415360203, -0.012453682151323826, -0.04577227555253217, 0.17576152283459526, 0.048251932744048986, -0.037702510895604474, 0.052220887982595235, 0.10986806907369728, -0.13759721728389945, -0.19529824277951013, 0.028397798369123244, 0.21734008835594165, 0.08421849275569791, 0.03069982004264923, 0.0696462282656533, -0.012159954237752851, 0.0921308393104581
-0.10250046262340712, 0.12213229850675485, -0.12088061995091567, 0.1796707264192675, 0.1510668058716877, -0.1681914463288441, -0.020469168288826962, 0.08725547186836852, 0.009073484172696744, -0.03783499000166167, 0.13218161191687255, 0.07931571020983338, 0.20955037580105165, -0.13740316652479828, 0.17596899477076522, 0.1585813638780826, 0.024114424846544538, 0.17437597906225052, -0.08131218234105898, 0.19631495589153236, 0.11930999522497772, 0.02282149066488322, -0.13982030559666597, -0.19961215439347957, -0.19584107336217016
-0.10164650997996987, 0.0685350477098541, -0.07441993586281191, 0.11188674930283378, 0.03100363627401059, -0.04382535886509688, 0.15161595473198186, -0.1961410888800362, 0.007302703264089969, 0.09249850689879822, -0.13958477989551177, 0.07909860321648027, -0.04913755138632201, -0.19625161477012312, -0.0039705658585914355, -0.004988313057442644, -0.20726522304571826, 0.026371833710481057, -0.04371283231062746, -0.1572557373548057, -0.11620088402503767, -0.17696370506066683, 0.03142257864315107, -0.19574419913175312, 0.17098139614281901
0.13595306132666854, 0.14572550658323963, -0.09944133171122185, 0.16416407481474865, 0.17692427981306866, 0.10632442659736577, -0.09047398761861478, 0.059811817212804735, 0.06590645091003253, -0.07322551928881006, -0.06811522335447678, -0.18092111768143504, -0.13734362427698882, -0.15176907093294462, -0.0012881417153206974, 0.042632648774874375, 0.07829600042567565, -0.18111701019841622, 0.1457690606242517, -0.14569966816972577, 0.028762760496052742, 0.0788961704320835, 0.06977750682260367, 0.168211736493599, -0.06238340228422477
0.03175829519795027, -0.20348706111311207, -0.0025075655774183647, 0.12761522135910144, -0.13565847861737698, -0.09514083230789064, 0.07934589911275122, -0.10438877024195542, -0.06898379670125664, 0.149973303487356, 0.21004499659900333, -0.14175606488826475, 0.16888721167063145, 0.018731301983435145, -0.1780543479004998, 0.019804920778964032, 0.030112639833216204, -0.18690708764355393, 0.1197317180791674, 0.1657955359686266, -0.164132488347231, 0.03922485326383946, -0.001009048552246769, -0.11958466557127491, -0.01675132697067344
-0.138678617438666, -0.10445112807963587, 0.03544796349947329, -0.007296302790327233, 0.004791887820337479, 0.017929016710008117, 0.12677602258098564, -0.07129870957136226, 0.15339022728905172, -0.19183636453374092, -0.019302476574650413, -0.06638687315385298, -0.013454963804133661, 0.12815533667202944, 0.010835225519051474, 0.17900121785752823, 0.11938081786322255, -0.15166540410869522, -0.05538564797974814, -0.15607550434870843, 0.10203076891784728, -0.2112508912550829, 0.1725098156056138, -0.13861359829789197, -0.03469175553604314
-0.17802925715309945, -0.10735122715064445, -0.0740815625301587, -0.1776571893769046, 0.08871763120595158, 0.08509218060621662, -0.05884134654688148, 0.12126315135672665, -0.13930041285064873, -0.20252713120234525, -0.04793849921694676, 0.15206004836260592, 0.10976665613086953, 0.06357473488415723, 0.03117597877829961, 0.10505003405916291, -0.06493842780253728, -0.185713565616268, 0.14205406792964304, -0.08656092862677563, -0.03752355970075816, -0.07623163448645907, -0.13550162635328436, -0.07395235120397396, -0.12940547197365349
0.04326676807570925, 0.026942037476584517, -0.2235570003780585, -0.015754112070634412, 0.005103542387705858, 0.1491260286470278, -0.0038064617411887737, -0.18361328902232696, -0.15480198126195605, 0.10930669163031678, 0.12800873210484495, 0.13571601292697902, -0.07754648709818224, 0.05598572655493531, -0.15542494548063626, 0.11305956006142097, -0.0957603332962448, 0.18277986940118562, 0.008263931031875846, -0.15154146247553027, 0.17061885567129795, 0.031188058104359692, -0.07686158838128321, -0.19638445520853567, -0.049609478389948884
-0.1400052001675158, -0.011231071732317176, -0.1728262011135589, -0.12810683936519995, 0.15120807869310204, 0.05669577039922603, -0.10500919077724304, 0.1308218206819733, 0.07484512809553312, 0.14136466219580174, 0.003387967056794886, 0.14699682213260107, 0.09261327798548245, -0.18382461683667953, -0.09765294091884424, -0.10496895172358611, -0.16117614965520283, -0.10587142896193351, -0.09341713931548376, 0.18634353467948356, -0.006467851844432289, 0.1299642002282303, -0.13249802067559094, 0.013452328454914784, -0.194878217878245
0.1690270179383325, -0.23108801335477444, -0.07286609841937451, 0.12250558919318637, 0.18147360590543676, -0.19162157884259282, 0.1275330811957256, -0.019754734009818323, -0.15966502319378925, 0.07496671535976683, -0.14388168690850284, 0.03556569898450861, 0.13354556330760098, 0.06590106437090562, -0.041584716306484366, -0.20526284785277357, -0.05274115915496841, 0.16320927685507314, -0.05113861025599652, -0.05410886090534466, -0.13845169716064618, -0.014246205034691187, 0.027326699003897247, -0.18453448583041032, -0.03714605756544508
0.06042076783894425, 0.15510500713589337, -0.056937918626743404, -0.02395600770131126, -0.024395742468867505, -0.1094950423221091, -0.04357386568436897, 0.03131751772051246, -0.01941436394627248, -0.003712412876500065, 0.14633264074404623, 0.18844264891657853, 0.18099994916025636, -0.05720759562836665, -0.18514014236547208, 0.028156314531353224, -0.029082756736046256, -0.10649497804913106, -0.16943253784131723, -0.009548906166786093, 0.12559344904912553, 0.16580311201125553, -0.13590488281211074, 0.13584061364642042, -0.18079560078306686
0.08222883327181482, -0.21829645833352845, -0.06222703533040864, 0.1498900983232576, -0.05552131406739051, 0.17021164350048817, 0.08472610583489039, 0.018713014662227374, -0.11442522527778354, -0.10551642729930712, -0.02335212649216369, 0.025760270122475826, 0.22536287772736002, -0.09020704255616181, 0.007602847465970765, 0.15648171057076207, -0.06050325120843903, 0.04974537138718491, 0.12089054464484078, 0.08577899846031238, 0.10958979762004213, -0.14221181103161548, 0.20034357095538619, -0.14682497103273962, 0.03318830053219369
-0.08472021634016891, 0.021428255383549297, -0.11312566105076058, -0.025322579376747933, 0.05675492148624131, -0.0917998783231622, 0.0912825395521033, -0.07214415169271922, -0.12635741737670853, 0.010824957201515216, -0.12269302595224287, -0.03410460934775252, -0.010450170557340498, -0.16972774965085263, 0.09057852935087764, 0.055231018330629086, 0.10809832209050238, 0.016045795895068334, 0.03668959896938559, -0.10670390670666663, -0.11018516872722466, -0.12994482952320832, 0.023113430735511673, 0.11269986792626005, -0.05744816009680207
0.15031385519574084, 0.06956427546734026, 0.0578770249612782, -0.06341335798772524, -0.1655494907109686, 0.18579875343428076, 0.14233096046216911, -0.044034307545190145, 0.16530667281348224, 0.12002222449839449, -0.05536305006724136, -0.0009596822745325014, -0.028665248390003895, 0.07994575234304663, 0.1700375790840513, 0.1771828704877691, 0.07047546678775798, -0.0786921491965589, 0.1696427683037329, 0.22289356373446337, -0.05404466876290321, 0.1595758056255192, 0.017217650884474543, 0.1728783629074503, 0.19809422513161284
0.12290673263720182, 0.04767854401873129, -0.168580497918667, -0.19506685677525362, 0.026425036512036353, 0.08244298282361, 0.17488256008376174, 0.007468791036344728, 0.09736477878552867, 0.02701320059535254, -0.11029063284179233, 0.0581546379951313, 0.2260721182755417, -0.15513957179069185, 0.08025076682544904, 0.029920289098893316, -0.08169155013486774, 0.1164334257584997, -0.18018251764869214, 0.19430513508026476, 0.13261344732044844, -0.026352246197653254, -0.14704973585532333, -0.03492975052145923, 0.03346270895656104
-0.10099797896642644, -0.029889720517580366, 0.07852321502719993, 0.1720988190823817, 0.01730418576484578, 0.131584393228849, -0.16844309446916728, 0.1435580100112539, 0.1863676325789516, -0.16206846625898547, 0.1402279581591428, 0.1407118080830622, 0.18532824843408502, 0.008700067555009993, 0.04831422268108672, -0.13354083528761285, 0.06676886692064213, -0.03990220182785981, -0.17523955501277944, -0.10841037789890294, -0.03855258916609696, 0.13397074449735344, 0.035441691329202066, 0.1494271982883313, 0.17157473053368563
-0.16737399548469173, 0.011793110319246783, -0.09370804520678748, 0.005739352893565758, -0.02552633148457019, -0.007424007823602415, -0.15870370037483172, 0.131681285859431, 0.015604407355892426, 0.030148316948282086, -0.005398206416979825, -0.12273106782024883, 0.04846699736710079, -0.13456880919459438, 0.14597039705916387, 0.11549044200322287, -0.14426839917304876, -0.1750343105996483, -0.15738066247407406, -0.012576774920408868, 0.1874007410526591, -0.0006005307426966538, -0.08664826333286925, -0.1267933028385064, -0.1559170506728947
-0.14513724813830448, 0.09864027721945441, -0.17429520603872264, 0.14869853049129875, 0.11879524568966458, -0.14477569227105316, 0.024288176655876383, -0.19875598462796754, 0.16456423282996702, -0.0011573853561446955, 0.10442339078491886, 0.004015333940126286, 0.1062545702761583, 0.17387883393338718, 0.028593566862165867, 0.1326002359831906, -0.06553034512331558, -0.1632129878188162, -0.18232958635424013, -0.07553188154897585, 0.1415338786393178, -0.0996771324334701, -0.10257703783173258, -0.018795258340593514, 0.17856944510025807
0.0011906255710165629, -0.08819472966689369, -0.20016978692877627, 0.032576218812842686, -0.11904059535059801, -0.05245779705843251, -0.04670936944394455, 0.1028131029500733, -0.08510382727928217, 0.1492124615964302, 0.10415122057653825, -0.003915126534707128, 0.18056857411135704, -0.05482480002856528, -0.0414904912532944, -0.1669058863060448, 0.09062276346471643, -0.040054789839424704, 0.014056844011601325, 0.018233627832554482, 0.06814315225852068, -0.07181276066573809, 0.17362980224414062, -0.04397159470418441, -0.05636905442154971
-0.04157560312902706, 0.07894579824948915, 0.16766931598002544, 0.1501207692000677, -0.014575381869723757, -0.0829640767939812, -0.02085461274117209, -0.06203956701582208, -0.07251596358401032, -0.15628238510409875, 0.18539792804261837, 0.007106425418749606, -0.12469315775074763, -0.0423718997118196, -0.03970959951566697, -0.012203935406892477, 0.16495594091619328, 0.18910237937624708, 0.03928683546236294, 0.07939085461053043, 0.0764634569255022, -0.021839720241187698, 0.004540141721536241, -0.09081328414861178, 0.07351801341272372
-0.16460001623980022, -0.0993022359532713, 0.12716162942486206, -0.10487115214849008, 0.180518352271033, 0.19417750239213788, 0.03113465376684853, -0.18318110084399022, -0.1339325129413042, -0.14726985585805005, -0.06914236564545412, -0.14097653021829792, 0.14395266246607769, -0.04957393509478519, -0.10238124464790363, -0.19985960074942424, -0.07622217879757893, -0.20090132621605955, -0.14054096586047887, 0.07464266411601159, 0.1804898128817322, -0.14702530397091607, 0.10846219842126427, -0.1384965923217637, -0.19947429576369421
0.15677123789860187, 0.11225496773189966, -0.20235074308320106, -0.12479870938781275, -0.11482486359779019, 0.17192104714193673, -0.046584172094752976, 0.12652544582392342, -0.001991723225887352, -0.078200900974678, 0.1105691777023463, 0.06102068813054094, -0.06954670507796165, 0.03935864388626311, 0.08581372916846887, 0.1131629069498159, 0.04312896703719823, 0.05243687379895339, 0.04805706078877593, -0.13507859336364125, 0.18538578377851958, 0.059515861710446975, -0.07955223004322078, 0.058730359142910984, 0.048223824580940794
0.06148588542650539, -0.08685285506127732, 0.0035900030033338116, 0.06872954161662419, -0.12961492027253427, 0.003959840821466562, -0.1509873381404528, -0.15670994231369317, 0.17933327772205832, -0.18069526741011868, 0.16233230828307352, 0.007583116395829426, 0.004667050967965515, -0.05960041379929021, -0.02988657831433162, -0.06880169580401505, -0.004549177092226979, -0.07116982916480245, 0.1320236702861925, -0.07886876931672623, -0.0948799169402151, -0.0359213248157441, 0.18712731459426724, -0.2111869446658296, 0.08921080409490516
-0.19965809833789466, -0.07019027387785223, 0.08395111748054646, -0.016032437941561194, -0.035913249346284266, -0.09814990233763604, -0.009212693436184041, -0.10865057115670275, -0.07857874877750383, 0.03552903754964425, 0.04469750356367436, 0.19441133808290417, 0.19951963653713028, 0.013070135480382864, -0.16175847505571778, -0.10135056692428351, -0.021990129079275975, 0.06115316192361174, 0.17127529064789596, -0.11062910968435269, -0.18180079325384857, 0.12064530759361004, 0.13849881512073894, 0.08892952260043732, -0.012740438331959243
0.06885178836108576, -0.07280894337519583, -0.14371695412592533, -0.037874796587639384, 0.10286097321743029, 0.12139385373188169, 0.185317487721141, 0.15272187280424343, 0.07978280866170519, 0.0007486472602823849, 0.09652683419005414, -0.10340869368716696, 0.17902568433021934, 0.0906487918943585, 0.040924230197143655, -0.04839882663167474, 0.022998638588788395, 0.03830787736188841, 0.1468692870678879, 0.05961194572449196, -0.1097002431190309, -0.050364191116035614, -0.08657066622835756, 0.1469949607938679, 0.13717388388770357
0.01998561188440233, -0.1517400460398412, -0.20301400258486846, -0.140582960775223, -0.03842350408680142, 0.07015722263075158, -0.10975081699983517, 0.07256619182718982, 0.14720738964227154, 0.09971615958730654, -0.021738455893031056, 0.08396283482031952, 0.2116849914505949, 0.15915255384828053, -0.06171104461214498, 0.05267544944488849, -0.16414551619245135, 0.012437428538389356, -0.07591516075528343, 0.003415368762736161, -0.019269295556144827, 0.04271054112282779, 0.1519428464259043, -0.03158240107756406, -0.14165589431513598
0.09899910450549339, 0.07639733973999756, 0.16065621836770538, -0.036377253108764857, -0.030269413576162398, 0.016711164932561993, 0.15762651686361695, 0.0785870526322294, -0.19241719547639186, -0.11611166713245984, 0.14747151232079392, 0.06102413662462697, 0.16281654425337136, -0.031344536224078026, -0.11245653675657122, -0.21946898569089174, 0.169580662403891, -0.1571684767006195, 0.03908566606361907, 0.033878234504961385, -0.04198018376041052, -0.006230486179453962, -0.15494701779523984, 0.166092448825107, -0.0032390578109179565
-0.19638101837604574, -0.05333850837686507, 0.08296323880595513, -0.0685697820287957, 0.07664969339055881, 0.10743161457780075, -0.10361422339984062, 0.18893285653090722, -0.19193984831765562, 0.15288908398155485, 0.007384752288567696, -0.1109672187993645, -0.0917610571688702, 0.042237658996149265, -0.08550151763016457, 0.1165380357012509, -0.14425735947336601, -0.057479854089576954, -0.01539560083142425, -0.023965107577581104, 0.13238462798491185, -0.11812925015207983, -0.1518506309976391, -0.16352231272362774, 0.05044022968574101
0.022792676162053268, -0.19540060894300385, 0.17836953242464068, -0.0021705358969158605, -0.0955424962982703, 0.09230197766300967, -0.18937501669826878, -0.028065866407873657, 0.06422942621923192, 0.19836781998715028, 0.10666773945451369, 0.18103907703086616, -0.15375964285548793, -0.024551751106034216, -0.18394933572008534, -0.11116803322675935, -0.07975525799228099, -0.07251564854253238, -0.07009548569732535, 0.16217409619305995, -0.12071377379248259, 0.11001018597595835, 0.026346479718171886, -0.0891996902790241, 0.02056094349164722
-0.13781936798270897, -0.006780131393077424, -0.21079961863694255, 0.15113453596149587, -0.08963196849867043, -0.06174543292625435, 0.19889672054666088, 0.04410413107328323, -0.031825757604751044, 0.13722952119605847, -0.1726789525460711, 0.05456036218165426, 0.005408727184019184, 0.14932820047325718, 0.038325731399759186, -0.028162161839571046, -0.02422172382603994, 0.10072363885296826, -0.08316517912027464, 0.06759953852693673, 0.08763670510392373, 0.18113168568196583, 0.09225611565044212, 0.16053390668537176, -0.04071416639782154
0.04168984670210865, 0.10096510040614941, -0.08250490357641362, -0.0864113978211624, 0.1682657843352887, -0.060095788761975216, 0.20095929762079937, 0.14283160311443235, -0.11070077766654161, 0.16033084767878883, 0.19135130737437056, -0.06177479025628056, 0.06086083471944374, 0.11020912988252127, -0.1632454920598437, 0.10576653865096197, -0.10883238837168115, 0.0699962678717261, 0.15733092125863157, -0.14385357815803299, 0.051012692537456404, -0.10160814752126096, -0.14075533578908903, 0.057172401069722725, 0.19134055036088732
0.0030759266582083547, -0.06047594483838679, -0.0407700349866874, -0.028039056629865913, -0.006991758850278995, -0.03574448330495979, -0.16688285048487866, 0.19320146335762264, 0.19923488592475896, -0.1038817873609073, -0.10290034691267855, 0.0020168381213366707, 0.08380261057745649, -0.18384803880831593, 0.1377563129597092, 0.03391992844691608, -0.12130231095349991, 0.13569675874837195, 0.04347061114341237, -0.02810224099625631, 0.025577003929347343, 0.1663202588032219, -0.17615614903322024, 0.05489477653961361, 0.13948914700552176
0.0745712568938106, -0.14062001432713644, 0.017927004993141878, 0.12035495717890513, -0.052766322164538304, 0.033283049710145104, -0.09754160807347632, -0.08014047211230266, 0.12379562947493572, 0.019693100067372484, -0.015369762579821844, -0.12636419045626915, -0.04649515282212079, 0.013571942314604051, -0.10414938446363865, 0.10100754722486921, -0.07348742759016941, -0.1180867458393764, -0.09952293441708654, 0.17673454893578114, 0.1678039282186835, 0.15665199157051846, -0.18908937969820044, 0.07508974223201276, 0.009894720253564743
-0.15268093755596854, -0.0981028318827593, -0.11176994106097914, -0.03187339662489016, -0.034647013429398764, 0.1748366018884746, -0.17585705994376785, 0.07342696933344953, 0.1380009839955943, -0.05290033101127178, -0.0891927887024552, -0.08715186978778176, -0.07262003559288484, -0.13559750234463952, 0.023222992927682425, -0.12010020682477884, -0.21382269680404314, -0.11765941335989848, 0.10596810239586958, 0.01537687759633983, 0.1604828320009328, 0.14497054840448245, -0.10026578431077304, -0.00025441088413182455, 0.15211220654942384
0.029662551638573363, -0.13502522051848198, -0.12877359086575185, 0.20091700790829672, -0.10519420894033014, 0.14747516312349962, 0.11897831803296274, 0.08817492343953548, 0.08401384863302168, 0.12495478480751236, 0.15325801748767193, -0.1534198059236895, -0.133456242874028, 0.004129512082518811, -0.11197406490245251, -0.0078087041928798185, -0.029011730793755137, -0.16001478294081736, -0.1888449787291236, -0.1469482263259751, 0.13542406931181608, -0.19810486647997247, 0.19034252629963494, 0.1674428975824994, 0.09794861487712289
-0.021797683060874217, -0.08759050176909514, -0.07110676278223384, -0.05710582509707968, -0.06651443720902395, 0.09091112306439181, 0.1580321253865469, -0.14900482887123553, -0.10464354765594573, -0.10545621041180238, -0.17135019824021802, 0.16171655779520372, -5.267662276487485e-05, -0.1713496372405638, -0.018795275389299416, -0.03841017062336386, 0.08281129655168623, 0.09366470140689848, -0.17029825302922402, 0.09972471627610591, 0.009004267332512429, -0.22877508879909245, -0.135582365150869, 0.041152087457679655, -0.053486210156866776
0.18338435220499083, 0.004513331391165307, 0.03609039380899784, -0.14195817522554163, -0.032476141110120864, 0.09410243472646272, 0.13449488609609364, -0.13086221758491376, -0.03821322045320286, -0.003438831351571914, -0.01112655877330125, 0.006869350022615138, -0.08067664668177872, 0.12278948016004695, 0.16821088340695345, -0.07904859279142945, 0.02795867043734517, -0.057113186214113355, 0.007677713844817225, 0.13943512488397714, 0.008787705094125355, 0.03480089565008562, 0.11106036777591911, 0.11121829669131145, -0.12479705000076
-0.11579722231336527, 0.010628820550111905, -0.037678353634085136, 0.12806661893633603, -0.017589114138097713, 0.1605073302903945, 0.1121446235953528, -0.018405989278199652, 0.13850486672588555, -0.001189372258691918, -0.0511707776555788, -0.005606093341136382, -0.02490950065378742, 0.05916478173372054, -0.17676857490372044, 0.06987272582239247, 0.16591478585979508, -0.026282001598898232, -0.19539643336289864, -0.06206557899580436, -0.15057622229355316, -0.14019009553769562, 0.12041439867367121, -0.22122073691599003, 0.1491099064867517
0.17374098306397942, -0.12844708154234116, -0.1713826131990095, 0.19084668735682647, -0.08257976741295825, 0.12496943206212863, -0.19511946566198754, 0.17517319979094162, -0.18637525676973773, 0.03652082231795209, 0.18620126997205477, 0.15119844770957766, -0.08308763806348358, 0.12523558999948137, -0.03986347714561535, -0.020992500618616048, -0.07820071553883183, -0.06872536667434445, 0.010878315658817845, 0.17294231463291188, 0.08788652559200931, 0.06860447145149108, -0.18522582070641808, -0.008102066775251101, -0.05919063862373461
-0.11811833948041564, 0.1613251403445863, -0.16047594352730638, -0.12159388878708786, -0.1534413942384081, 0.06351583360584721, 0.04580393210008223, -0.0158610285659063, 0.04360562341706646, 0.1728592377007335, 0.15655891915593023, 0.18380046330422206, -0.18196428086683267, 0.15132585737379542, -0.18489639298757599, 0.03868941077742074, 0.154397589730466, -0.009213037630373925, -0.05482067371131281, -0.001936512113444972, 0.17601532490464875, 0.13434300570817134, 0.05668629479939395, 0.06153000233079062, -0.06464274606140309
-0.14625188221614063, 0.17848214288924732, 0.0210241762276534, -0.08586746303249052, 0.16580210884336535, 0.043989869091608735, -0.06655676464618529, 0.14261347796980367, -0.15957727102274774, 0.12420778851218714, -0.1243667123452957, -0.1367780496873565, -0.11243065689143966, 0.0787047181330271, 0.045785296063840436, -0.0509108287539146, -0.15739238071948117, 0.1601187847069222, 0.08395778673628697, 0.13119966777913974, 0.13697969262905316, 0.07650046299956163, -0.14640754387271018, 0.086924625457162, 0.13515721149140672
0.09756812019883687, -0.020659025382061953, 0.034933472767389964, -0.15509652252952416, 0.07997564751158828, -0.09464772859953081, 0.11523681216245511, 0.03814297559660066, 0.013585557230112805, 0.02052830129755648, -0.16011179677606596, -0.16074423402001026, -0.2173236684659657, 0.10290791525167217, -0.14238698638339242, -0.1672237474091436, -0.07172827594480001, 0.1798413578371639, 0.1314847321403522, -0.019028832527158014, 0.13933288455318135, -0.2003036215831014, -0.03634639915925728, 0.010867317748462729, 0.1941546108018982
-0.1817338438430533, -0.049692632657871265, 0.12668490609316166, -0.18327835407660356, 0.014824477970893452, -0.03964198365679294, 0.025372024281921323, 0.06730683176085592, -0.025509893656173524, 0.15217750807469083, 0.19335253980790415, 0.21593987632501746, -0.20039662497795993, 0.12325016648135437, 0.1533183420471228, -0.15614088445733237, 0.15028453437572162, -0.1605022788436021, -0.14113546962604417, 0.23962329139400262, 0.1442521975249461, -0.00875364780883811, -0.0759118175502607, -0.12224381160314199, -0.039110317881172744
-0.1974867034850523, 0.040366579699170235, -0.22133053900618052, 0.11534263263613362, -0.1977488442192873, -0.19537334994306357, -0.08506364916100916, 0.08699151803225803, 0.14461983082097887, -0.008770711454918473, 0.18704514920005058, -0.1290881159966687, -0.09156276963826093, 0.08904193010868601, -0.06928204160378625, -0.15449166931736508, 0.0038130643921823544, -0.18536766850369615, -0.0732417054167427, -0.0502521983597262, -0.053339747574095465, -0.047129348746551926, 0.02108511641249446, -0.18822226925970295, -0.07413872548757447
-0.047178565161676345, -0.054002308359604546, -0.04762128992078301, -0.023611755367361768, -0.1937654397109064, -0.11175638775914773, 0.05878423180338954, 0.11071292540844599, 0.017627038870595493, -0.16206856675038858, -0.16152205550727286, -0.11469908051830704, -0.07137183558591055, 0.01588234729666374, 0.06748653522960621, -0.005616107542019294, -0.0036812507505536588, -0.07063371246353656, 0.04078783797932432, 0.133350026577722, -0.02380591164816444, 0.08775402612013576, 0.10295384186173161, 0.13715795386537627, -0.013663952077177594
-0.06285289940883686, 0.09432769679282067, -0.22561965862831684, -0.040744745705925615, 0.1690103661203484, -0.06258477354828743, 0.0060996223033569046, -0.1253236412624378, -0.15343619266030584, -0.1713698790624741, -0.014180769890465742, 0.07034966028637098, -0.0012862635708235266, -0.002676393415063469, -0.15379292450573206, -0.1986717048613133, -0.08364321542129464, 0.1658031684498059, -0.1516899163136544, -0.05008068722477239, 0.006492981846247362, 0.1272497669602353, 0.18307834907249054, -0.22287324316369186, 0.0587974647819611
-0.10595556759362118, 0.04519298158417077, 0.05526704440944554, 0.16036575183970228, 0.049600408141582564, 0.1393545411910083, 0.11510607715241866, -0.16187109731505567, -0.16709219459435315, 0.07769105965178169, 0.019703382765330537, 0.22144637214368892, -0.15295715633763715, -0.05498973397308833, -0.08327168096354072, 0.1342247056675213, -0.03197424369862055, 0.15262496876032539, 0.05616680851452745, 0.22538271063635104, 0.0524402492466323, 0.1497304517201385, -0.13001987408672544, -0.04443487758829753, 0.031023628844298982
0.19108868287385827, 0.005518390091630681, 0.10403494324897705, 0.05664148854108531, -0.015757201773986648, -0.04298700255097816, -0.05160345853613013, -0.11140081205111127, -0.1007058012260184, 0.17095953472269712, 0.023786586674164938, 0.16769917771864737, 0.13717886974941831, 0.16599290534096497, -0.10270622469473448, -0.08156401490380817, 0.02699772350254767, -0.0842690253851897, -0.16651307802615473, 0.1329600852576073, 0.03224687624292162, -0.022528587501142536, 0.08349438540258447, -0.17641623157931877, 0.16841310466853868
-0.007660115772900102, 0.05204735096369596, -0.0030318901453547315, 0.04729899117065639, 0.06431891964046939, -0.1640008615387323, -0.0001891361041063314, -0.14418072955365013, -0.030917411340534894, -0.014847479705288632, -0.052530272957309665, -0.01701562986794042, 0.07285662414087243, -0.18967207990357612, 0.18432009105987232, 0.022487212828931857, -0.15887602026201536, 0.010161425807043134, -0.19496868269548345, 0.03776386971128376, 0.08733155806759646, -0.069498999664285, -0.08434563255085022, 0.04669750902029101, 0.17374958337081134
0.150025332188755, -0.07467110173081469, 0.10097591314984071, -0.1485540984613208, -0.19710010037376444, 0.19373565627031958, 0.1059945961349685, 0.01638374236496262, 0.03923055491420183, -0.09603579827660533, 0.16576908696520992, 0.15975637724989283, -0.02743548883000371, -0.1205682687434219, 0.07194429329884848, 0.06963664958417588, 0.17401101736529098, 0.1045753682952995, -0.18692737682231053, 0.2470795278211199, 0.15152190982153682, -0.003171518805326873, -0.07722062168442301, 0.07068935610529745, 0.03832602681321987
-0.16073244615120869, -0.010555766791851613, -0.23448704327784503, 0.12117498860645945, 0.10596348747510669, 0.09252206484047339, -0.16232073099136335, 0.0068716535951022775, -0.02495441236565204, -0.1739783627329584, 0.16230193997803902, 0.1964183352239088, 0.15027215848685582, 0.006528097237842613, 0.14711650453501085, -0.14162032959113996, -0.10429729948990653, 0.15012097363510313, 0.009845997077281893, -0.041716398506041016, -0.1367808889676343, -0.14828864169832093, -0.017589633623206466, -0.10064231813396937, 0.0935090029639394
-0.09095349043482974, -0.21152704612363094, 0.11678493420587972, 0.07154951420107522, 0.1653788769700627, -0.12674696010153713, 0.14900723199099575, -0.218315085581762, 0.0338294411441471, -0.04069014706737411, -0.14246006745933487, 0.14479121050657154, -0.10020170373883658, 0.14881919864979126, 0.08094066800814895, 0.11964946101470013, 0.12216727927984432, 0.10508351267825032, 0.07066593288386332, -0.1324104675037861, -0.12866560074736014, -0.1591489673508714, 0.01792231335601731, -0.22111736443523292, -0.1494385737338241
-0.005073697879741442, -0.23151461441049456, -0.11454439525444383, -0.10605777707906522, -0.15439301778465309, -0.07286114833254811, 0.15360618134734697, -0.13326018030801445, 0.0783470153284294, 0.0679339652502854, 0.0757132609621461, -0.10569875440259523, -0.07079810298378686, -0.10095608889529317, 0.01659574855501409, 0.16558045469282703, -0.13905806986024102, 0.00952465427784388, -0.19662428615072977, 0.015250079826132445, 0.1941468254054243, 0.11989743269807998, -0.17618032256997626, 0.11929882007691248, 0.08596709860617771
0.16819293060647017, -0.06629255820667157, -0.07098514039225524, 0.16412152262733684, -0.008177165973435343, 0.10487494117494417, -0.12812708943137616, -0.20019389929731665, -0.010998698004079712, -0.10391699597051077, 0.01035727487147345, -0.04411344538835945, 0.1406247979497205, 0.08206175820777943, -0.04532520911881893, -0.17152554867338138, 0.05732029246895653, 0.0034626264151940357, -0.16577660445922845, -0.1119434049499741, 0.06126103007543558, -0.036797924493491396, 0.015451720108009184, -0.05597091735291155, -0.012809192628870975
-0.04174779302657282, -0.20920819454416908, -0.0263694742233287, -0.1457806474821811, 0.05119757085475011, 0.10009215817770832, -0.13174593376810662, -0.1455470793560284, -0.08376019906024111, 0.0008156185760342758, -0.03551851858694042, 0.17327694131378815, 0.026760342494184203, -0.002617679896201541, -0.11143379927336063, -0.18444803739781118, 0.14342297054889483, -0.1707575363735001, -0.1671880435057524, -0.05474107121293312, 0.046250534165325145, 0.010578863397914324, -0.04310933370001463, -0.0655950791181423, 0.05610731299786149
-0.09345791765579611, 0.07257036884891385, 0.015077224893851365, 0.04706825631115047, -0.2068259996157536, -0.0613485402205402, 0.108361610886826, -0.14249287480514203, 0.08086881989702006, 0.15112844154610305, -0.022560354110934055, 0.025818990560339733, -0.10607823576481334, -0.21009163682129725, -0.10420284880539098, -0.034587016924870075, 0.01626825699938887, 0.12388099507089319, -0.10293662605644567, 0.004394011549338201, 0.10255404984651005, 0.019814634888094172, 0.07720396296844458, 0.1258875857870639, -0.1648470434741983
-0.14854754836687845, -0.04667661995503817, 0.0056803609020713896, 0.06755289570050606, -0.1348223980376736, -0.14500824334488138, 0.1695624873418932, -0.12487035549107703, -0.16358806399191103, -0.11825466347278889, 0.008918179729709435, 0.07172647293498265, 0.09959275294354065, -0.15580522293278704, 0.004434240916572463, -0.0955520525741022, 0.06708845174664826, -0.06451760024802858, 0.11594911088698696, -0.05439045931133438, 0.21204568455932973, -0.037642569121635994, -0.04281855655485095, 0.06475432470993514, -0.04873206171758839
-0.1843627461613042, -0.06989499639508538, -0.12539006568465505, 0.06951949807201535, -0.01657260605755324, 0.13243270768870685, -0.0035480475186238786, -0.1609001718988973, -0.10074827410382237, -0.004330509623084235, -0.09177472330221964, -0.09543858298606649, 0.18260166819140147, -0.15670316839881943, 0.1676369852964624, -0.00823237886561397, 0.15191831413407514, 0.1280472437276152, -0.08389285993975343, 0.057142690154686725, -0.1513593637439131, -0.09488821601458909, 0.1541302562766223, -0.18596319040871337, -0.1020205571764915
-0.18102672975422118, 0.09777936540484389, 0.03407961784401367, 0.040692578581629515, -0.03933004877557439, -0.09553470315967455, 0.035571595626298455, 0.05314430249230247, 0.17454938554489985, -0.17577078910715616, 0.05117661233397584, 0.09106218751596085, 0.03457711875737013, 0.07743855565245605, 0.008343466496384053, 0.1606542736169229, 0.03873214633578195, 0.045171536231322286, -0.19177395321185012, -0.06688275495428372, 0.054861929707287115, 0.06769821643619635, -0.15503288587908853, 0.027091652672713393, -0.1385499050804838
0.106948660633109, 0.07662867928719497, 0.009738204071153419, -0.16728127099708856, -0.11109494591294011, -0.0915643024588624, -0.011693242940256083, 0.08566527149313374, 0.09640041808350462, 0.15861926233675475, 0.08570371649203518, -0.1251519060264287, 0.1929963493059712, -0.18728154847591147, -0.06592565885593184, 0.03371016639917031, -0.06883841543309593, -0.19461475910851175, -0.07565079541911666, -0.03126410037573499, 0.12393084529846782, -0.005484664470756414, -0.1545470514306788, 0.1239880177707602, -0.11503830642149852
-0.07005909538271658, 0.10005773941402887, 0.06770531672488485, -0.025701293488452796, -0.011950973732575088, 0.19214487398967206, 0.08552316320126531, 0.06710194135584847, 0.12821573435007766, 0.15247513157111695, 0.16918578684944677, -0.061321053355545156, -0.011822413789889031, 0.04296229386170008, -0.1047086284850805, 0.03712853590559819, 0.12822766547399536, -0.08258771154034285, -0.04983151627499226, 0.05867663647010728, -0.03250616400057313, 0.01707376418988772, -0.18908020690920757, 0.08506936936163112, -0.08611039287153324
0.051005843828877934, -0.08208909448551066, 0.0073152053578539765, 0.033152543353403986, -0.015188667306790101, -0.13546591288275905, -0.19577636839505683, -0.1792403169767172, 0.020790385561722108, -0.1361661196373509, -0.008679283973712947, 0.007508373901092305, 0.0225336893614603, -0.16079475303208382, -1.2045300461040592e-05, 0.1582586205195826, -0.16891580972770662, -0.20146738517782908, -0.06973335663240496, 0.158415394318005, 0.15813135832388406, -0.19694625285468903, -0.19604985082390622, -0.10001530408194222, 0.04858104000754539
0.17065823763070787, -0.11975439244269175, 0.07315406829967191, -0.1430301523878721, 0.03330325235900925, -0.09950767401281674, 0.10574483603705111, 0.14737791880494694, 0.04067508010428486, 0.030218484777895765, -0.06150787731167153, 0.16032696339369126, -0.009276065544575045, 0.022088316995341483, 0.19564452223535012, 0.0028737469652986443, -0.06099188246366738, -0.17149332330318823, 0.1649657156362672, 0.078882227901676, 0.09556219884556405, 0.024846998922490898, -0.11868714697723846, 0.02942621238449501, -0.16159073680481728
-0.17492225088381042, 0.08414052579208188, 0.0031858862905346967, -0.07411528126299936, -0.015069966472837065, 0.023477345517405393, 0.07256353650827534, -0.2169292054436154, -0.06766895852260478, -0.20142597521367683, 0.09800692418585308, 0.0030792334231399794, -0.09181685246721571, -0.06287965212513905, 0.06887845460620487, -0.03390571004298818, -0.02356699790391969, 0.16434080955955097, -0.05701394349084749, -0.08694594467627065, -0.14245028739062057, 0.057199331747561935, -0.08503291994536895, -0.17869977206013754, 0.1110430956783782
0.157650065650039, -0.20581462353089003, 0.008004283507710772, 0.10094961449195135, -0.13351545426562714, 0.135042992313752, 0.07491400503393024, -0.03250422521837361, -0.06142929744956788, -0.1374524644762851, 0.12830312178637304, -0.10931499227265326, 0.10999152136435235, 0.01784855532549747, 0.024961968352464562, -0.2117186786343088, -0.17397549307701188, -0.08684381785169792, 0.03283041606137982, 0.014017705688146155, -0.08069798506514754, -0.08198505237660023, -0.022601227129914074, 0.01138537431243589, 0.023731343745473237
-0.0501579490688306, -0.07749273229272108, 0.08462835224847369, 0.041072920859734, 0.15791254075022348, 0.041389573084174784, -0.08511453714035366, -0.0058030994692107865, 0.05638175721374798, 0.1043000075952754, 0.090379874188231, 0.17542944056226883, 0.1192499517858237, -0.1102133280339465, -0.0898761760498248, -0.1509742471039974, 0.1316150902378426, 0.15000978630108533, -0.09031347215323526, -0.11946052006135106, 0.004671662931520041, 0.07994632233447563, 0.07092200458995485, 0.043871664189035264, -0.1916953135154959
-0.15670275320091245, 0.047353032339596215, 0.09041726101289385, -0.12151959814351404, 0.09738820706729606, 0.1811403770565184, 0.042274435260599645, 0.0108552317992583, -0.11622033542220021, -0.07354089945015739, -0.018532043709582502, 0.20495917845673928, 0.0074388085850896676, -0.2066959450590852, 0.0278723852627069, -0.18990478054896634, 0.17122984648449754, 0.05273415659321118, 0.06681131434714188, 0.14111026502425955, 0.18978392747091424, -0.07341067220737399, -0.09957596692056, -0.1969380211318855, -0.19094726395084402
-0.006955706333352479, 0.0514449268242334, 0.0601181799374589, -0.1929495615755889, 0.01458255631726328, 0.13346358094051752, 0.14868626940828908, 0.09711939220202014, 0.03827300864063483, 0.04186459195375149, 0.0762544858433017, -0.15102857291983676, -0.15357592152783744, -0.0685841559149484, 0.05810241800808221, -0.06360897746054006, 0.028970758433534347, 0.09413984551919373, 0.08811470340128208, -0.01850982174448403, 0.2021927998269584, -0.014253738919841708, 0.031083229136051715, 0.02730778240462437, 0.06937864010853187
-0.1354661754050456, 0.024349734633041742, -0.06391085434552526, 0.1934890437684816, 0.055890520404064406, 0.19024169359022366, 0.19837757819715932, 0.12441095948775466, 0.10348499900023593, 0.002858218071397293, -0.019269349474048025, -0.029166514580012074, -0.0023171629474340832, 0.1556282257019896, 0.05872887514207813, -0.14847937709967943, -0.21151330191159234, -0.035245725611794565, -0.04578428193325962, -0.10877649374501716, -0.09513609689673849, -0.10522876681250873, -0.061904529362180785, 0.024180716877447946, -0.13756416543381947
0.13124613833212156, -0.045579112395609654, -0.20857994016307263, -0.15419278578007226, 0.14699644529583142, -0.18670878104798758, 0.06193148605822155, -0.13397876832389552, 0.13582674960086302, 0.16749646623103354, 0.16160056640898443, -0.002273794187328339, 0.000854206514055884, -0.09056006141322882, -0.023013516572658127, 0.16808510737926302, -0.21445786221405416, -0.01979803759755211, 0.13877078065199885, -0.0934056429065408, -0.1405225026578536, 0.08475045790353537, -0.0990156540705112, 0.09473768335223527, -0.07918661400773017
-0.18524455210182894, 0.08238479611900099, -0.10107605856892528, -0.009885314827156336, -0.2059420777985463, 0.060737592122925406, 0.13372104782390887, -0.12150590309997053, 0.2451848408974155, 0.02802954252289091, 0.016277501109624535, -0.09588303052042446, 0.17822359478370398, -0.03748981424083733, -0.18196804838546754, 0.15330958148707402, -0.08044514503055654, -0.09424302284901669, -0.19848602012161026, -0.11947011507313642, -0.17095585264325586, 0.10580996737083286, 0.14459904618408656, -0.034737894085401844, -0.16735686968212923
-0.1421962547058467, 0.1354118563013743, -0.009099440969045514, 0.12274716506506637, -0.1979277290789387, -0.17350449328160628, 0.11313607467384047, -0.15962651636523167, 0.1987967980311529, 0.15152453277733602, -0.03201796884212186, -0.1361266951870884, 0.11799522129312626, -0.031639475011040565, 0.002293302425997812, 0.1392356444649693, -0.01587576363151221, -0.1567405047209622, -0.06950470171969378, 0.20158147340456695, 0.01667006715460738, -0.20715630436289945, -0.0018515309041555509, -0.20953812958298207, 0.1518903102348626
-0.09842987834364755, 0.047043022786495234, 0.1637738359120479, 0.16388737662952546, -0.01848928288919831, -0.06981565552561397, 0.08173286639045621, 0.013735466355958974, 0.2280740182087931, -0.12704548507972446, 0.07198375220573575, -0.12113627598667867, -0.003813485695830844, 0.10268229967622208, -0.052694564678526616, -0.10305064280759536, -0.08655796021875338, -0.06195991837139422, -0.21707147358302933, -0.06988093683058944, 0.10701563688326572, 0.03596060957073426, 0.059341540467018276, -0.16957332847647316, -0.1534626977197425
-0.0018665245406815957, -0.053853132962552376, -0.18457978724168222, 0.1916570476230337, 0.0979090460022247, 0.14944949636700627, -0.12901775308021476, 0.06001886340855572, 0.19577284115317176, -0.09041990330131862, 0.18837007585012505, -0.14499541964215693, 0.15060774025855952, -0.15447035515653318, -0.09843733629361318, -0.1410502110322057, -0.1835578388564906, 0.05916556880733601, -0.1220825601454772, 0.18181824106856426, 0.11978110315360882, 0.13765593337042928, 0.11361059566436955, 0.1706560994062321, 0.023185384596399593
-0.18550423246467485, -0.11673242585855799, -0.07718208202371614, 0.19094173684886093, -0.05982175153965563, -0.09144073024255625, 0.1222999621101451, 0.1640361651536047, -0.11256009816850376, 0.1700721222686592, 0.085882169402969, 0.21262884880173696, 0.08885381887301672, -0.20706487041434385, 0.07230161934670899, -0.12613015022120644, 0.1669424413674766, 0.1627131636298399, 0.12278476965721921, 0.1514462569880133, -0.08649481137038721, 0.1282883707394778, 0.13120748437224844, 0.02749532846738082, -0.13136629823624693
-0.11950842366169279, -0.018052374394022744, 0.003860590441135531, -0.032550427736593474, 0.10055259946101093, 0.07193111419639707, -0.09485763201803125, -0.1883864844047394, 0.11073728784322677, -0.09112970112793543, 0.15762407738015508, -0.0915873536170913, 0.04765210152875414, -0.12985631809632603, 0.18768119663942498, 0.03958418220878569, 0.07437678027279328, 0.1453218652132324, -0.038995225210047765, 0.08362911767919302, -0.005283649438010199, 0.0017503511859289793, -0.057853480514677695, 0.1010114219747469, -0.053611791742473096
0.10974904420227073, -0.24152658916416755, -0.08636371122746818, -0.0036002678936412767, 0.13528964759005113, 0.08947111590275109, 0.09585242224320029, 0.05202271718906188, 0.2255220012632203, 0.06776505755407099, 0.055971204429830924, 0.18255977745206467, 0.1283298173693125, -0.20292960313169117, 0.14856612799551705, -0.1430772241373133, 0.06699015746834536, -0.044963562495933515, -0.06485263540042337, -0.07016908672949815, -0.01700314722714812, 0.15539785138855153, 0.13305017327516808, 0.06315797143307177, 0.057478132961238645
-0.1129645540795295, -0.222232823338878, 0.14785969955339034, 0.16846647342134524, -0.22480287238662736, 0.16500285967949072, 0.10167657443963449, -0.15878155099956257, -0.07721239666782724, -0.16167793550822032, -0.09192842968530017, 0.1768532417605272, -6.919981210899112e-05, 0.006715528269448959, -0.029575933760611895, -0.03339510030562725, -0.1314160592263272, -0.0849760814001574, -0.12119501586827248, -0.02538859341546517, 0.05319199200187084, -0.23524718899000696, 0.1753365458330596, -0.02522536598393042, 0.0011294737265832263
-0.030053368125760906, 0.042828206565491765, 0.08274184149421988, 0.09412847321818182, 0.160205816563627, -0.03380841155604306, -0.1634711670062275, 0.12038212307860309, 0.14566898264282668, -0.2171978312438271, 0.001710232387620025, 0.1365237938340931, 0.20630513428552194, -0.07001691794798016, -0.010424892474128184, -0.04149085495253073, 0.06302592243309708, 0.07072197525992113, -0.033183672102753414, -0.06675615463671596, 0.044874631484993634, -0.23088543980260998, -0.05878700622854324, -0.1076918434558651, -0.1730255951495781
-0.16099132955729012, 0.06870419877444428, -0.03969443478214155, -0.14403302127356393, 0.14816959670985122, -0.07325991811984976, -0.022042764478366103, 0.07980954201981212, -0.07737845098238323, 0.09421349379832648, 0.14624087936226854, 0.004452290645214231, 0.10215837317055512, 0.07970652594060829, 0.1980163852248264, 0.09036433515687771, -0.08960334947043001, -0.00536487171005267, -0.06562228756739648, 0.07383974999552016, 0.16364762664711968, -0.19617213640110678, 0.15716820940659298, -0.020561601373467863, -0.14151367979905022
0.17215144918772707, -0.1706044019323324, -0.21420499785060032, -0.006550955375186367, 0.004333438607788422, -0.1791665407805891, 0.05297385811090852, 0.026516745181219475, 0.08748167836303763, -0.1868256883765058, -0.04338366518628079, -0.13448048516784003, 0.00376186323024296, -0.05831780795311082, -0.06711489917191321, 0.13133725835891277, 0.012236237755155503, -0.16739606157294487, 0.03963040495679207, 0.25093280078249186, -0.0530050391454439, 0.06970864758729368, 0.06036992012184663, -0.032325223588345865, -0.037886342893121906
-0.11735453320729106, -0.08381411018878722, -0.11711667572768389, 0.00019244197959413545, 0.040948943902710006, 0.15541660410317695, -0.14026510802461833, 0.13031044606571549, 0.16188137610195505, 0.02642528495817984, -0.10373024148450254, -0.1577162040281661, -0.14048386142271602, -0.0785625551634692, -0.082460268671931, 0.10347071358513937, -0.09697928873234765, -0.14677913237551093, 0.1669701144128388, 0.13877619121486026, 0.11890381490013603, -0.040728558671741306, -0.16511699376937772, 0.010962318855532891, -0.021862205875756578
-0.07698031954328766, -0.2168659177243245, -0.09556077564199475, -0.08651744589829069, -0.08713248475628697, 0.08582758522667444, -0.15222483158309588, -0.04351732342862823, 0.15526971946120663, -0.09689779116615059, 0.16696956934976678, 0.1553628898549993, -0.11555279289094847, 0.05405809381245746, 0.05690878777365048, -0.1541835370348738, -0.011936844622133095, -0.0205914876096626, -0.12762194927696183, 0.1351824140648348, 0.15260593526331698, 0.12299125688185007, -0.16242219730308977, -0.06171254499146153, -0.16409705438267685
-0.019332725009236662, 0.013342503656763581, 0.058381594294017625, -0.17283448118885958, -0.18370574106281126, 0.05338451650923857, 0.13540715325513014, 0.052355597063781914, -0.10984322134516632, -0.19221781305102265, 0.058851662781604766, -0.10871479393144884, 0.10651439438152376, -0.08245452369786868, 0.13210502394081378, 0.13937546249890487, -0.02542449501432557, 0.07060089888995134, 0.08134692365515982, 0.10286534367650516, 0.05166619777912469, -0.07230410605965952, 0.15560262294165303, -0.1400750743245343, -0.13509613248159993
0.08481106162724647, -0.1667131038851998, -0.021880098677698176, 0.16460411605988076, -0.08407422905052658, 0.09482485023644298, 0.1489398134113746, 0.07224199332681999, -0.11164412105757102, -0.012348513589903362, 0.14537256783440836, 0.2008392089930075, -0.014397866459369961, -0.1782728838976292, -0.05831409075595754, -0.022316376199562008, 0.13694414960472598, -0.18273963183625816, 0.1432737687369081, 0.023427726241851927, -0.16679949775363878, 0.06439483019431783, -0.15083602889661718, -0.15970719736411496, -0.10509059074810236
0.013962632305607393, 0.009469037457239555, 0.11503379859193319, 0.039889750992060546, 0.028998811788864563, -0.006808588514163764, 0.0032834619625431534, 0.07394760705264447, -0.043497072591803, -0.09355046645078482, 0.07535111307785697, 0.050641550774009184, -0.12834068228372514, -0.11867405900589298, 0.021339295446172832, 0.11091921043708042, -0.11485310812779902, -0.13809407292189857, -0.20459670393588558, 0.06280854014521811, 0.00048168183419788533, 0.011897301421306967, 0.025014330393964605, 0.04596110112432627, 0.1482271032680997
-0.07815820618401961, 0.06620493867974835, -0.13725150385430382, -0.06377351510558746, -0.02763210127226743, 0.008392968336509574, 0.09640804731082646, -0.18336948216017734, 0.14395370143267905, 0.11850890802904299, -0.1738051987745382, 0.02953220175698337, -0.18678763263268172, -0.14091865471552617, 0.15001579128669482, -0.19951410788745627, 0.12857024102447592, 0.06015368543724792, 0.08322845112869662, 0.13195223756667582, 0.09234411719187492, 0.061240183351736935, 0.1667006414644022, -0.07666605606558366, -0.04674309077409328
0.05420811454428038, -0.038845733203496595, 0.04286949500388052, -0.04807251598583021, -0.05925265027517701, -0.042812667351919215, -0.18254543163708795, 0.09850940453986927, 0.07479132215660243, 0.15436978206820007, 0.12174095893813681, -0.028143406195794717, 0.11510090014244968, -0.16881603077958282, 0.05550965352700686, 0.14964496558207002, 0.12468794216201955, -0.0800507149898035, -0.11188651367110738, -0.032805066724440175, 0.14395618266455534, -0.09312428732675321, -0.026150578196250156, -0.08746423794952303, -0.0933786814734944
0.14284091613826178, -0.07595691721993557, -0.0139448064448986, -0.03487760271061018, -0.09251817949893956, -0.03804988019378262, 0.1595143030449389, -0.08709373832612485, 0.1273782437286266, -0.11451751740773346, 0.18696991713357142, -0.008949961386867112, -0.08825936469870115, -0.020381471090270317, 0.09701417829455143, 0.11928760593660821, 0.08963342668454756, -0.15329205089071754, 0.16466346635056173, 0.018039585658922073, 0.1702286725536052, -0.15584301630243583, 0.19250282189844337, -0.14451894156778744, 0.14788539002661796
-0.09682595639594883, 0.08393545807652715, -0.15853293818166042, 0.14614545292108774, 0.04028844355916431, -0.15087080620824056, 0.17613415334952212, -0.029364486535154874, -0.07717389873674069, 0.13721854160976887, -0.15581454460661254, -0.18173779732762388, 0.09711975275211156, -0.1565962806400369, 0.09973194212758453, -0.1856294684301334, 0.13819956343659473, -0.1489849540116854, 0.0038899217876348898, 0.06138481474557563, -0.06218812742321911, -0.18178035738693826, 0.010649777925111806, -0.08823652999241405, 0.15652197296522471
-0.12371468331419143, -0.15920559105294213, 0.013951832651270167, -0.017398393179461506, -0.1086366435754105, -0.14348431275449544, 0.13763278488080022, -0.17265595182212445, 0.21391235893015112, 0.18506784730160564, -0.12701582744861223, 0.17533132825350406, -0.09582100936721429, 0.1273427159811055, -0.06956006722166617, -0.04459807036031181, 0.04939200576075124, 0.014853365761940728, 0.07897816902632802, -0.05615115403787583, -0.1832148947009305, -0.08309161036288494, 0.16538753166950054, 0.09946244054620451, 0.17060823387314902
0.030492579568797737, -0.12118325169308634, -0.03516245326575047, 0.0017519204644626707, -0.12552332859192475, 0.14895284245744458, -0.17502432769528903, -0.07834326311042264, 0.24232456119141144, 0.03596603279009102, 0.1987451956411947, -0.1925921607480106, 0.12104518084858504, 0.05878141184561244, 0.14317759800418461, 0.07200986033037406, 0.1719034778897888, -0.06853909144112606, 0.07631349293944259, 0.11859325042248732, 0.0692198894655853, 0.09619550908549138, 0.13987609093763015, -0.11260424425937623, -0.08656425220395995
-0.04352555766278397, -0.24989215705384363, 0.1374656034526722, 0.1280900060866118, -0.17195476943124186, 0.12787882440602324, -0.06645055877831978, 0.026903857715997414, 0.04211167050803357, -0.011529192239611038, 0.06570838671376962, 0.1637996848589746, -0.028226074731317986, -0.18388074098072596, 0.14141207399571046, 0.1604798943344922, 0.09206813890984374, -0.13924228509663322, -0.05296691342237051, 0.08287456146452313, 0.13657272893475583, 0.13359500751901424, 0.18169996820770798, 0.036556107248333664, -0.14439353013158368
-0.03693288646718358, 0.12285556137210066, -0.17155218873557365, 0.1765765024059209, -0.07895556245709974, 0.036796993110819035, 0.1269362362499567, -0.1799813774388584, -0.10809622972354055, -0.0038155293075054575, 0.17782745831130276, 0.19032598026030892, 0.053950382385917824, -0.11821993476443758, 0.11811801086851932, -0.06934324241788403, -0.1267508574543872, 0.03408828853472009, -0.04526147641290957, -0.008672090898113695, 0.18011845191355005, -0.19962491002216892, 0.16574283773308515, -0.04873135881858037, 0.1384343682609243
0.1457657381741687, 0.04915800124791027, -0.033554499381582344, 0.011634129717428589, 0.017185724677364685, -0.04145886853508486, 0.08703485802499271, 0.12281627819760375, -0.01999075098392984, 0.17307209114968186, 0.03573254508686717, -0.08080047247656093, -0.12379714615132081, 0.09689946565039853, -0.08695507568518485, 0.10571458304332483, 0.1445652233221337, -0.059176652320954634, -0.0718131216866847, -0.10555161302441937, -0.10528374424938829, 0.1800960427958547, 0.14319012501926154, 0.12395934718496636, -0.18874381907787452
0.17584320862853678, 0.08694654590838939, 0.1095037531144546, 0.17266353447003613, -0.058123449871652556, -0.16887095464891572, 0.029157727585053028, -0.003446548048571291, -0.06890856798530816, 0.08444462146264262, 0.20520655488919726, 0.08466133050906728, 0.12169115964223033, 0.11652427351747509, 0.12506803523136398, -0.15254062837703672, 0.0033228396412264298, 0.04459599834151331, 0.13021551745229093, -0.05567094277509765, -0.10325769300311732, -0.00516909777631402, 0.002073057716671492, -0.21724384689928422, -0.18033234940007414
-0.13007200563364826, -0.04559272704649313, 0.04283086504579933, 0.00949065529772034, 0.008154512231537576, 0.19712228451639152, -0.16340568001126268, -0.06542351066864961, 0.05802764698442102, 0.09416434550012608, 0.16773340505010187, 0.04771124398202693, 0.07663970654885938, 0.16412351971641953, 0.11739068349816902, 0.018196106814664218, -0.22834931211340695, -0.03436639220602717, -0.19213340462647144, 0.1581681435949471, 0.12274764350054707, -0.08373197788054725, -0.16299484431174363, 0.0036062910408149935, -0.05900993676513898
0.08446406643489471, 0.09184100405251125, 0.018737467751680253, 0.12759411099110365, -0.22015629212872811, -0.10612593983397088, -0.026143337847293956, -0.03254488722750384, 0.16723594392063804, -0.1574385251019272, 0.04216660446899439, 0.012653259385898792, 0.061137165671218574, -0.1889552062699716, -0.18158144665614717, -0.17844755441211943, -0.07846455379880934, 0.04139701709781565, 0.07393066259678287, 0.031117084759094683, -0.16592390525844733, 0.12345608883364458, -0.05207227127469253, 0.10414758339181138, -0.13137133215454502
-0.05268458383601355, 0.026120881948335537, 0.03548784731850507, 0.007321020571184523, 0.1450493546500079, 0.12516875561243526, 0.03989449556350108, 0.0485247370156399, 0.007250367933787633, -0.026394495305335275, 0.06544054133491552, 0.13351051763411811, -0.11424732104567012, -0.014182002451520636, -0.12589482012359768, -0.13638399820042452, -0.22267551610416006, -0.14716296436102058, 0.08867288546148741, -0.09610657722481525, -0.08674418805368363, -0.16484194579619013, 0.02224859004055998, -0.05586827579008446, -0.17776199714087496
-0.05217458894668013, 0.08639754667318003, 0.08611019335124773, 0.18940962295500088, 0.11902591706366626, -0.0004743539137617399, 0.11822845514618832, 0.08976525849511004, 0.00942156657900291, -0.08728260771934095, 0.04211050473867907, -0.022307494697010537, 0.06319288270483461, 0.12760676579261931, 0.16759142753632603, 0.04172525192827154, -0.03205697704073387, -0.10783125908591451, -0.05308382575388079, -0.13648258317438952, 0.08476042058226642, -0.006141349590716023, -0.1440410342953421, -0.15752238356552545, -0.1886263868686083
-0.1598012118300779, 0.006758580742679694, 0.04066012770614406, 0.009653285594204005, 0.09071242515189434, 0.019053687116235514, -0.0962893367542025, 0.08148324456524936, -0.010000428554618466, -0.23326562040854987, -0.09066772494227497, -0.02158525030454024, 0.05127599631439381, 0.11416257228211675, 0.14452003311868644, 0.09292215200144693, 0.06058772483458534, 0.04046462669742338, -0.13549598309777944, 0.04381142977278808, 0.0699313396075344, -0.11268067622980071, -0.057897763018468586, -0.10623365482264228, 0.1983604588096361
0.07385127087987339, -0.09669499437192913, -0.13807615358230083, -0.06598844889329979, -0.1260734131435349, 0.13268068096310145, -0.12340723678152259, -0.07454502233050395, 0.05704863016486187, -0.1453054810758517, -0.10848778444195405, 0.18439958823823885, 0.17211771080080965, -0.19077745358957876, 0.013767187651099222, -0.19722590545683014, -0.06304414943994567, -0.15164263486959917, 0.10799328915803491, -0.1298927131501764, -0.08670295164405536, -0.18360036541552804, 0.18721381953718857, -0.023429045118154013, -0.031036297122007638
0.0161588771100362, -0.1677146923784818, 0.10305579895186609, -0.08787281821130453, 0.1140109222375005, 0.09618540210357589, -0.08090572033203228, -0.028419448741093263, -0.03721414097807992, 0.1312811816519251, 0.16149433591819284, 0.01421875746992447, 0.08979124763524948, -0.17189165169932444, 0.12102182301850964, -0.06925030314878597, -0.1308175471252288, -0.0630197322767965, 0.143183273786163, -0.16383834284519658, 0.18766203146842383, -0.030253276550778325, 0.05223486650190761, -0.02188411017232412, -0.17477958272811706
0.10090148360035188, -0.07809100952438751, -0.021766030328451227, 0.12571904250304725, -0.09859956184279657, -0.14304604082830663, -0.18039785667218253, 0.046532875644161774, -0.13686971191716243, -0.012461336142109519, -0.15005617203679636, -0.15638811150376924, -0.03039253068915213, -0.0862588976364016, -0.1567462078747116, 0.16318572670140907, 0.13715641428679748, 0.19045652016282066, 0.18178466056936385, 0.17034270235790763, 0.02233714889129702, -0.054329210526855916, 0.09471561016011681, -0.016292717325556025, -0.10893871585228458
0.10473881239542954, -0.1689117815674604, 0.0436226066367731, 0.17620182346630753, -0.009977290774542735, -0.14133476107403417, -0.05581184089687019, -0.026709790160837864, 0.00999464858446671, -0.17910155084190035, 0.06026884511765251, 0.15461159988043374, 0.19951907934941115, -0.12991155114901187, 0.0636023490381643, -0.2052673808435368, -0.18451796908486204, 0.010426192927206649, 0.03119124347862562, -0.0750644953097973, 0.08696027082545635, 0.14343721663593603, 0.19187150971587674, -0.18374158403912924, 0.07336879472917363
0.0038544996399260986, 0.04558878883215944, 0.15294968925041064, -0.08885249528908604, 0.12825172415825326, -0.16327592189515208, -0.18240250755926896, 0.14301118101710392, -0.061883028332615726, 0.043704018213065646, -0.09440757961842124, 0.03801368390561291, -0.038822287541489475, 0.080837886556307, 0.09804674522210133, 0.14655751485063087, 0.08134787174109559, -0.013052495183281155, -0.15775147751598542, 0.1025322846902686, -0.03037424877625779, 0.06685339134421346, 0.19877087164429344, -0.08957706120377504, -0.02266035118852797
-0.06760876548598146, -0.10334770313079433, -0.12175058920226589, -0.06344916857874336, -0.07919710541365677, -0.05622218893120963, 0.179903778828626, -0.07509621678568709, -0.16422133481551482, 0.15340849130475284, 0.04786808321997219, -0.07821901968051624, 0.13947445328341726, -0.20669411256574072, 0.1426452565077109, -0.16648225129271077, -0.23560131676371787, -0.13469389038100227, 0.1252674824227362, -0.1433277456166983, 0.16073488161792532, -0.09383149007604036, -0.11447866949281654, 0.03885462219897755, -0.10323926555594012
0.020656245032434576, 0.07452792829237055, 0.04773240813460479, -0.07725889420263132, 0.028977224467150047, 0.05200893977941241, -0.19072101717831585, -0.040414370260606174, 0.0813908592265079, -0.07728206921179318, -0.11805200321404796, 0.16738515879847352, -0.17566513881321008, 0.12984782441931134, -0.13291172251128086, 0.18406494020535066, 0.1212264245597815, -0.15669719321737133, 0.09947903521123547, 0.10660984588140575, 0.14443767445777264, -0.015703814783111763, -0.06949354016798802, 0.09581735472537299, 0.09431680043102818
0.009317429816615708, 0.16583115688245653, 0.08617099323629575, -0.005464980996092784, 0.14599540484890808, 0.0029119519903175613, 0.13770881137844054, -0.2054235428345971, -0.11555713604301802, -0.1517685610330408, -0.09160824237097691, -0.1404753011614787, -0.15394388847756882, 0.0031701696871550694, 0.03636443797043738, 0.07897676183263139, 0.00039225205752418924, -0.012136272343933196, -0.028156781451180408, -0.14948735762970183, 0.04942414810208837, 0.04229131840386318, 0.05698289747635361, 0.16326629201060322, 0.0809323835115562
-0.1213624814452919, 0.016891044996162258, 0.0008307060721409552, 0.06450947305610269, 0.01736809367505412, 0.10345246812478702, -0.016174243474333355, 0.003840904310781524, 0.2064722621118578, -0.12249909884363032, 0.08242509499309299, 0.09562621994377464, 0.15589947422993394, 0.006170901088739206, 0.19034951879250495, 0.17288136534592774, -0.03953696576353886, -0.013193492909153644, -0.16623912229763002, 0.08080130578085323, -0.06433718620101282, 0.06336959608804166, 0.10293387005393227, 0.1254369335696321, 0.09692960828409819
0.11789632174242143, 0.10646320327964463, 0.17769231397724894, -0.0729531455983393, 0.013478210018224078, 0.023472441807033742, 0.029093796423137502, 0.04498257573366185, 0.20812178453165725, -0.2239773805726407, -0.059285064287840444, -0.013935791100443577, 0.0356847598317748, 0.13777385099685793, 0.0005699863869910629, -0.11834008903777524, 0.10125466123111271, 0.01044589586255104, 0.10108594964773532, -0.0481822145160804, 0.19395536341340905, -0.0527678405192095, -0.004552695103001693, -0.02874466926367634, -0.0679864223893303
0.0975354657434144, 7.597107439078511e-05, 0.022635013821535092, 0.03505022631175335, -0.10009612801961966, -0.06278544583101582, -0.162949117493642, -0.06524598401635523, -0.05618087833874814, -0.08508943381342503, 0.0665003281048597, 0.0718025065620761, 0.12844319717940691, -0.13668918827311324, -0.12581761307342249, 0.17190913716944775, -0.05915528726303988, -0.0038966668066999777, -0.1798610526205414, 0.12034302529850166, -0.11261170312447762, -0.1880356459135409, -0.0772375318865464, 0.1682160165671817, -0.06736986455798402
-0.18223261970252302, 0.04046064543525395, -0.15008197903129203, -0.09068855893719542, -0.026113369584381523, 0.016817667902948977, -0.07819405566165105, 0.1555345164148347, 0.1482022292337924, 0.03269108243785304, -0.15619420169127277, 0.1302855192284591, 0.15921228964528406, 0.09703862341567929, 0.13257416354653664, -0.1455181526158447, 0.11943791296739338, -0.07643595595311098, -0.1071955488316369, -0.15049822787200465, -0.12001301966441272, -0.07727704232880256, -0.08599916943578963, 0.1302277033125504, -0.18129755624995697
-0.02684675993246736, -0.07652549292565959, 0.12725736364491153, 0.12922094994312192, -0.08693491271307653, 0.07173954356898539, -0.01576576559743622, -0.11547085281641531, 0.12910714493464107, -0.023821963296268737, 0.09184397419625133, 0.09676223262392196, 0.04786102081278463, -0.11775485252572762, -0.14432675165207187, -0.2135343478364302, -0.07526898536222598, 0.06828314485988433, 0.1179504213035081, -0.037537274712461044, -0.15403621873505638, -0.017747388324191465, -0.04047304511120653, -0.08497687612181139, -0.1814735934310092
0.002444592727367172, -0.049934995700936374, 0.06598422034328172, 0.06566298649925681, -0.06091204607699828, -0.18249872394040853, 0.1892683928034586, -0.13265205940954178, 0.14951379176747084, 0.01739576499512699, -0.1727479601829826, 0.09197686470789984, 0.21518081262949879, -0.16344417558347002, 0.0875325205484202, 0.014095865158341953, -0.023296784552798704, -0.02392654781524916, -0.03768834554656075, -0.08039644245038587, -0.03505586530257756, 0.0618336256219424, 0.15698621709490562, 0.07738201512713384, 0.05013023743497885
-0.11396145352230662, -0.2211704453685531, 0.1250383501184969, 0.10092689109306024, 0.16610973081894403, -0.14520044029895707, 0.19011918837378977, -0.07450581518608627, 0.0764291924782606, -0.19647220412345215, 0.13219928684911725, 0.17334689717724813, 0.20536202159622552, -0.16239472374596226, -0.142913588955426, 0.003116859163154276, -0.078456103079944, -0.19031360542572515, -0.10918125015155512, 0.1611531708127561, 0.12896598600705952, -0.11228960685701658, 0.18744493031206902, -0.07222330978022622, 0.10747867810711122
-0.06884388895594748, 0.170850036916465, 0.05263061428732925, -0.05647491935287039, -0.1886048394568947, -0.12456674978672101, 0.17918378293031478, 0.029012276670185546, 0.16861910650329037, -0.1115901196427432, 0.026362041932013084, 0.042556966093779965, 0.20108430258108406, -0.021580336810627782, 0.17041888567937225, -0.08557300137680754, -0.009642991504082403, 0.05352571390313171, -0.18129470010684498, -0.0836318351703452, -0.07335828623905068, -0.10487419632025816, -0.10835913047551224, -0.04971742603663733, -0.16138539592454182
-0.14531282565964454, 0.11285380650520939, -0.14551756289010756, -0.026495812631201824, -0.18065667336847246, 0.11896628079473691, -0.09251579863320504, 0.06384847816211546, 0.1725466025153085, -0.024312525188015747, -0.10320679419974234, -0.1342031099545997, 0.00519247811992224, 0.014787886774650297, 0.06469468035533223, 0.024959527398541917, -0.14343281537852662, -0.1978348388306167, -0.16543517382907372, 0.02773203144434842, 0.2146608130225251, 0.018161193652886612, 0.212283454109309, 0.11929730982811267, 0.19795460198589074
-0.08944118766197673, 0.04864693201619776, -0.04596873604396978, 0.14301886767500863, 0.03347499983628, -0.03804454898895436, 0.17773818206989822, 0.13752322121283714, 0.04035168052271752, -0.0306004420498212, -0.022968947437188435, -0.030934662231378394, -0.0550898750289441, -0.1580367015204221, 0.13303319536259156, -0.15999047573963598, 0.006178173731084461, -0.1352782717788985, 0.12838407091400533, -0.05713452143184823, -0.12200769664644183, -0.20122949700121648, 0.1823520927542901, 0.09895279492599594, -0.07495225730612175
0.14007684986520189, -0.026502008241124028, -0.12668889076418932, 0.021627394592982904, -0.19754155495224274, 0.07863265001177386, -0.09108124577014244, -0.046718879599517656, 0.18665952677417624, 0.039291078287036624, 0.20049377922606926, -0.10147895159143167, -0.17552711036458912, 0.11513972467268709, 0.044419079703127404, -0.154735417823314, -0.1374315509837238, 0.17923854864828634, 0.010291584818344223, 0.07345301032756654, 0.1355959235359192, 0.15093460635524633, -0.024508967841177433, 0.11238461952692337, 0.14719019598475624
0.17673731360068753, -0.0366744707913188, 0.1443344356873055, 0.12365987639468207, -0.021848845712656082, 0.08745558638184289, -0.14575496653976103, 0.10456835866758987, -0.0022986969186881306, 0.12443059204002889, -0.04612944667744059, 0.12350204073141903, -0.06125161443267551, -0.026268373289174467, -0.03980819303586905, 0.1860357076494819, -0.14691349947081295, 0.13598267604867684, 0.10371098600856281, 0.23199778629641443, 0.10431076025972097, -0.006462247047247622, 0.19535890123553729, -0.19974588530069348, 0.1627124462928711
0.09124687614356962, -0.14724847772104582, -0.09590467129305363, 0.14070870198102287, -0.17074521149852714, -0.09144265604159495, -0.13958123320081667, -0.11187474748691104, -0.10888380306516787, -0.0758301356046584, 0.16526553357853463, 0.0491422131374556, -0.11388526902128067, -0.18067416064668118, 0.20033639322875343, -0.11102594858198538, -0.12893802025131196, -0.1296438871034578, -0.10692630703189453, 0.23128595680935865, -0.023442532889925583, -0.04387553621845237, -0.0483707005695058, 0.02510717879122868, 0.00940665829966511
-0.10055540519074131, -0.18566865897624607, 0.007113317418212832, 0.017938321258718623, -0.18872839324343252, -0.06286572991243114, -0.029967886776917058, -0.003525410852016716, -0.03700075745240074, 0.04505157236746945, 0.13362702201553933, -0.13993621723561198, -0.004895432962771755, 0.04591481941533976, 0.03891916301700004, 0.13762034064722758, 0.1024377280805725, 0.010853573289860285, 0.1351882626948823, 0.1752150703879426, -0.11072616378641167, -0.20251986524730328, -0.025540718679987643, -0.06426832134894439, -0.18916424106764568
0.11869739233554075, -0.024511584630286576, 0.17351528531419436, 0.1283982235126746, 0.11014723132066394, -0.03984912162779437, 0.1774975961660711, 0.08864718727995996, -0.12127180721186648, -0.006568969934952917, -0.09953247537528977, 0.0703746754372833, -0.013410151755610476, -0.20411258118071954, 0.162026996400803, 0.1559541478380642, 0.013341175145921648, -0.12654652839726913, -0.053574828421748995, 0.13146163746778575, -0.12292038189654739, -0.12193213568826983, -0.14540250896359336, 0.1611365659899744, 0.1014821823121455
-0.15037553136248324, -0.13781736201110278, 0.04540771747629332, 0.18530167597528524, -0.12328154140181613, 0.13974568802758747, -0.02587625838149456, 0.14719597745296648, -0.1573089060490221, -0.025587932590445644, -0.01670644647798982, 0.12811739346479897, 0.20423671989599756, -0.18014284668375768, 0.10342639646333761, -0.06649612164754043, 0.11321007746142264, 0.13470389525548518, 0.17769385015844893, 0.05754524870865095, 0.029206571567017666, -0.12120093974352135, -0.15858254896552557, 0.1515347064715275, -0.15718104405543837
-0.03226793256743232, -0.18889304830819026, -0.2032972506772762, -0.07321966608252, -0.1663453763427774, -0.08627404281085964, 0.19714579337808316, -0.10176227871739271, 0.15348040312016797, 0.08006619726205279, -0.16020239635855338, -0.030456299708190904, -0.12050641155302597, -0.08994266298716004, -0.14528474335852706, -0.15811825957444145, 0.03805619162553506, -0.19042066190410425, -0.027829778322999953, 0.07208452224657018, -0.002178246298547442, -0.10300905476145157, 0.07066132432152739, -0.16997415959494572, -0.13056743827317233
-0.08728768250610666, -0.048786596247519326, -0.13975789265158625, 0.05559717146813818, -0.10840806102114038, -0.008046622441199332, 0.12191870520889182, 0.07059682540085571, 0.08433513511528146, 0.1021980021251134, -0.02446747512467361, -0.010906928301681454, -0.02915966825995886, -0.16784608207538246, 0.040675879556478514, -0.016257732676492723, 0.0756705178889349, 0.03081947540924835, -0.08181120770075977, 0.19367819255270863, -0.06330316901817004, -0.08236557850071531, 0.16426329786830693, 0.18404053517421237, -0.1157293255621269
-0.1152457068353789, -0.0016029717808652216, -0.209658537618461, 0.1221845053461707, -0.04670080733130165, 0.09276120122960467, -0.19012461039190248, 0.12187429321726109, 0.061219875574237206, -0.2142931965097204, -0.16898813689043804, -0.020107939118711504, 0.05827874924538826, -0.03965953819503955, 0.05983663159653244, 0.14658786485525874, -0.09138263575230691, -0.044825149252611315, 0.09844171854979089, -0.13108150819738065, -0.04057909618925294, -0.17816407842670162, 0.08023877512193152, 0.06123836844377708, 0.0651837689815769
0.04296825731892907, 0.06656307093975032, -0.21518882115320556, 0.04823813325184045, 0.026514969863697828, 0.13383066441998737, 0.10142799563129025, -0.18381493975032928, 0.07749945334833509, -0.059342488336767536, -0.07666984163629254, -0.1401547105430867, -0.14673078204563525, -0.15400754198684224, -0.10176171068334386, -0.021517630880377444, 0.00034246982919802115, -0.11007782506565797, -0.13714297834711395, 0.06422670720147142, 0.017839752015968813, -0.17232373201299597, -0.08260956330316162, -0.04939582990218614, 0.17329948961222882
-0.021854335181675497, -0.13512931170705172, 0.12684372233719166, 0.19596997102321084, -0.16521536222800415, 0.1487226554340293, -0.004099911624065652, -0.10149859519235452, 0.16524552265464781, -0.006068212576155945, 0.031221293928267422, 0.09412316308019077, -0.03616306621286192, 0.06392586480072993, 0.09928259803717594, 0.10919002813561614, -0.21793681751648553, -0.091806913124182, 0.013260650274225376, 0.11950507541469761, 0.061093022178171745, 0.11908383929248532, -0.04149926613155779, 0.04976619163941733, 0.012804581516322269
0.13210167860091782, -0.11542940246576681, -0.007368886068628199, -0.10694388076729615, 0.1442175921455464, 0.1850812539902804, -0.0788510680355855, 0.14462566231033983, 0.015042985894499681, -0.10579854797319432, -0.037595191331547095, 0.11467013885582404, 0.1966312326160992, 0.11917107826802387, 0.1395330781758214, -0.09364385247351857, -0.16057363287856727, -0.11737246435213448, 0.15850110226957892, -0.08279633430382281, -0.09091066212221507, 0.1052344029354705, 0.16682019119552557, -0.1092960236226419, 0.008763066269486731
-0.05888942240900068, 0.1117853614617346, 0.012227557490846369, -0.010755512917520204, 0.04619860140181386, 0.1939083374863929, 0.055137283403783655, 0.1282289889507806, 0.16762732215338902, -0.11542862330990603, -0.034240457794601, -0.10408954302224263, 0.047846631514449685, 0.10193489893746283, -0.03140193868409091, -0.07961207409419754, -0.06667590192598728, 0.07321248807013715, -0.20375491841259744, 0.22280403477255672, 0.08676434092993625, 0.014741737273695038, -0.1776324877106674, -0.17476012169390034, -0.13993347273490098
0.04167844624596627, -0.009816654076979436, -0.16200896225924852, 0.1432632676065087, -0.0930751339415231, -0.14442369416021072, -0.08363698835191048, 0.10381443201247553, 0.0395528574752161, 0.029286155435665796, -0.0826572402204955, 0.06393325427868224, -0.09067066576624469, -0.20730546682454096, 0.0890654717619436, -0.035378621637670006, -0.11545358629775018, -0.004814834776589308, -0.06381342471846943, 0.17797295237987168, 0.20975560990520678, 0.04509630248713851, -0.1652894936507566, 0.05491486407447045, -0.19666159890140422
-0.04461018202410674, -0.19417559946005158, 0.11944831918333006, -0.18910246997667576, 0.04446019502690176, -0.015404095605508632, 0.0032704878125839293, -0.09451465396380686, -0.007105087493100342, -0.05168980616216537, -0.01106975202396807, 0.008665550551699699, 0.14307203253596884, 0.04161548530016954, 0.14689646280615645, -0.00663842747776923, -0.029747691366380988, 0.03547615102013862, 0.06596630199057292, 0.14611740427250106, 0.044845503360626954, -0.0543802627256353, -0.06774912972652229, 0.08730860715207245, -0.17657437096636847
0.17935174038244606, 0.16283808451972953, 0.1324375782983531, 0.1576214377726008, 0.15605329786803646, 0.040059013374631414, 0.13431794137739692, -0.12283332593764229, 0.025962199789752144, -0.22557905554203914, -0.05343905593275204, -0.008858172616957, -0.11817405835417438, 0.07775988718401931, -0.12729736798199143, -0.15014742612048115, 0.06242851512572017, 0.14876894623090847, 0.15400166482562636, 0.20113422153567154, -0.09939539500915183, 0.020569553948604755, 0.027494480800359395, -0.18889832149774155, -0.10844408245990067
0.024759527029712687, 0.11321748253292716, 0.0781183090185078, 0.12833246583092475, -0.043809283236137773, 0.181023738841839, 0.044391833715741354, -0.07934126329366158, -0.027374454999752246, -0.08431096850744513, -0.13991361271304464, 0.07482332394186259, 0.029947649753599807, 0.12029682232666947, -0.15915433051428904, -0.15507270230687514, -0.1018019813963191, -0.1287714134438984, -0.11716097324879975, -0.006790848627268776, -0.0353965791602193, -0.022750903921556275, 0.1080759526583378, -0.0027686889460830522, 0.15604339661042047
-0.1791982254237141, 0.030782271988323423, 0.03859695467628726, 0.17652038864425196, 0.0053281840033566, 0.0836898564368713, -0.016319921825785032, -0.16025888617791983, -0.12424102997202273, -0.0554803424611849, 0.06257414921095439, -0.030946171431046214, -0.11134165741560571, 0.14507789944429042, 0.184972356610903, -0.07877126761627412, -0.11852538775208263, -0.15917263615963864, 0.171481465641735, 0.07916586974019646, 0.04140642861610769, -0.10692233486970727, 0.1303282633599149, -0.1359502482914913, 0.0659614886704499
0.06341583828866222, 0.1437445116802192, 0.10635232208108021, -0.018143413427368974, 0.0638746436243085, 0.002159668410505446, -0.145693886766229, 0.03027863766837505, 0.11964618767317049, 0.1310781436716905, 0.036138029881299105, -0.07736353470413054, 0.017428506857858787, 0.07730808560186711, -0.0844523970732142, -0.16663846627406556, -0.1476981943481786, -0.09562499035048257, -0.13327810095647893, -0.033900356826241734, -0.16406381957411434, -0.05985980217858964, 0.08172031593061245, -0.20788343631682546, -0.13391047837672493
-0.16283449942231926, -0.06233161698797794, 0.1253273301511844, -0.08841646456562263, -0.06497654575435305, -0.05920890750515254, -0.13813686571941403, -0.14969225968826766, -0.08333977734456278, -0.21960403765562156, -0.028041687715354705, 0.1204428098439413, -0.07437147768843468, 0.1929045620811139, 0.0035910324736212534, 0.0837127829674496, 0.009189727488576547, 0.010492830612061159, 0.09414583543325361, 0.16622256609714497, -0.10390838752612354, -0.17143635712352706, -0.12382997568302524, -0.11828363907923282, -0.16908530547449807
-0.11120442148814373, -0.0713730098592101, 0.03044029270224293, -0.18484004149678127, 0.020601805520506243, 0.08324411703210785, 0.15660960547635963, 0.07866196851131932, 0.05623227136180499, -0.12422777229627163, -0.03221638182199849, 0.05731036719082616, 0.13620352376640216, -0.06535773677708615, 0.0686163550558633, -0.074208855407494, 0.02595094437111487, -0.19759439666122872, -0.17658726439378605, 0.1098830503071416, 0.1580210516247309, -0.1121632916750151, 0.09752752885698612, 0.09651831985181784, -0.17316486090399344
0.06440546964682385, -0.05408189376810398, -0.14306411739118627, -0.11410398442950469, 0.10346574725749262, 0.07026810958700992, -0.0378792179048987, 0.0037442944376257933, -0.10650758943273161, 0.15416907909357846, 0.024181650884153225, -0.15585887776856125, -0.021048139548952606, 0.14322592426168337, -0.06991130074726158, 0.0731995927443387, -0.1868657624159839, 0.09022346760798235, 0.025004139170570292, 0.04376994071080913, -0.10362734166015532, -0.04147110765913473, 0.12490906410226586, -0.19177404994296032, -0.10025993670700611
-0.08714849244641201, -0.10820069859129407, 0.04223747900799129, 0.17695920475368, 0.011325114377435252, 0.06195113317354355, -0.0028882862467398494, 0.0072562111711874005, 0.118717892039959, 0.029464850150223307, -0.03986755115604036, 0.00857675424841169, -0.15692532259289138, -0.08520016159995092, 0.10318178705103269, 0.17190146698903272, -0.03787079268789156, -0.039754747628680684, -0.1600247951004188, 0.13185801794034696, 0.17196658786417224, -0.20995670704491143, 0.0667664527077129, -0.13174058972486985, -0.14619891102306284
0.06243949228386565, -0.10743306888635715, -0.19206279668846044, 0.09670407745701698, 0.12667136707060822, 0.033248999866480514, 0.10678434122151581, 0.08868433251035095, 0.04478546441936847, -0.05704579482807311, 0.03461968401272094, -0.07249365000660644, -0.18491398338537693, 0.04944538998806307, 0.1625193415073934, -0.0791250254313658, -0.04702504775091576, 0.06358454313017088, -0.2060377345752808, -0.04299443464407203, 0.12250214026862066, 0.028646445400235192, -0.1716010828936148, -0.06569638173117132, 0.03842583320975501
-0.15671512714519867, 0.14975103420514344, -0.15541286185367642, 0.0475679465256302, -0.1947338217486621, -0.10007494085676895, -0.14201215875327808, 0.11172014623300099, 0.22029556375437906, 0.11792521833625408, -0.10165333154265577, 0.07103357362906731, 0.18572057177500395, 0.05314623176493671, -0.17349074883602764, -0.03815244963728901, -0.1014596333606193, 0.04130860221188111, -0.1927516418067619, 0.11965186571279197, -0.1674839716397082, -0.21272645230739448, -0.10197123167935428, 0.12753847784749792, 0.10674883047992528
-0.09782581378227606, -0.22455246289019762, -0.1198842858345787, 0.1783687610605678, -0.0011751476013803436, -0.16858081704436845, 0.08980686483984358, 0.06498379580343047, 0.16962621121474417, 0.15682133928515915, 0.15189228872684674, 0.08872098510830201, 0.17197640883300208, 0.040359176091366515, -0.11355379666469814, -0.012706851809019358, -0.10514833886806522, -0.1191669237502062, -0.1444325433881269, -0.11475237644300258, -0.07405663485427043, 0.11297995708121016, 0.010002246638351848, -0.0059583125007443664, -0.15603161740803603
