
迭代百次:1
Input weights:
[0.11344174381740807, 0.08810993414714595, -0.03208961924680963, -0.12795560322174687, -0.007666787926823725, -0.02085832435875851, 0.1619788089499078, -0.10643663746699769, -0.012776370097577452, 0.01155648794580352, 0.19218368113029108, 0.014464954143936799, -0.1514088758859513, 0.19489448530799675, 0.08466592554295534, -0.082764883631477, 0.15198219777992877, 0.2180913474995398, 0.11489544362756006, 0.14580097624985192, -0.09887426998923646, 0.09516015986685525, 0.14992268792399452, 0.09544310167540522, -0.08171561325612464]
[-0.17671966147240065, -0.04385419508362044, 0.040864650330027674, 0.13385705412336574, 0.17540143711207837, 0.007734476263849597, 0.18370964405047593, -0.11722262500803787, 0.11994062997289962, -0.004503535390383234, -0.16291006648260195, 0.09384986942913186, -0.10016557926186404, 0.21726533828716504, 0.10407834387308994, -0.19650674709497187, -0.01333935501570792, 0.17166188792257495, -0.11158861167364242, -0.08680156167051481, 0.1252306326075138, -0.12134684551401664, 0.027738534334043576, -0.07330709697903998, 0.11516065198019415]
[0.07389676933244597, -0.028439780675493607, -0.1700726485809655, -0.10571960905495857, -0.005905012453631401, 0.19409860644007618, -0.11946165669723276, 0.0017147819831081895, 0.0813759305775788, -0.0029331385118074086, 0.15470948280705862, 0.02056452031923903, 0.12263026379124357, 0.14273250096362813, 0.0738742524494206, -0.019525913542557994, 0.030462989871033425, -0.021257169387204386, 0.020780658227098646, -0.1009147709466779, -0.1529214117212523, -0.12370758902774102, 0.04013227346455888, 0.08983473964239476, -0.0843070139645399]
[-0.21686742932794964, 0.11229171630490686, 0.14890761508997435, 0.13876571952662586, 0.13050585050737226, 0.18065079261243616, 0.21414844362603278, -0.009865589251409203, -0.04411958069788317, 0.060438794105284604, -0.06372353371257221, 0.12836051478225796, 0.062273724920429686, 0.25640060071859905, 0.06991121675625458, 0.1966754913723471, 0.024276281544520616, 0.002318941690535799, 0.05464437749004804, 0.1812496261716077, 0.1358182710407469, 0.119444880613258, -0.1708475886595819, 0.07123742253522516, -0.07303992471124905]
[0.027651072700686914, 0.14032264681516926, -0.10733888924813831, 0.06044037116435752, -0.16219811006565013, -0.08885741509018229, 0.16027041863240324, -0.09224388573089821, 0.12643751112404963, -0.18221634652664576, -0.11169620712558964, 0.08562858617609187, -0.25804738569141206, 0.12276848369392819, 0.19715673596469965, 0.02335649946895144, 0.06544054664063673, -0.16681197915357737, 0.04500368511580142, 0.02444826290371928, 0.008357101873100204, -0.04212403220660322, -0.05801329553000748, 0.2132186054072797, -0.2531178382138499]
[-0.19791481800477584, 0.157236506283912, -0.1361056637978778, -0.18040117615566142, -0.12375581346206413, 0.14149849211123153, 0.20050907616424682, -0.22236570661073515, -0.029537732505544218, -0.18618340603946004, -0.06631489687092855, -0.10664763524891188, -0.017598736570256936, 0.026054333636198263, -0.09647542537298247, 0.013413170321551647, -0.18638347340863026, -0.13731856704905818, 0.18612511897952913, -0.13784137605849295, -0.07500390543063136, 0.09355570413999385, 0.13125812606171106, 0.18267526880225046, -0.1999298805783111]
[0.07403637535193627, 0.15156694477182328, -0.1835146664620526, 0.04768411987684155, 0.1357471950685215, -0.04466470691095085, -0.08842464628862907, 0.0064781043951297685, -0.022816608023147274, -0.1602827842934669, 0.013352430046878255, -0.03504981779711284, -0.048597504586003926, 0.07947197109971793, -0.045674916877475984, -0.04342551118008683, 0.1268474166889232, -0.07669882763091831, 0.016349229984014182, -0.21278312232787477, 0.07995059530695853, -0.06492813635523384, -0.1799250888326307, -0.06831819928679794, -0.15793953355006332]
[0.18640786782746768, -0.08932047411262202, -0.09593395344881277, -0.08130308256799833, 0.17123608179509128, 0.07382191766815754, 0.06631969499139224, 0.0550930220845403, -0.04444671422270918, -0.0656027446432975, 0.08515219770127862, -0.19873264381600717, -0.1894643706094365, 0.02767176781961156, -0.07838401638408887, 0.06853128917822746, -0.05599337073375251, 0.17356832642246206, 0.019356895337034198, -0.052515635768424475, -0.05405722245736286, 0.08230830258737983, -0.04128838543088338, 0.08220468734864367, -0.23075639856606334]
[-0.02379675901979935, -0.1390196452615777, -0.1466772072171721, -0.018492209834518488, -0.016562166669968598, 0.04563121457774662, 0.11820180443740953, 0.12244170824745762, -0.001861672014322299, -0.10582206159448274, 0.014673363020006979, 0.12928279600933454, 0.07752821291129022, 0.21829375271792792, -0.1008730566870625, 0.2093434948072513, 0.047896800726324955, -0.1436989178736841, 0.0824774075407508, 0.17657948038952948, -0.054949474049512365, 0.07419506321488518, -0.07845548974178475, -0.0948186773517659, 0.04082005158634415]
[-0.18913474916776768, 0.08067791468469905, -0.00016069733418090418, -0.19090989815049905, -0.16710362469242612, 0.08025385331251597, 0.1546562544275242, -0.12046910662504928, 0.1897700935132994, -0.1891270026625234, 0.16086853264043285, -0.028704601697337392, -0.22721083898143024, -0.01563503418375191, 0.006033989186674176, 0.12542625264169927, 0.1370281377344362, -0.12329564664904714, 6.219605329374184e-05, 0.04258656576094026, -0.07385187527332174, 0.15195902710445064, -0.09214790422206721, -0.17290655521005754, -0.22447538133609043]
[0.08386420008158207, -0.0024227357885923794, 0.15788039345849755, 0.14260017374223546, 0.15488316420910933, -0.15823723012203872, 0.09867840283918052, 0.04979857295531, 0.05727678530530129, 0.05150063122845155, 0.18198259522733246, 0.06841734975048232, -0.10127242633416032, 0.07457920852376329, -0.09370284986979473, 0.03852214834795082, -0.20194218931235555, -0.11588771900976666, -0.07450238759433199, 0.09880941246952396, 0.07410577660923434, -0.06278753659116568, 0.04302082942334817, -0.16922377788627388, -0.1749530578334764]
[0.20476603197441814, -0.12443618960235177, -0.056929204548541765, -0.012529975525457758, -0.08580339838468902, 0.012104462877687214, -0.11277205090590409, -0.2111909887936172, -0.13463256323242312, -0.02174253693373993, -0.1493853382216239, -0.02723185062860509, -0.11990062007758913, 0.023676154455162496, -0.13623705974509745, 0.1679586442963003, -0.014536217007936421, 0.16198907458350148, 0.18306668055912997, -0.07957382536672415, -0.020982616155405445, 0.0815261313529403, -0.027967849671992326, -0.06485029539898449, 0.049259246446526295]
[0.1635587545687573, 0.10733657429687321, 0.03504615788773739, -0.08033213198310464, 0.18547225599784894, 0.07441186529346348, -0.19376663856712065, -0.1984092320167939, 0.09289021559510159, -0.20412842099931916, -0.17787605832469677, -0.03016923799333293, -0.04788854688234263, 0.027386181499841837, 0.018316297688166075, 0.0373018799564719, 0.06752978361450845, -0.005397700015882234, -0.059373473132978014, 0.1772920492294321, -0.10961982183262559, 0.11430370292209376, -0.029536535698460008, -0.04860601887769032, -0.2139922292400576]
[0.15554561014376736, 0.02706787860447052, 0.1516043286676024, -0.04926038052246115, 0.05782998153838754, -0.1307770063562027, -0.060027134849875007, -0.1511211598785732, -0.19054296724055503, 0.14991256023548716, -0.09063620141866863, -0.13421623802204707, -0.17252011115627053, 0.00923804210376335, 0.04034832817921807, -0.14361250110753485, 0.18965380314831445, 0.21972803578024044, -0.14738982425251107, -0.056539638853721895, 0.05879549350522441, 0.15755091328414858, -0.01298619602722085, 0.17387474332901706, -0.10994238355946608]
[0.029724016622721592, -0.03971621699222714, 0.06202980818140139, -0.15214164722525558, 0.029546976875274696, -0.08877816210110065, -0.10067333211489968, 0.15129231282640976, 0.15269374948086445, 0.09747444704112172, -0.16053917708892862, -0.13573545865374168, -0.14365866359757118, 0.17033999436719727, 0.15844203120931774, 0.029166752284904746, 0.08119067042274232, 0.1486047641808083, -0.18058238725636805, -0.18405479906783556, 0.1325163676844359, -0.17658228272181084, -0.11989425998554024, -0.16793059191605322, -0.22471219761870476]
[0.1678343866226375, -0.13091989420679678, -0.14717948464627403, -0.1681253925505891, 0.0489809817094417, 0.20518034996514356, -0.04756626305357075, 0.12816389032401296, -0.006956715904973913, -4.4823242226050606e-05, 0.09475883853832097, 0.1321954433327321, 0.06110620618004719, 0.24784729767767216, 0.11898417827067932, 0.15635195283469525, -0.12078184200698025, 0.042316649614071715, 0.033273688592239344, 0.11262683145655547, -0.017029842423088495, 0.12497901525365689, -0.05084304303552345, 0.05236603650292945, 0.10662032298115634]
[0.1323742924562142, 0.014271087456845416, -0.21071880050901187, -0.15702154322598288, -0.01811854012096641, -0.07605069417637145, -0.22179103740818742, 0.11102161942083046, 0.16868328273342081, -0.11092454624460002, -0.013518768955940102, 0.1290915385971731, -0.20491278355115544, 0.12897759166296363, -0.13089316845260238, -0.0978384400333098, 0.13094444097860639, -0.1498877385037169, -0.192375397167532, -0.05163651199394172, -0.012830753260119447, 0.15513596142724353, 0.08400435406340308, 0.09417237091089138, -0.17720224376424454]
[0.2038272254877694, -0.0981329200873626, 0.03969892887099881, -0.07489868635448346, -0.20382096176354822, 0.010826309392191555, -0.18612349767131994, -0.22413340377051458, 0.038515205156918274, 0.019251943079729873, -0.13667329450591242, 0.026045815417546973, -0.08256029456583425, 0.0195835570999631, 0.12666784382982868, -0.015329595387806316, 0.1532200870331541, 0.07308484686277497, -0.020095979127226316, 0.03448321989741356, -0.07684288948921249, -0.14050462035973857, 0.06540462407992792, 0.07058297018950285, 0.0836100864820593]
[-0.1541156872548485, 0.06038706817649581, 0.10467101149471403, 0.14343000172086903, 0.13046868877727608, 0.08908693517295224, 0.0698746577763436, -0.028830495984290026, 0.10799307177334247, -0.15836439654696918, 0.13499755422941867, -0.013030487408435848, 0.0769522810412505, 0.05524907138873036, 0.13281072764208157, -0.17345880171225042, -0.1791134311155425, 0.20138420700864965, -0.013367654783818256, 0.14205230917434766, 0.16272260272426495, 0.07750173723319244, 0.02482558681941356, -0.08651873832561853, -0.1835129101180103]
[0.11787257950621119, 0.05507886569454795, 0.09540349385220416, 0.05860294869611003, -0.04917209097749111, -0.06416813654869956, -0.21156216143623355, -0.06391389886674752, 0.02107253565928223, 0.13250602868228623, 0.1941068925702926, -0.019979038620752582, -0.19606960896056372, 0.18053215492820332, 0.11080877833994551, -0.18473221758892694, -0.021010224234523815, 0.10218278079225707, -0.19487448489288822, 0.14871227218394942, 0.17258960222745803, 0.09906078338196901, -0.17279599521691336, -0.1445002691648434, -0.0719175154982227]
[-0.210056591700304, -0.192488718672669, -0.21033094178468573, 0.17108517584614175, 0.10655726937302044, -0.17170612396815838, 0.11432203718582354, -0.149678220053491, -0.1236520907353194, 0.03310037801124969, 0.18905523663458929, -0.13483807552636132, -0.2387012339826469, 0.006674368188633824, -0.17453952493618727, 0.04433192873044418, 0.14261454313162095, -0.09875648818807613, -0.16177160498286336, -0.08046713394464292, 0.17235822294933997, -0.139133275972249, 0.18498525174800323, -0.03128732088534128, -0.026882561887286594]
[-0.10320082591363516, 0.02713915077464888, 0.17440664476659115, 0.0382630387272488, -0.14661853885304732, 0.19436077810544203, -0.19981982654450625, -0.004998193429980538, -0.142463700504313, 0.12100579916355392, 0.19274010828906143, 0.1344946357522586, -0.10272619757459994, -0.04460035833189009, 0.12027661502458416, -0.07710632610112968, -0.02990775391954999, -0.15545057007530805, -0.15356962496674606, -0.2097790446722802, -0.17944768817393558, -0.16171988794284853, -0.036287343549922274, 0.045364830556265646, 0.0713202352675582]
[-0.17112075850483624, -0.15955277167223492, 0.04748494294530702, -0.18315089642704452, -0.04765327726602827, -0.047370067035109806, 0.14544710936312513, -0.21838008174137324, -0.03792389505109873, -0.07550939254329937, 0.11064452922110664, -0.06735049111497927, -0.16199599637249312, -0.02177492509094992, 0.007952383889894247, 0.20029802780137732, 0.1307700497273834, -0.06352397220070975, 0.015850666038328288, 0.054950541171733445, 0.10153038925718838, -0.013059489679701934, -0.047217159202894085, 0.13213500110144838, -0.061070886977235214]
[-0.14588823455561709, -0.12736434360958346, 0.17802872437136846, -0.16560147110040116, -0.04509720392801374, 0.059883604282229747, -0.04196222723892102, -0.15940185917949307, -0.1999416162333459, 0.04166315064896264, 0.06948507298943743, -0.2013987956109313, -0.14092314899015787, 0.19267543699895692, 0.07344833026648889, 0.04473231315655733, -0.11910560076526644, 0.10623260327475333, -0.018220576293695154, 0.052580527097120085, 0.08164658701169902, -0.09784178227297845, 0.09085512069426052, -0.06411589562666503, 0.1635291781718381]
[-0.1991853364384609, 0.051251704926426826, -0.1727922776365491, -0.12047363778399683, -0.024036642494491157, 0.04109661504624195, -0.07650026495508766, -0.19885824059922638, -0.10009747578213492, -0.12572279613725532, 0.12360841065776984, 0.14797528632291942, -0.017848704079851733, -0.09350260942943696, 0.13952555786597007, -0.05221784856146577, -0.042931737268717574, 0.035919770807432326, -0.10723823441429942, 0.14988597710788468, -0.1583326537757546, -0.02498816195413539, -0.10014113560899864, 0.03289702911368174, 0.0039731842266258486]
[0.013271798840577605, -0.09185968701761689, -0.02565742619285434, 0.024815093146537643, -0.0729573574531716, 0.11564836370661093, 0.07185870593750172, -0.1224061394868293, -0.05321537663491772, 0.01100626504894743, -0.11944526896730022, 0.06724338751258864, -0.09606617369881357, 0.11757448861339535, -0.12223420057365952, 0.08450108626034038, -0.036907147398483574, 0.011577186209822107, -0.03953778008393015, -0.02607558117319957, 0.051545688583237326, -0.06422706792919226, 0.052196145222892155, -0.150701746236395, -0.1052816431786984]
[0.06532643348202206, -0.2321293600089082, 0.05334832954621655, -0.22180018671397222, -0.046126975857163355, 0.16418496023223542, -0.22644292628914103, -0.02904143793802235, -0.1741349739307269, 0.10698752071750865, 0.0942057634280129, 0.0889340518949777, 0.026068328655106523, -0.12472459603071367, -0.1609972756777843, 0.07024930545643819, 0.2265364114802523, 0.17094879660226103, 0.07286780829780924, 0.07351397159066458, -0.139490359400439, 0.1100923884083538, -0.09842739609601357, -0.1340989843138799, -0.03394851692425751]
[-0.09678610729258987, -0.16925091967312242, -0.03643691239047115, 0.12244652573800713, -0.06881930687286146, -0.011085749300859085, 0.058256459308990316, -0.032921751351418706, -0.14936732083795792, 0.12602130642794918, -0.0019048626365882042, 0.1247457967369962, -0.08456093863161646, 0.19995215410464662, -0.022181466803567425, -0.08300389744656929, -0.090813145148909, 0.19748691184645104, 0.02772414388967132, -0.19620566025963293, -0.07683888036206277, -0.09704536257800414, -0.1806905232984438, -0.10144768086521429, -0.19206182981913114]
[0.016110954149665714, -0.17339209962095936, 0.03765532400226937, 0.003114221810709452, 0.03900114144424278, 0.024099882274713515, -0.1191833655206841, 0.10840982325204884, -0.05746229088801998, -0.0554010924153175, 0.0726697115387553, 0.014388724485384679, 0.13814491756463887, 0.26422224654217724, 0.19719923876094425, 0.2013017567129684, 0.06581673205077583, 0.01943581209365715, 0.07576656510922292, -0.13053098392596857, -0.12885272941626952, -0.17340316898551, -0.1505881007229568, -0.17477734324184996, 0.037428974168582305]
[-0.16654078135664055, 0.06471334515244002, 0.06452344365648603, 0.14854644990998422, -0.08282019574626492, 0.18470566580668976, -0.051315257978043365, -0.10011334834431762, -0.157551252415243, 0.11811159817139724, 0.14007804741973293, -0.06522023294410878, -0.06773829680696622, -0.003977148565934187, -0.1626048581435592, -0.1569558416309057, -0.019606198242522403, -0.09268282030507648, 0.0038932439622296412, -0.14094699594634116, -0.14993631855225875, 0.07764826706810422, 0.08210747923272219, -0.05462912412289378, 0.12306565768349481]
[-0.1286075627329469, -0.10210166288437938, 0.0735572839227586, -0.22852368129770492, 0.13062394825592638, -0.15700066891429143, -0.04162362327067084, 0.04978698267996927, -0.18054672645896544, 0.0911289323437677, 0.21403242845195758, -0.010183874474082165, -0.19759887860409053, -0.11045245380811941, -0.13789684355084086, 0.13227861260131418, -0.0017730251225380506, 0.19303120055775838, -0.02929280105670419, -0.18569181176152824, -0.06295207227374361, 0.1108305405239702, 0.11595219907927042, -0.15834204771823976, -0.14934522268506256]
[-0.0421177080107519, -0.18318314958063434, 0.13907573565008308, 0.12165080461475695, -0.11131869043133334, -0.012543598828173274, 0.0031337990854487276, -0.12554004050616874, 0.015680414051117395, -0.15593809499660086, -0.0578480054808717, -0.02610008219131282, 0.005584746849877598, 0.060565830787279694, -0.08512574143024014, -0.08757122743383867, -0.11545954035767156, 0.1391129727145971, -0.16671807642979578, 0.07464030695098307, -0.1362894461452576, -0.07785261108633738, 0.07443159427678232, 0.09068756308204659, 0.07098715653951855]
[-0.03757735430413149, 0.07993273697919892, -0.1585516997097976, 0.007224618030004796, -0.1887222883307062, 0.11417929565569969, -0.08332867307913129, 0.037147160236883574, 0.07653167407024987, 0.031392994613833734, -0.08256442239685834, 0.12417676055532123, -0.15013432299141133, 0.0665738440053915, 0.08702190721783533, -0.0905235751938371, 0.09169138423936102, -0.053515877682597024, -0.13843409411384053, 0.10287254515325227, -0.01454151561959887, -0.0599380959258298, 0.016797725404491773, -0.1655395463097587, -0.18222874096083091]
[-0.092352826226505, 0.12102377168006347, -0.0027422100044644255, -0.2176470693731043, 0.06902353318298536, 0.13313455926114445, 0.08386506432653941, 0.0002562127480941609, 0.07098536601753297, -0.14540406155841934, 0.12253960325745052, 0.1213267914089293, 0.054302307729164764, -0.001290192553995189, 0.05430877942382905, 0.06516584202183055, 0.19829084350035966, -0.12329851827494778, 0.1271034692245211, -0.008373522424088358, -0.09092222869564477, -0.009498696354698558, -0.20805027170463547, -0.09081760509664451, 0.026061455536937436]
[0.010387769921160833, -0.07164843655822581, 0.16927454052016855, -0.059832690076696275, -0.11026463781085134, 0.16178019983153663, -0.12822244245746456, 0.02571911914065529, 0.0735778688520107, 0.09688832552632098, 0.15150297636611457, -0.048147957987964785, -0.2169897364676964, -0.141079504754326, 0.10548414972856297, 0.20061143067126483, -0.02271872540811292, 0.0088841395584276, 0.08391826262290951, 0.04434030754466522, -0.1346980985239283, 0.07687240712703619, -0.09074307787933213, -0.03752365238827863, -0.02331732637457145]
[0.032721164209809125, -0.17681955737941876, -0.20585349805518777, -0.0007202936772336082, -0.23507011586114857, -0.1586072387294134, -0.12550544009219705, 0.05894226217591994, -0.17921303454094337, -0.2076217690006926, 0.2260068013237384, -0.03427578992066361, 0.10652776554782692, -0.08103560249358206, -0.010259145261187009, -0.03558364900826288, -0.08892482291360058, -0.036494840515721466, 0.18764649496412963, 0.07988666560265216, -0.08305449016168522, -0.027393235739463836, -0.1077200711486362, 0.025761787729485508, 0.04653635988846571]
[0.006324058133031953, -0.05939544577753925, -0.20352152808469254, 0.12274952869606227, -0.08651237372497829, -0.0214329362401185, -0.205359384892173, -0.1453009418609175, 0.14069311616775151, -0.022324632167611703, 0.12927235488565075, -0.15170922995459318, -0.10875289109570836, 0.16674368939806083, 0.14259606538470682, -0.07422404899374206, -0.15033102833116566, 0.15659066580158798, -0.1389348778134613, 0.0952311871136175, 0.035338235507735, -0.12405225833416307, -0.17556394701513203, 0.17807048526955555, -0.0064147967076584956]
[-0.021347867853342497, -0.053915496516005745, -0.16437782537143467, 0.00021666136735948587, -0.15092543494565766, 0.14865721768581092, 0.08070048006276002, -0.19140876539160664, 0.1618942329687384, -0.20727896659489214, -0.13608180624461536, -0.09560072510916087, -0.18058401945706243, -0.04558078030358473, -0.04024451286707687, 0.12803445841942898, 0.0021752648250374204, -0.053730777776974166, -0.010531446891339637, -0.06209048959619235, -0.11653360984990681, 0.16925547579100333, 0.017797383532464, 0.20406452796400837, 0.06285604522640999]
[-0.01612116734196143, -0.11134591229075906, 0.05506978354469931, -0.06621189927811508, 0.039093095747581186, -0.009614727522975866, -0.009321340458555736, -0.19417858357871884, 0.0909400453333561, -0.2059274696430322, 0.0971589903228501, 0.02120629014244064, 0.06624870901031493, -0.006976370838288678, 0.08691688400859825, -0.08717509357791793, 0.05249929930630846, -0.03205995453667322, 0.1844415526768647, 0.1682314712390463, -0.1555167262263754, 0.035910796917150635, -0.0785335089812317, 0.20424527739889015, 0.1213780177210491]
[-0.03690068110759609, 0.06938170523602778, 0.06124997528313588, -0.10660592249180709, 0.11480115970919928, 0.18959402714450221, -0.0742571654260147, 0.09676927691877853, -0.20228131625467038, 0.10473122657118934, 0.048144060778635804, 0.16255940142670816, -0.10553872080294664, 0.1220839923361778, -0.054945831643044965, 0.14865085178650078, 0.0809689650201754, 0.22658711062879802, -0.20675785855585024, -0.1649470698813222, -0.21920366853439535, -0.14023217785294034, 0.16675873507352468, 0.2022863419420937, -0.05286106055314803]
[0.12196772911467174, 0.12866992792957188, 0.09834344542115526, 0.05272124053587995, -0.17190166091786224, 0.05556288591021711, -0.02936805851963409, 0.18264227208873549, -0.14057967101459332, -0.15675251335441617, 0.08942530784525818, -0.15888043655804424, -0.19758074395833053, 0.05211194092255808, 0.1365351072410917, 0.07131809327765717, 0.14343062968042722, -0.058000430788074445, -0.09389051353663026, -0.048435781196201906, 0.1609999691779155, 0.09699799781503425, 0.16518025398231834, 0.0347215181233156, -0.03618359606593664]
[0.12874714980845225, -0.1170376905426638, 0.08512717572829452, 0.07326570822975911, 0.0968039049332951, 0.1351036592080709, -0.14011526040210323, 0.06462772301984704, 0.1579305730950723, -0.008014198135099645, -0.03037053775199124, 0.16960541109662988, -0.010000115076928735, 0.008394900325272832, 0.06251116598361448, 0.1466937746127461, -0.06497034070647699, -0.15934438302844187, 0.0039860841671618494, 0.15744948606796846, 0.030441426759179543, 0.0618079617045702, 0.04740520873084963, 0.016857885952658386, 0.034947577532384616]
[-0.1791685220819293, 0.16140516888222545, -0.11405942806250674, 0.13609000503020519, 0.12787461891220045, -0.13541705322206246, -0.020245369510571046, 0.09277539498675129, -0.028289385809188515, -0.030675344224203337, 0.14579369034626294, 0.06309133940969643, 0.14001595282323256, -0.07692250642854666, 0.1898871925569097, 0.19571917576726391, 0.09809942967502984, 0.2091907968434534, -0.10665538819704107, 0.1347543333864479, 0.06326657248704415, 0.05347192134903999, -0.16840062001801376, -0.16971638415798238, -0.2513000157645272]
[-0.19128411281154584, 0.10844148176061878, -0.06575502951745466, 0.07149204472788935, 0.007286935967414755, -0.00822576988582165, 0.1526542948445799, -0.19078741638190297, -0.026148323430631695, 0.10099598047206201, -0.1281280979870569, 0.06602836489532633, -0.10534643507417799, -0.12328725013165044, 0.008859261455511861, 0.041710753913605625, -0.1427310463621988, 0.06319870848856438, -0.06864882829973595, -0.21559427619211016, -0.16146965165141833, -0.14716065725723748, 0.014353328725614045, -0.15978722385634905, 0.12308178272280382]
[0.05125945750795127, 0.16929884217432345, -0.10505727658937458, 0.12150409896867928, 0.15399568181099704, 0.141060210134184, -0.09032611141460874, 0.05993277504345072, 0.028165510230570685, -0.06458930505789434, -0.06171662064751887, -0.1848054234191729, -0.16798869987315485, -0.09782844940743118, 0.016583252118361324, 0.08532180353062432, 0.14621926278318653, -0.14713636693658058, 0.12200001447189944, -0.1980522825481285, -0.009413160921506987, 0.1056957183370601, 0.050858382652245356, 0.20415594606958554, -0.10483603135549927]
[-0.05907527450517142, -0.15562011779408416, -0.007563280610112383, 0.08685262850496529, -0.15385718956823496, -0.05956667724230823, 0.07703166226248495, -0.10428357412094803, -0.1076576524293133, 0.1472124691672295, 0.22088554367191962, -0.14309820440802887, 0.154993533014663, 0.05792111199007303, -0.15915260052324165, 0.053181228923003525, 0.09605786088760933, -0.15028375907585842, 0.09499279799998836, 0.11200280891703263, -0.2022740818586225, 0.06789872246065438, -0.016781025529190585, -0.07975045572654313, -0.06440531182994777]
[-0.21312996579507912, -0.06457905254854808, 0.02724112253205443, -0.044673897793242996, -0.00893830694486276, 0.05294281963381868, 0.12907493337410558, -0.07033915543245782, 0.11560908555349456, -0.1957145876582447, -0.011370042742538179, -0.06803399295582493, -0.01069802073031774, 0.14912826798002915, 0.037243095788494246, 0.2106018098810661, 0.18349064342235868, -0.11491815927764934, -0.07764049553116699, -0.20589165221839548, 0.058106703557821625, -0.18243720886320383, 0.15552471639799947, -0.09902279524878951, -0.07362319313494493]
[-0.24833645784308864, -0.06925680462224436, -0.07371731232733103, -0.21458754829432516, 0.08236633137673034, 0.1239590707097233, -0.06800405000281448, 0.12526951563730934, -0.18205002168362555, -0.20846383536832547, -0.0365965173729442, 0.16151090541041585, 0.10591972330653465, 0.10067505554110728, 0.05461281242744981, 0.13923799261364342, 0.008547146167828971, -0.14929334137646338, 0.11624550217002116, -0.1373331478167954, -0.08123095116533993, -0.047070414747889484, -0.16136250203388927, -0.03087195633355549, -0.16126205897703036]
[-0.037750431116656644, 0.0620966351054324, -0.22191206202700173, -0.04947369027963448, 0.0005196181526620222, 0.18875941525974102, -0.016922932317947222, -0.17980086103979942, -0.19178686065283387, 0.11245377274125841, 0.13143794989640542, 0.14570227180094608, -0.09420824980115673, 0.08940607682964177, -0.12506011881496146, 0.1435450945896916, -0.024638053470406592, 0.21847304309756618, -0.014140645343282413, -0.19828782464289652, 0.11853681985080565, 0.05947764508623454, -0.08888137357448432, -0.15011529794051562, -0.0975892780300454]
[-0.23833665604497756, 0.025496676489001224, -0.16523734456350875, -0.16197702047577342, 0.149741752707343, 0.09868534255918485, -0.13011409553916786, 0.14070025226026456, 0.038064523187863075, 0.14352981483287694, 0.006997910555897654, 0.1551612547927111, 0.07033794774586816, -0.15280157785055, -0.06958498018981, -0.07607927096873797, -0.09097024495900974, -0.06846405393527207, -0.11007117608099744, 0.14161870371417085, -0.061494581033258486, 0.15850557173712754, -0.1490428036973845, 0.05648848207401229, -0.24148715905149062]
[0.07231630840354915, -0.19294661913212088, -0.06704401625639535, 0.0933519046720433, 0.17854551954936884, -0.15326748620451833, 0.10405382842861784, -0.007401761200946196, -0.1943482712459404, 0.0702518186965195, -0.1482711667404965, 0.05538956721187944, 0.10994545276929579, 0.07871600269892784, -0.011976662740377316, -0.16709503410045878, 0.015563700803714333, 0.19993375388728876, -0.06719098429598046, -0.10864934741948633, -0.19282327889737558, 0.011480679845472233, 0.016811381166789822, -0.1439091214936578, -0.08877018735322174]
[-0.04322138162421806, 0.18071098564091106, -0.051580978102340656, -0.05156829656707596, -0.04320715462853434, -0.07459996703773146, -0.07924906901462471, 0.04145223564839987, -0.05026269395125916, -0.00653455957864185, 0.1380052765290192, 0.22325588169517177, 0.13020608354155122, -0.03468066452210719, -0.1501368421976117, 0.05808116341245625, 0.022289323758334117, -0.07259070013359308, -0.18456118571273014, -0.07900057320178237, 0.06710662862497137, 0.19358557475843818, -0.15029988138665232, 0.173816656602194, -0.23299785694492683]
[-0.015921914591641096, -0.18975506292632008, -0.058876765469404034, 0.12336125597765381, -0.08346159548950632, 0.19721935222886872, 0.0594310133703468, 0.02531448856671529, -0.1452413522502116, -0.09932861767308317, -0.03136031537335784, 0.06625244987862022, 0.17866019854539683, -0.06655920888694138, 0.03954107219491659, 0.1930939543573774, -0.028322038213443576, 0.08336211587458063, 0.10416080415755972, 0.04490835719593409, 0.05206496574509508, -0.11203022658592991, 0.18982474888503528, -0.09488073566513489, -0.028648725992361616]
[-0.1794643060322947, 0.051403270574103446, -0.11110444736822651, -0.047767308559991714, 0.02479558118669514, -0.06537953691457947, 0.07580313006166388, -0.07414456273764382, -0.1559282971292053, 0.012044378874264459, -0.1294095156689874, -0.0076515689121147675, -0.06429421689861436, -0.15874614297103967, 0.1291861494939541, 0.09849392135165858, 0.14271538100186026, 0.0490352175101145, 0.01580016958761001, -0.1396877035447046, -0.16587555310079743, -0.09955167129511885, 0.015511267102331977, 0.1639479464051325, -0.10871797908325784]
[0.03952371418260573, 0.12108035794015679, 0.06585288479153686, -0.08841518823358559, -0.19859537529484952, 0.21343069354301789, 0.11581206424310805, -0.05166652574762552, 0.1332241389252312, 0.11942560681396633, -0.06056322837254848, 0.006762872583921018, -0.11244925346072036, 0.0986873749432022, 0.21101418359084442, 0.22438288288927186, 0.13064018961730053, -0.044587687958792435, 0.1436520670685663, 0.18911311697070737, -0.11144955591661275, 0.18797410931174807, 0.00546641895611532, 0.22997600151564082, 0.16162848654634224]
[0.014631752633862292, 0.07045160463068974, -0.16239369274364876, -0.21582998666223321, 0.0025784606012442895, 0.10914267214141249, 0.13735374315091275, -0.01167444565866512, 0.06862141386224112, 0.02079717057674853, -0.11498063646129578, 0.05025735741739361, 0.15037026172261064, -0.13629897076163364, 0.1256062446064281, 0.06563303878313168, -0.017422649363329393, 0.14989985669248823, -0.20579299416810592, 0.1485435218699362, 0.07320432316595468, 0.0016731099874038612, -0.14696373979285865, 0.029366968892316297, -0.010586133422958595]
[-0.20922202734003362, -0.016452906140518492, 0.07971064759160532, 0.15025862456778477, -0.005975341666279898, 0.15832373945056152, -0.21544051489514943, 0.12476276118864518, 0.1609040067973202, -0.17128126307312458, 0.13658715549285297, 0.13420348949637098, 0.12355911924129118, 0.03628714305090144, 0.09055672170480521, -0.1018131150770841, 0.11463938553753239, -0.008222392994703363, -0.2013587000615203, -0.15447451361245537, -0.09320409389918688, 0.16258926068193602, 0.03738855909276355, 0.20821692561227895, 0.13294583454137723]
[-0.2729909510971213, 0.0017334224205455754, -0.09824662373693034, -0.008374260178908804, -0.04640035302568166, 0.015772460948306904, -0.2039153384509518, 0.10945214593712306, -0.010700627586794869, 0.022352691844760478, -0.007638393446642848, -0.1319153950653555, 0.0037557341127860524, -0.13436716020097117, 0.19175947318326902, 0.15384592229125824, -0.10666308914988015, -0.14350382572127063, -0.18188181034015646, -0.04957062688499343, 0.1315821084299358, 0.03150668290594636, -0.08372116767912692, -0.06893757668264676, -0.19813615860850015]
[-0.24497484083390247, 0.09057844638828268, -0.17691955606628004, 0.14116701986130561, 0.10254262978249594, -0.11992987278536887, -0.021554911955597264, -0.227068009481389, 0.13963864244317248, -0.014657970856851544, 0.10686413974568296, -0.009766173890658312, 0.06396692799426937, 0.1716572116770624, 0.07178668437281006, 0.17407308821725104, -0.02452841206546535, -0.13194906241250548, -0.20895763203945247, -0.11683053869141347, 0.08775835075165711, -0.06691947891341636, -0.10449201230825667, 0.032888429601337754, 0.13795416438220753]
[-0.08676607981458369, -0.10743791551096488, -0.2027659179215179, 0.0313933493573917, -0.13969886473751775, -0.026824972327757653, -0.08571922269360617, 0.06895750159580664, -0.1132268630582286, 0.1374579379469062, 0.10698927472315928, 0.0009183100966170853, 0.1160302494724734, -0.04400491825147775, 0.0029457135272419914, -0.12050897296887134, 0.14447649930811532, -0.009992965245230148, -0.011622985923267227, -0.020886137018466196, 0.0117582573143868, -0.04101584186095365, 0.16847548142351426, 0.014421173491313695, -0.09285307303373312]
[-0.12813653688675766, 0.07431760069257778, 0.17075883987590365, 0.14776267964004605, -0.042520091494622214, -0.05618679436467919, -0.05475437053367434, -0.0926353645487059, -0.10717218860393746, -0.1612535699988132, 0.1923815242958529, 0.01176510988099624, -0.20353706144785935, -0.028277132003940195, 0.0024965968188293613, 0.036929967775051364, 0.22516648985199214, 0.2200753865109947, 0.01367207544866687, 0.038118551418005325, 0.012714552768778076, 0.010830051573656503, -0.0035722523946804243, -0.031021976119835024, 0.041081928125310335]
[-0.2417188205593115, -0.11342089799359506, 0.13177518661623253, -0.10887623184484405, 0.15098818786965934, 0.2192333661991303, -0.007597384366447367, -0.20976667355047823, -0.16655778455083645, -0.15590911389666323, -0.055175734691575634, -0.14056018922357846, 0.07919349158718704, -0.020618811712831153, -0.05543126994606615, -0.14014158992300468, -0.01439780838052201, -0.16922351155332474, -0.16674271905442442, 0.03280342078158244, 0.1179750679223576, -0.11004322749459679, 0.0884998008616547, -0.08425470329335945, -0.22658935073151923]
[0.09386775662411052, 0.10620145122369785, -0.1947969503423809, -0.13004401701036325, -0.14050717081299227, 0.1925113654804366, -0.08407052063440458, 0.10277871987131099, -0.03371536108451615, -0.08683917725008918, 0.1133682706512447, 0.06353397564586011, -0.13105661582840095, 0.07349033480039495, 0.13449416141041234, 0.17309233113948475, 0.10023486646171528, 0.08654027194862793, 0.0252437655202419, -0.1696726023344788, 0.11929720877960666, 0.09562840314258536, -0.10732762662941801, 0.10947500151943428, 0.008424609608068998]
[-0.018745751623099154, -0.07981395780639756, 0.0034701832728774667, 0.057924412136264536, -0.14985994964021318, 0.01745232109025574, -0.1890168877800092, -0.1700160794515487, 0.1547364293447186, -0.1866903363450087, 0.1619335841254825, 0.007581275602096377, -0.05076868111267364, -0.0017618885002358827, 0.014879696087208853, -0.005896699493236022, 0.0631816844152623, -0.03642994235453074, 0.11581723778705853, -0.1103208122679737, -0.15848199054059237, 0.0002120871851949644, 0.15854725375362044, -0.15699291422951545, 0.04921841203575166]
[-0.26830050764181423, -0.10110392764283256, 0.08227402848669989, -0.03156702485284655, -0.0476834112336224, -0.09405291388677207, -0.053057156932266245, -0.12154236212383122, -0.09809539412361856, 0.02555817785877485, 0.041469143681605584, 0.19808690827852246, 0.15941309970517667, 0.06140650702909303, -0.11379375601586102, -0.04143971842651391, 0.030740011057067463, 0.09745209394694367, 0.16600838622930414, -0.13988892032095768, -0.2447529152971631, 0.15653386365125382, 0.10355041696599973, 0.1392844557956353, -0.04614232634928405]
[0.0007604127482449958, -0.12611254319348555, -0.1448470269043961, -0.04994563108459821, 0.10301108499516601, 0.11976668433150811, 0.12051982807046319, 0.1328939721777084, 0.05964454225461755, -0.026894121898961017, 0.08861333267279425, -0.09577237652046984, 0.12995075632625264, 0.13870993942721754, 0.08922453211030368, 0.012452586981723277, 0.0724874883223907, 0.07476168666674066, 0.1480757128797752, 0.026098278849536916, -0.17692750545226163, -0.015205018490161695, -0.11982230682647058, 0.19140081555324434, 0.11618440687759199]
[-0.04586629485235182, -0.26359158778116587, -0.19444154680047854, -0.1561309445062308, -0.040886923077991896, 0.06550575199017426, -0.18026222945607404, 0.05235768859620925, 0.13091104169700055, 0.06523030716726264, -0.020362326612004083, 0.07959232197476514, 0.1553593086018836, 0.20792968313338842, -0.012479237325022466, 0.10851268074438336, -0.11012355895381547, 0.051073214801646845, -0.06712906182761316, -0.028143203327435105, -0.08563686636206885, 0.07092659474038877, 0.12888624132997598, 0.0188796202008136, -0.16497307064766134]
[0.050297625404338304, -0.03793985840378003, 0.18266792002794352, -0.055689650866910516, -0.03195366300030991, 0.008603916121820463, 0.08603575157027078, 0.05877452588374558, -0.2104502497445131, -0.15185922717863115, 0.15223163348602844, 0.05923385547322105, 0.09906026978060624, 0.023984130940862467, -0.06299636672294885, -0.1619892781976454, 0.2195656427371249, -0.11686585292803711, 0.04753089965337288, -0.0065845416766326485, -0.10692494697509083, 0.017358307283380156, -0.18046837711969485, 0.21651024752160966, -0.03583350883865042]
[-0.2236694545189794, -0.19370696639412657, 0.10312963174177309, -0.08582460525565036, 0.07773280571342463, 0.09776097779167052, -0.1629520497214656, 0.16347087825896467, -0.20841667069201975, 0.10950231169543959, 0.011397587000261103, -0.1187843714677947, -0.12547737245178506, 0.08808165435866659, -0.03536178938414699, 0.16838672734498877, -0.0926702381220018, -0.01702052572645405, -0.0064036856456882625, -0.06716911199288254, 0.06920174423843613, -0.09217719843365238, -0.1699549296218483, -0.11228405821979656, 0.01967864492896169]
[-0.008656939902657174, -0.3532293160455265, 0.20712365887673995, -0.021532319538624865, -0.08887638428307036, 0.0717338380570718, -0.24529708827519797, -0.04757044746230933, 0.04560848282600795, 0.14875904751163513, 0.11742006238953506, 0.1709813950691798, -0.18829667026240615, 0.03659699339879869, -0.13857956778662436, -0.06421616392500314, -0.029270855395434576, -0.03378282544172713, -0.06031030501766356, 0.11655786041380176, -0.18356487690092313, 0.1305046943352937, 0.009204504962542638, -0.04442170517037225, -0.008949386127063174]
[-0.164701594759549, -0.18994143308168368, -0.1733303250599427, 0.1318848093364068, -0.08232567708802278, -0.08960616930390833, 0.14322505306048913, 0.020574056972085506, -0.05354909540592474, 0.07806317699257367, -0.1618725917145333, 0.045661226663032954, -0.024708149989628992, 0.1960444948984682, 0.08469374883851441, 0.015149042271477668, 0.022323946093808996, 0.14261704343410558, -0.06951921217568723, 0.018621620669717093, 0.02062409671609017, 0.19734317337042828, 0.06987601060251566, 0.20964130844701215, -0.0730698145589969]
[0.032866830394592636, -0.09187111488596314, -0.04278638243021382, -0.10675243079254912, 0.1695692842960927, -0.09550656137989835, 0.1513963526284349, 0.12057257965680188, -0.13743704447016797, 0.09384485761641122, 0.2064948498985569, -0.06965645469258717, 0.02888878066208985, 0.1578431650828642, -0.11515467305875923, 0.14316180906620396, -0.06465639682697907, 0.11168538210735854, 0.17162896235653946, -0.18959118862259383, -0.017884175944443442, -0.08491846031469269, -0.1592207322472389, 0.11701757545038444, 0.15879095118088135]
[0.012894158070347097, -0.24758785405096798, -0.002871887532050664, -0.04791266900063941, -0.011894082805231352, -0.0743968359419384, -0.19927553077006463, 0.1733206120870125, 0.1724222855296608, -0.16493678713196167, -0.08857824837270448, -0.005183267145404874, 0.0406265425129661, -0.12548035888530654, 0.18609141783962385, 0.05592937359280057, -0.0819974782759138, 0.17882031716111788, 0.05709827002094293, -0.07638675216313906, -0.04467299413673868, 0.18890710837732108, -0.18722145862174686, 0.11813142258835592, 0.10849023044240495]
[0.1099706846841459, -0.3213500971414869, 0.05801257222122468, 0.10044673490664882, -0.058103512967140836, -0.0057498113463068466, -0.13873729523549178, -0.09364281104439694, 0.09730480306070445, -0.04178627846542321, -0.002482927413909193, -0.13535255866156956, -0.07268615091366203, 0.03868422009048163, -0.057676991548957314, 0.11720720988297616, -0.035943735757924096, -0.07543503215896888, -0.08230008555953386, 0.12603543403108747, 0.09542929324341735, 0.18097029228622682, -0.19600023896191318, 0.14177065092625607, -0.017279599841121193]
[-0.12694900792675978, -0.26161230368298766, -0.07000554175311494, -0.052813135815989336, -0.032837288042075405, 0.13906464176583555, -0.21807209192112242, 0.06311700555625055, 0.11502887644936471, -0.0983454308760938, -0.08315852142814802, -0.10546333408140944, -0.10671118654638001, -0.09059224929032132, 0.0716869521365509, -0.10241363850389697, -0.17865703375933686, -0.07706528245374086, 0.12114605616426233, -0.03798855754997143, 0.08401419374245805, 0.17562281052139123, -0.111056288509271, 0.06801244987413903, 0.11604051805630097]
[0.04725217403580703, -0.28255223149393754, -0.08990218739626255, 0.17897289813985692, -0.10904346885462987, 0.1126145754593363, 0.08461714904694558, 0.07628342384158268, 0.06285206837552189, 0.07641445489807358, 0.16022274871462852, -0.17264620847537102, -0.1623194539201464, 0.05648042435344063, -0.061443307200527514, 0.00808571560022339, 0.007751268438761907, -0.11949159595053715, -0.17253253026830978, -0.2005573283112934, 0.057662536731360466, -0.1675675012871714, 0.17670938626776242, 0.24329612203797826, 0.05839407431589221]
[0.01908694840181344, -0.23595663398959185, -0.01757638161138443, -0.08039635207527733, -0.06652837274721395, 0.05716517340550427, 0.1292489155858829, -0.15525329398319257, -0.1314294515846492, -0.16047345793710463, -0.15806556856369694, 0.1457027316055908, -0.021408187182573733, -0.13743460321089054, 0.03280568185535438, -0.028762893283227616, 0.12087748604399322, 0.1347494742586574, -0.15316263430978178, 0.046250080708277505, -0.06844795090736273, -0.1929428849015289, -0.14585141536562365, 0.12814379340189874, -0.08958037659311416]
[0.2391905199931539, -0.13054477255035118, 0.08897655800356037, -0.16786658305578042, -0.039810310929147726, 0.06522052916932898, 0.11359319678690348, -0.13628294552791181, -0.07104771876425187, -0.057936095351348554, -0.002285634818783198, -0.005686911182675006, -0.10290197798377344, 0.14639680819874934, 0.22089855828182436, -0.06947496455599302, 0.06223956593001822, -0.01509255890351918, 0.026293699114778222, 0.07337167464574584, -0.06839828887521766, 0.07202426121718737, 0.08882397105484502, 0.19082176357221062, -0.15989464984225202]
[-0.07198990216671802, -0.0953900032521863, 0.01331630432578476, 0.09907858611529671, -0.01955038869616747, 0.14269803756935887, 0.08781408306143064, -0.034168360519160994, 0.10459342649468278, -0.06346151532793447, -0.05342590481328691, -0.024942816222615218, -0.05056251302865623, 0.08687220004839764, -0.12002292345890647, 0.0848104789522331, 0.19816672200535793, 0.012027938349100261, -0.1790723064798558, -0.12640992996372888, -0.22856849979355573, -0.0936733570936731, 0.09478041916303963, -0.14377776087686472, 0.10114462480217828]
[0.1760890800568708, -0.18848527138036364, -0.12937140891575516, 0.15785297753308922, -0.08147686879329809, 0.11119423807580552, -0.22557351309801113, 0.15752411274671418, -0.21519083481832785, -0.014367931498044216, 0.17933524227213482, 0.13583669170586915, -0.12315559815959333, 0.16090246019925578, 0.012808085139080614, -0.005396521274883736, -0.04239174723720903, -0.03254408526432721, 0.026087603838140513, 0.10512689000474987, 0.013995634727719012, 0.11038602534274383, -0.21642383732038206, 0.06394562837510068, -0.10931540389029457]
[-0.12595994490044976, 0.09949615680156422, -0.11876404555542765, -0.1538871691540899, -0.14876348680198878, 0.05045819566767466, 0.014543575510322263, -0.03198047879821724, 0.016635949664383535, 0.1211903325393004, 0.15684491510146514, 0.16082581321357256, -0.21693993758683747, 0.18545133471635572, -0.1298953649435281, 0.05672943002532041, 0.1834351817468952, 0.02476814470022375, -0.0386721970394015, -0.07438214908822882, 0.10415396305041369, 0.17233834710396922, 0.029240824932220383, 0.13233125383162378, -0.11260436734580638]
[-0.13798381770463167, 0.13704872302015508, 0.05785458899463984, -0.11960395671740096, 0.17447662254610072, 0.037035621976366305, -0.09574194301328248, 0.1264837764344033, -0.1848511540512864, 0.07160854378718368, -0.11571027143335028, -0.14959642335622098, -0.13029288610640244, 0.12294695693545009, 0.1012337004932173, -0.03463041145868509, -0.12436002052993929, 0.19018803249779384, 0.10019999781115572, 0.06697036764780194, 0.06838851322836773, 0.11141313991329171, -0.1689393437267967, 0.14449644065727585, 0.08373513534082407]
[0.11308705931796721, -0.0502685144851184, 0.07053377619644673, -0.18788551392811506, 0.08908727810813415, -0.09119389905624628, 0.0875409035490281, 0.024179593270972185, -0.012081612535330907, -0.038802537825334084, -0.14816996896922235, -0.1826315849847354, -0.22493450014030192, 0.1400060945732417, -0.08678893303312644, -0.1498936292231301, -0.032440229549066606, 0.21020993511275302, 0.14848444452774862, -0.08314394283466271, 0.0766404975458792, -0.1642774783722503, -0.06413807605786688, 0.059424859864087826, 0.1451140399410001]
[-0.1745522821817236, -0.07454099108264155, 0.16628017560113262, -0.2239380684967024, 0.02801333196405704, -0.02501875295897133, -0.0055954915247275906, 0.057124162536571224, -0.051611190280326534, 0.10428698991794616, 0.2087042417519201, 0.1903149100441352, -0.23089947639823288, 0.1678610664976385, 0.20933458215166603, -0.1267216377426986, 0.1905971030242735, -0.13281655578849508, -0.12248117485523646, 0.17197045113487247, 0.08367635032422044, 0.032446156508038164, -0.11617394522165155, -0.0668302263105953, -0.08806298020047691]
[-0.2012968076331008, 0.03887609124162256, -0.1867668565894209, 0.06317398625092265, -0.1857068296885673, -0.173071762198531, -0.11574880890186082, 0.08414936157261221, 0.11819201293922352, -0.050077197579979874, 0.2056396910325065, -0.15043366474577666, -0.10541955677906863, 0.12629201501293172, -0.014889084086071385, -0.10806113279622259, 0.04606908994081597, -0.15942154976906536, -0.05585316658766446, -0.1088110096866765, -0.1134174361161693, -0.0049371728854669715, -0.028140174069633043, -0.12805422064067493, -0.12238328436328985]
[-0.05344473150797284, -0.02375633612959032, -0.017414457106684406, -0.08230164633109047, -0.17749924228754288, -0.08206212479433303, 0.0240115556760913, 0.10432540533823655, -0.007964516260399429, -0.19215758350630935, -0.1422050327876758, -0.136584494568892, -0.09675953063802747, 0.0636087683164256, 0.12260917262301797, 0.05015465444728199, 0.04262261492079647, -0.04621960872352499, 0.061622891630537524, 0.08014890628295289, -0.08262957189890457, 0.1258639488000632, 0.060075980653228576, 0.20405544998413044, -0.06056191303175418]
[-0.07472274034663971, 0.11917600955231268, -0.19587892490147754, -0.10220008322465716, 0.17313404092082746, -0.031690881124744205, -0.022001244786484648, -0.12422629883959826, -0.1811207584788273, -0.20636175443190963, 0.002476850773798407, 0.06357806897656308, -0.041308637443195295, 0.04636227195157242, -0.09851752091034613, -0.13981579510758121, -0.04037893687631457, 0.18987732865518045, -0.13085586803910942, -0.10131536819443994, -0.047999561218991266, 0.16421272009796817, 0.1355568429260281, -0.16172379742891482, 0.004825470693882085]
[-0.12725431801588896, 0.06370114012609701, 0.09754371850643023, 0.09811231275564632, 0.05851959090653507, 0.17017894115922783, 0.0742323642579036, -0.15996723451407907, -0.1925134217687488, 0.04591826610172664, 0.0425173609827241, 0.21265102903536093, -0.20003129217259247, 0.006029691219168464, -0.028457582028781476, 0.19255746099539237, 0.010540933411549536, 0.17689976289403148, 0.08139813214590405, 0.18950981807439923, -0.0020378735923958125, 0.1884857629759753, -0.1753538014980326, 0.01303579539863615, -0.025691346707003574]
[0.18922646579114052, 0.03150883807121073, 0.13477007702022828, -0.0010494557790986538, -0.008744496665902388, -0.009996826207969893, -0.109936989938546, -0.1011275119242318, -0.12195686976139584, 0.1355455491141614, 0.046646407845509136, 0.168836300640484, 0.09064804504193928, 0.23112993950423036, -0.05208464249933916, -0.022928295784155915, 0.0701358633353527, -0.06283202062569294, -0.14186734713715296, 0.09467277545964232, -0.01661500599624836, 0.011266106142296471, 0.04166746862750252, -0.11574171393777523, 0.11839762180405548]
[-0.020047747690474328, 0.06986631373272106, 0.02896216353298522, -0.007264611799031327, 0.06665862898207449, -0.1284232123479343, -0.05997809870905341, -0.12892803252594923, -0.048948544462249825, -0.04433600433175929, -0.027532977869333567, -0.014810687321367049, 0.041553408447392574, -0.15566379831485097, 0.2317939579240323, 0.08748388129720881, -0.11724552659851548, 0.029539668292359985, -0.1657165242412502, -0.008686058036555831, 0.0388950473102679, -0.03527311221575903, -0.11625432232436919, 0.10961402386992303, 0.12323812866139576]
[0.14756808805601837, -0.04726272370999156, 0.1307290416564119, -0.20277493536398317, -0.19341214208684457, 0.2295475778587063, 0.04995952598229216, 0.04327188047875652, 0.02341480928174097, -0.1244466492062285, 0.1881889086809089, 0.1639411412141867, -0.053845364364991766, -0.07385705512109336, 0.114613968241464, 0.13221407057621237, 0.21737761006058987, 0.12077883451340936, -0.1611299725948284, 0.18885096458819484, 0.10143814033433696, 0.031191297270610496, -0.1073150813711702, 0.13347814078106104, -0.012694196822981287]
[-0.16945513802006484, 0.009970536962689493, -0.20361586308624138, 0.06373877717190043, 0.10817061941593087, 0.128677274811414, -0.20437902246106907, 0.03510223818834635, -0.045737683108676735, -0.19673916581318499, 0.18653679069261983, 0.19977641102800806, 0.13551482527042458, 0.050271544119169086, 0.19052858832175482, -0.07952418718822993, -0.06433624248462799, 0.17022436301697652, 0.03903677574830631, -0.11514027344128207, -0.19464783718323933, -0.10920023801171347, -0.04939900417220714, -0.04051413149219083, 0.030111604300321455]
[-0.11016066542354785, -0.17485138765152325, 0.14391026106435614, 0.013269007945379807, 0.1642082437727011, -0.08740421699676154, 0.11314221684973585, -0.18708909961373069, 0.014309566468799885, -0.05602528740082617, -0.11941686125881942, 0.14120112081335673, -0.12479022073505612, 0.18780362898958616, 0.11854208281334416, 0.18318422296137477, 0.16732861261171614, 0.12309940300823934, 0.09678392043387338, -0.2047916327631002, -0.19346053206656552, -0.116608850461405, -0.01798932663949509, -0.16340846547564317, -0.21563946859402316]
[-0.027266566076411248, -0.18421087652338622, -0.09322037773494071, -0.16846124118263942, -0.15985263808129138, -0.035370536604466846, 0.12011215119509785, -0.09804840570905396, 0.052988881640280296, 0.045000346654800384, 0.10220291795654385, -0.10931271039366465, -0.08803293122378064, -0.07274428170598274, 0.050957824496964885, 0.2245224496696351, -0.09185369394451477, 0.03155378043485222, -0.17131086856356617, -0.05609355280575409, 0.1298312885982819, 0.16496878051786193, -0.22056158494490005, 0.16714906896377252, 0.021538215278539684]
[0.14283923017146324, -0.01633069712883988, -0.05654528380738087, 0.10349894685512129, -0.020892604785918752, 0.1421347504963621, -0.16292455698707942, -0.1619274766427716, -0.03821792109185627, -0.11766751953807827, 0.03641968702400256, -0.05615527720244698, 0.13042927179907807, 0.09879406241461432, -0.012800166782221057, -0.11505259164349076, 0.10697014410617703, 0.03166285649296156, -0.13632389329394656, -0.19192596374775078, -0.011187628074915522, 0.009996837169140547, -0.030962184361661947, -0.002666324327427764, -0.0732522865176625]
[-0.07867921930029809, -0.14199655869317454, -0.014499520348509756, -0.20353253571226787, 0.03749220757709026, 0.13883338288325936, -0.16207351011767235, -0.10904754250871619, -0.11951763267924925, -0.005085810224939516, -0.00613802114864711, 0.16827573170077847, 0.01062459649725973, 0.016570018897295376, -0.08041788350289492, -0.13423777866143738, 0.19202353166595157, -0.14393650741772734, -0.14448747288682662, -0.12994309944716326, -0.03065697686742664, 0.059968039069969635, -0.09171878716488878, -0.0008583738492947042, 0.0011867048542934398]
[-0.12517433376858703, 0.13289374183507024, 0.021853842972721454, -0.004271709834505768, -0.2200712934211063, -0.025402726842414215, 0.07191857398742746, -0.10734795133552047, 0.04069490167223843, 0.14173710509082924, 0.00402692665068155, 0.015315966364783265, -0.11158624876259313, -0.21272040628530328, -0.07320825980149458, 0.019520722578784736, 0.06028174471429006, 0.15072354395406193, -0.08064228152905926, -0.0768466725478124, 0.02781008682530532, 0.07118748440009987, 0.02254409584728411, 0.19586730565336508, -0.21297951458706643]
[-0.1582669785584828, -0.0010006097882321154, 0.006741768619961161, 0.01686675110349102, -0.13124256971539602, -0.10556716161758535, 0.12852138260219503, -0.09501139752813303, -0.20729607204479353, -0.13975343549980818, 0.039851835171803546, 0.057098549260799165, 0.1114793972706177, -0.1696008354070953, 0.03592955942542569, -0.04478281628416321, 0.11322750284702753, -0.04017081911207331, 0.12629232077326022, -0.1336049769858148, 0.13785199684373503, 0.014430515031192508, -0.08356524785696098, 0.1291913170638944, -0.08077191863340143]
[-0.18695278343648097, -0.012739246415716238, -0.13676295373736438, 0.027317831429644862, -0.010090848360291805, 0.17624721845986574, -0.042219776238751415, -0.1328425836712283, -0.1525939141418205, -0.030560466150807607, -0.05056110626301415, -0.11663393554958804, 0.2122352748915727, -0.18224341193215338, 0.2003045505132618, 0.04137934499404658, 0.20341095830372596, 0.15099530788026952, -0.08072986644772018, -0.02223738357835771, -0.22876773735756906, -0.04552454765413946, 0.12776535564983324, -0.11439556134555036, -0.1278385759811785]
[-0.18782978843131742, 0.11920304912391909, 0.011831349383427652, 0.0007862576192076865, -0.0362022734521437, -0.04813997231086399, -0.011625309387440415, 0.0790046821639235, 0.11113455170576717, -0.19942998678226823, 0.09567706135359803, 0.07876164576197893, 0.07999457235170308, 0.0583954320456671, 0.04602681305333615, 0.2062745631464024, 0.09528090670054866, 0.06608958851903778, -0.19609324529497998, -0.1542419321980251, -0.02242440832629918, 0.11592562557766772, -0.1701037777265074, 0.09647501493960978, -0.16792818137466778]
[0.0998211493462383, 0.13008821579172264, 0.045726447649250414, -0.1759759872459215, -0.09151753728691563, -0.08911470081417028, -0.013482956663436728, 0.109937179283908, 0.03114560477229223, 0.1925414033499095, 0.08836793154127039, -0.14275793695909977, 0.18530618425925582, -0.17003924265076165, -0.06300426940346093, 0.05932917700269896, -0.040714633975452844, -0.1894208443262734, -0.082261965707979, -0.10451321095490475, 0.10580758032184691, 0.037658695725642594, -0.1424358562442036, 0.1524578828568822, -0.11976270369335258]

Output weights:
[-0.6914138983385764]
[1.4148187753967365]
[1.0595793064179897]
[-0.8351336770210682]
[-0.29720151807516915]
[1.3154587228556003]
[0.7903331015621708]
[0.8561669096760531]
[0.6185975182572114]
[1.9427769854890593]
[1.0927156903799475]
[-1.3792036051413668]
[-0.16849606702723607]
[0.43809835425205523]
[-1.5844694285412109]
[0.42131219239051065]
[1.0279898643936212]
[-1.3455365311850132]
[-0.5245261972747153]
[-0.17494595249386904]
[-0.6579237690724355]
[-0.028009697615854173]
[-1.7712041269006358]
[0.5350250993409289]
[-0.9253852159098995]

迭代百次:2
Input weights:
[0.1051756054307526, 0.08649801773182711, -0.008221867273172515, -0.12683958041698654, -0.0080527973352793, -0.02076877360666326, 0.21754246534983113, -0.10759568976384344, -0.014019674779354821, 0.01209811948746989, 0.19673663830682347, -0.04285455265136957, -0.15402921680600887, 0.18996152329454463, 0.09122663397496183, -0.07937168862838118, 0.15133721502052064, 0.2087639432317191, 0.11550940195533628, 0.1425795626530693, -0.09989844045611092, 0.08692999567295508, 0.15015514913437222, 0.09810130423208974, -0.08209400540602999]
[-0.18433217309027586, -0.04687748212211134, 0.062442548438603085, 0.13522865882405663, 0.17460362373117425, 0.007832360931661645, 0.23725826042510081, -0.11819271020639881, 0.1171756218354105, -0.004006065302290461, -0.15889084723454072, 0.0504409271727791, -0.10290596606258855, 0.21201898985475243, 0.11014444741780807, -0.1938344228102544, -0.013788144632648524, 0.1592687583592693, -0.11154252837703897, -0.09043342561315396, 0.12417604311482486, -0.13033805889265246, 0.027649611995794347, -0.06883577015636566, 0.11484033146936762]
[0.06857789185154177, -0.029066700445680986, -0.15686705358876157, -0.10444372063694073, -0.006816438327738026, 0.19416887559802573, -0.06032144483152223, 0.0005852820210246617, 0.07893771811321504, -0.0023793502679508626, 0.15951925082323415, -0.012679940092453323, 0.12022586726405854, 0.13782983643756794, 0.08019871414890369, -0.017509828424296235, 0.02973116592263901, -0.031585000148254334, 0.021951769431987664, -0.10351101458723781, -0.1542572746943512, -0.12952215382138646, 0.04117621470402939, 0.09120610883192917, -0.08468751771519839]
[-0.22215265695208525, 0.11114927612509502, 0.16529201943711652, 0.14031334638512233, 0.13057872091954828, 0.18074493536852973, 0.27374091137889695, -0.010647907829015842, -0.046449918300629854, 0.060912567643148334, -0.05982744669584998, 0.09607960245162481, 0.05950117124696086, 0.25149143271686847, 0.07520451768266899, 0.19866111802104983, 0.023756838520013878, -0.004346851457927061, 0.05455523445114039, 0.1778992269918037, 0.1344089651517886, 0.11331839579961517, -0.16960199068997367, 0.07473592570580025, -0.07335860436190814]
[0.01967595152919977, 0.13797117469271486, -0.09022873661257423, 0.06237823082506421, -0.16193279824554832, -0.08876815203830007, 0.22205876237382194, -0.09315067451383188, 0.12492809839008405, -0.18185478574817748, -0.10862501184407804, 0.0468098944802339, -0.26073088454051474, 0.1176963254814911, 0.2028227142279531, 0.025890693709915952, 0.06501819847189884, -0.17158570708577534, 0.04500279872274781, 0.020678001240328196, 0.007665219277768156, -0.0473202454750943, -0.05678601656388105, 0.2131531451694689, -0.2533795326214257]
[-0.20816237709398633, 0.15319803466056636, -0.12384100453060429, -0.17846942850659692, -0.12279926604053092, 0.141566538987387, 0.2695668852364411, -0.22320322951647958, -0.030178070641860993, -0.1862077139488937, -0.06549505010445972, -0.1680650880118356, -0.020571481318533574, 0.022035814661218893, -0.09006773715288552, 0.013994843506466945, -0.18679798969879524, -0.143361097557, 0.18657190364229775, -0.14141033977252704, -0.07429289862481356, 0.08856991786016963, 0.13274491687323964, 0.18131180589428275, -0.2000204090161429]
[0.06397088200264643, 0.1478633230435694, -0.17556104590298188, 0.04992205542252491, 0.13840581391797296, -0.04457063055803063, -0.02351186937705062, 0.005983646797524375, -0.023352525394850783, -0.1607850857312703, 0.0114545590439481, -0.10920844470897485, -0.05137037396856652, 0.07419454123176451, -0.03851953996714403, -0.04384030418702416, 0.12619418375487723, -0.08533228720410235, 0.01881855955651773, -0.21718261179339848, 0.08121224285288758, -0.06967436792178199, -0.17778011189695886, -0.06805103333326602, -0.15780409389050656]
[0.1770201679727024, -0.09302180217700977, -0.07812418564773897, -0.08001609712817047, 0.17348555056654127, 0.0739488027155847, 0.1369823360725906, 0.054489182733668914, -0.04455994252972831, -0.06642356969830827, 0.08123194517477136, -0.2686636944278137, -0.19191031694093738, 0.02217896134686928, -0.07174228943739881, 0.07127331007867421, -0.056630921935721966, 0.1693787371378309, 0.022433618657705025, -0.05771277924793237, -0.05270238586356175, 0.07789981942109418, -0.039796514296762245, 0.08127522385236442, -0.23044742676707444]
[-0.03017497519380508, -0.14362067106728138, -0.12519227774796007, -0.016690627280517664, -0.013181018029024478, 0.04573211290417172, 0.18961140340601654, 0.12192590199927528, -0.0036043842019433266, -0.10666056174796451, 0.010503824401776982, 0.06030996248599394, 0.07499865901010948, 0.2133919095452203, -0.09348704747393922, 0.2123943052950112, 0.04741462843613729, -0.14822209198034597, 0.08525221635068937, 0.17192355492273131, -0.05287364105682485, 0.0690000226012124, -0.07689981589919173, -0.09561429539782842, 0.04117975392797241]
[-0.19097370955296128, 0.07659026857195958, 0.012914902907447002, -0.18925719408283975, -0.16403789257258428, 0.08033663212350636, 0.22170228436713055, -0.12041879351786167, 0.18632077804412275, -0.18994625235849694, 0.15661923163114347, -0.09753939732206995, -0.22971855390627488, -0.020421790984683556, 0.012693686895431593, 0.12558809394158024, 0.13656385926706327, -0.1296862719225956, 0.002627808850316192, 0.03782399357743936, -0.07172724616839314, 0.1459043225150857, -0.09087610880226071, -0.1729477954279621, -0.22410382211630817]
[0.08474360429351405, -0.006389840590630609, 0.16696528102116628, 0.14414049777879262, 0.1583521599586597, -0.15814077699889925, 0.1614855396240087, 0.04981071038995029, 0.04988975794279913, 0.05060961431866869, 0.17726834874445685, 0.0020271428968420446, -0.10355980131960224, 0.06964522187190884, -0.08745732297071176, 0.03611937032531497, -0.2023224661053559, -0.12111481127675909, -0.07219122092744912, 0.09477163033354372, 0.07615396007764205, -0.06835881145899263, 0.043978683795639247, -0.17114180678323226, -0.1745251903893768]
[0.2041822052828962, -0.13018356090458869, -0.04794172824728943, -0.01084052322582692, -0.08193998804767533, 0.012196947064655054, -0.06023544901154804, -0.2113590191924111, -0.14380163997391424, -0.022680776828066334, -0.15429502105169585, -0.08741357021946031, -0.12223285433941543, 0.018954619412987633, -0.12934944015512564, 0.16655826808349547, -0.015036225277290063, 0.15329279486616734, 0.18588631591551513, -0.0835681624448882, -0.01889369601624719, 0.075033633110374, -0.02674807779405688, -0.06642735276392515, 0.04974151382463629]
[0.1618642635322812, 0.10493782673122949, 0.04904385129407394, -0.07895958427264671, 0.18903942239340774, 0.07448774344659569, -0.14503894066947143, -0.19853378716187142, 0.08364733050337199, -0.20501426807540532, -0.1828230337097227, -0.09184731899913348, -0.049875484496851, 0.02295176878579758, 0.024179054390161568, 0.03672641774122761, 0.0670838521657665, -0.011053999647028528, -0.05690687687498266, 0.17286335792286736, -0.10756766994073146, 0.10826453727825208, -0.028358631571014186, -0.052045092018629974, -0.21351648501072135]
[0.15157276755797433, 0.024691800232115722, 0.17263982843084816, -0.04809611474471435, 0.060434627161705945, -0.13064876151367963, -0.01250010541343128, -0.1512051423465923, -0.20045308473603587, 0.14886080844266908, -0.09655916902493475, -0.19940747967181702, -0.17445197993197462, 0.004527906111407084, 0.04626728140660998, -0.14229559122579874, 0.18920308946389494, 0.21828426392857816, -0.14460867205307346, -0.06176610853746527, 0.06074874744596035, 0.15067530873677035, -0.011897690111934516, 0.1704492801960693, -0.1094415750991279]
[0.025899646685577794, -0.041743258509298685, 0.07517726626338266, -0.15077940668696574, 0.03350228175605652, -0.08864237969192815, -0.06457172707938996, 0.15130936506349002, 0.1428207876566407, 0.09637434812420577, -0.16690818864360568, -0.20100042949940944, -0.14576543573775308, 0.1654325925278022, 0.16445131261470958, 0.030168472589627057, 0.08096987379102959, 0.14586034802085368, -0.17878052287866372, -0.1890547595849312, 0.13481603356753238, -0.18568067331369714, -0.11924102738571073, -0.1668875230171419, -0.22417932763445042]
[0.16176327450683997, -0.1370332110808276, -0.13495055775146123, -0.16631446158246246, 0.05517819169836373, 0.2052788352832685, -0.017330662932159704, 0.12805492739646313, -0.017761188633702532, -0.0012049833398341137, 0.08841062418299428, 0.07174805566309109, 0.059845099490396604, 0.2432266096320258, 0.12596321008522451, 0.15802208782667235, -0.12135362505334994, 0.03665509742233933, 0.03660221776895494, 0.10840698350673876, -0.014387482519321194, 0.11685860789472244, -0.04913023060621508, 0.053924745758708946, 0.10714360736451523]
[0.12381691191825582, 0.00955662667985724, -0.19282694716407628, -0.15487814652353044, -0.011305343794895105, -0.07590537633661423, -0.19937275621913325, 0.1108096411234616, 0.15662058038996873, -0.11219194376078943, -0.02056074327527924, 0.06607194952484004, -0.20574912118168354, 0.1245517656439561, -0.12453449435438445, -0.09496078773627716, 0.13035051966333858, -0.15448787588728632, -0.18904610298928667, -0.0572227688643516, -0.010642049609581886, 0.14701462001604498, 0.08588306479874908, 0.09401040698969289, -0.17666337748218622]
[0.19877803097309385, -0.10308240548902005, 0.055176708423969385, -0.07378959468912376, -0.19908221207679067, 0.010963150159935483, -0.16057513698865053, -0.22427838531560285, 0.029166673988648997, 0.017953886920985557, -0.143851468681413, -0.02894231911194538, -0.08364947810518343, 0.01520051117932946, 0.1332217025460426, -0.014707732936805294, 0.15260509511416112, 0.06840006321642107, -0.01660094004335668, 0.02901161706181508, -0.0744991811772387, -0.14870612001249464, 0.06669236492160556, 0.06424604351806833, 0.08419201390056712]
[-0.15781803797298358, 0.05892956058630869, 0.12328846644370105, 0.14473722301419353, 0.13558379211150984, 0.08920797218581923, 0.10251540755882095, -0.028888611808873012, 0.10002322997933132, -0.15944201206142847, 0.12900437116555968, -0.07135760690612891, 0.07605270563659769, 0.05108205330836723, 0.13880582435077982, -0.17215481665017007, -0.17950335860350583, 0.19678757975754674, -0.011093426337655095, 0.13649416631542377, 0.1647161525615828, 0.06744653501752937, 0.02583271604295559, -0.09364801321697665, -0.183012474247595]
[0.11421001742705576, 0.0540030433933995, 0.1059870955707256, 0.06028864888663878, -0.04419153287925623, -0.06406103205415972, -0.17113782297645255, -0.0639877374181272, 0.014609844475532801, 0.1314237879717793, 0.18808409377391816, -0.07347839419860108, -0.19658465376381304, 0.1756324975327614, 0.11744166840238614, -0.18353164356513382, -0.02148293248611783, 0.09791918867110538, -0.19202034466535012, 0.14336011930601616, 0.17485811704150228, 0.09097807953401382, -0.17104821046854138, -0.1493733642642648, -0.07141786802400783]
[-0.2152608718116336, -0.18997425173983534, -0.20515957440502355, 0.17291013474048667, 0.10695215483412722, -0.17162291722684234, 0.1712023553701332, -0.14994134395919925, -0.12994958258270561, 0.03199285420589615, 0.18275056799332154, -0.18770297403545805, -0.23898957396878273, 0.0017111064365338971, -0.16930095617630317, 0.04498892061221133, 0.1421157883471165, -0.10200491128939129, -0.15913553312545164, -0.0851667352615409, 0.17462898559883513, -0.14495854207082334, 0.18721991894917467, -0.03887387641894464, -0.026389207552874158]
[-0.10658587377653408, 0.0312007001803111, 0.185131838755419, 0.04001803718042642, -0.14578166923419364, 0.19444825784457384, -0.14214709107288598, -0.005113307452728478, -0.14519327444771002, 0.11990282997425748, 0.18660720517889634, 0.0753246697979916, -0.10312305153494804, -0.04865396691471681, 0.1262878981671409, -0.07529895337322472, -0.030492679199544067, -0.16029076813246873, -0.1505953325535743, -0.2141405340424813, -0.17703102865931705, -0.16875869306295044, -0.03433799928411206, 0.04253363051621328, 0.07180685753903909]
[-0.176901131714311, -0.1571949925387712, 0.06686390838598533, -0.1813784243897766, -0.04650623475524293, -0.047251099488845115, 0.21143597763590924, -0.21818565946626273, -0.03824650259511589, -0.07665966855197487, 0.10442111153848789, -0.12217891435191612, -0.1636196648016083, -0.024450053605736766, 0.014629754110968354, 0.20349878695060167, 0.13013919438060798, -0.06957049937514556, 0.018868699710529548, 0.049988012518470015, 0.103501927688618, -0.02192655644842674, -0.045587677167920046, 0.13106949555402175, -0.060569355116188495]
[-0.15087657897216608, -0.12999101257375617, 0.19391203550785727, -0.1646716117206003, -0.047464143235452394, 0.05999916451038126, 0.030497614598905924, -0.15930792752897743, -0.1983758480568663, 0.04058880230483148, 0.06352599768142907, -0.2550059618114264, -0.14286826053552573, 0.1917660412177208, 0.07981210046455232, 0.04660416289808001, -0.11955171579456152, 0.1031504537123146, -0.01602095074779861, 0.04789064984924678, 0.08357022242052385, -0.10696686072795493, 0.0917590398588843, -0.06785161193897854, 0.1640342389586127]
[-0.20163450552756187, 0.04768902493056521, -0.1540939585377997, -0.11994645459896698, -0.026228594554035388, 0.04120699542392778, -0.007783914441196027, -0.19878802300549095, -0.09842013719690913, -0.1267948834016271, 0.11779416329235544, 0.08513143573170041, -0.019567728811721714, -0.09334366589521914, 0.14591128360809444, -0.05155014879570355, -0.0435036466853425, 0.033348351941336486, -0.10442537526932373, 0.14520693697225226, -0.15648022379240958, -0.03264527970162931, -0.09863780658065535, 0.02765022769428835, 0.004477966561326412]
[0.00976871935746423, -0.0920676737463004, -0.01767986837431764, 0.02640718248733306, -0.07416607173653271, 0.11578679243633345, 0.13962353613000067, -0.12251358215416908, -0.05232848584485273, 0.00990357661084614, -0.12550502613809258, 0.010298188042343758, -0.09769288754504139, 0.11841626731933942, -0.11632673590377979, 0.08354232198267884, -0.03739278222532947, 0.007241351093854876, -0.03709104206545054, -0.030602744306482407, 0.05307217888745557, -0.07273783079370019, 0.05413659427891262, -0.1548770754892776, -0.10477089353786856]
[0.06078286033529386, -0.22627122807799005, 0.05368224856697324, -0.22016775860270865, -0.049833050226490636, 0.1643073517877945, -0.15986067681651728, -0.02878793563445314, -0.17113993715016573, 0.10603629286084473, 0.08880285301131885, 0.03625286106767285, 0.023890512805974973, -0.12356111227279266, -0.15551101209990725, 0.07004286682457639, 0.2262248281880668, 0.1678429446098399, 0.07397865146184641, 0.06859551143283366, -0.1379414177196721, 0.10007634211957507, -0.09767396410502927, -0.13326276198478365, -0.03348713541353255]
[-0.10074459764446611, -0.16341166179988936, -0.03421764743512472, 0.12378666119081834, -0.07349839932672438, -0.010998719605576168, 0.12566192071837137, -0.03266168922492228, -0.14660755765272077, 0.12508411608983613, -0.007272806810640168, 0.07764867763197235, -0.08647689558591737, 0.2020286375011172, -0.016315118817309567, -0.08372058344225682, -0.09106681538211041, 0.19601495684923728, 0.028730684453038745, -0.20028557152332888, -0.07452735476642808, -0.1061679290122126, -0.18018089749980387, -0.10378295237268323, -0.1916168202396923]
[0.010548072201070109, -0.1674814826355179, 0.045921698793042885, 0.004328264652169246, 0.03718969427243942, 0.024169430594955535, -0.051238811496757714, 0.10851183637238304, -0.05419175293018571, -0.056396613973772464, 0.06708700447846079, -0.028614770195590285, 0.13624036909694265, 0.2670083549230491, 0.20231758564288352, 0.20270450858144118, 0.06538374057301131, 0.018445893979316865, 0.07787306967515213, -0.13376434201076323, -0.12679878031931494, -0.18164747857704147, -0.1496422481185305, -0.17272805975339287, 0.0378749284164114]
[-0.17137787197657717, 0.06398097827166147, 0.07656065332605694, 0.15048480673309125, -0.08465123096703327, 0.1848082089116362, 0.01499780112114772, -0.0999104648997865, -0.15540348997445316, 0.11703589473141209, 0.13409286312424035, -0.1106278022194933, -0.06978144009273317, -0.0011211562688835399, -0.15689963773492774, -0.1554006165274123, -0.0200933037212645, -0.09547664308372748, 0.006426507282743649, -0.1451786455993778, -0.14799352949216937, 0.07040420818954768, 0.08331615245158487, -0.0584539711855001, 0.12355287799981601]
[-0.13252509679306992, -0.10064098636203823, 0.08157364394962766, -0.22604021212883108, 0.12853409173551056, -0.15688130363979552, 0.026680542966768188, 0.05013103715325734, -0.18032368009068617, 0.08996864728747898, 0.2075061063147355, -0.05421039336157334, -0.20019165557246837, -0.10697558019296985, -0.13135345556219066, 0.13328050401104072, -0.0022196796693917833, 0.19170096809625278, -0.026828053580145672, -0.1902994040631367, -0.06069356478985819, 0.10298350894362601, 0.11747631740668543, -0.15659448034863988, -0.14880357269905622]
[-0.04685269658556166, -0.17424229629617438, 0.14894581072304192, 0.12294932891804906, -0.11211796789657551, -0.012426023419916502, 0.07257265865512853, -0.12523347897906242, 0.014870612969275946, -0.1572124465585386, -0.06509240232908799, -0.07933297663213816, 0.0032137990078085882, 0.06435598808641711, -0.07834450186619088, -0.0866991501329191, -0.11577208338850292, 0.13738945230835597, -0.16447032956272123, 0.06981520558848875, -0.1333957028320591, -0.08649333096905164, 0.07490691543063867, 0.09440527731003655, 0.07158066950873077]
[-0.040243421464584796, 0.08523826458145424, -0.15357028569838815, 0.008131963805908572, -0.1887524111653033, 0.11430954138968462, -0.010597077197128348, 0.03717602796038328, 0.06927332489525172, 0.03015635993196779, -0.08976124458729152, 0.06968130547749408, -0.15252127723659237, 0.07060816914058614, 0.09307145136381992, -0.08961134032835463, 0.09144572915531365, -0.05406796103189966, -0.13656749923695827, 0.09717120436106885, -0.012096021331335405, -0.06821135726860128, 0.017351215068758467, -0.16307808747023608, -0.18165029732945334]
[-0.09171795025967705, 0.12752683572744056, 0.0034083784241240415, -0.21656484303653384, 0.0687222110658239, 0.13326183289538243, 0.1542474820350252, 0.00015260470399432643, 0.061281945002871895, -0.14655105214205214, 0.11589403054105739, 0.06820289557665389, 0.052488558227591596, 0.0023826802708145087, 0.06011377259845044, 0.0651307717161554, 0.19802452701826886, -0.12473937019470249, 0.12897710816789285, -0.013580174364151949, -0.08873261177033864, -0.01652985234457514, -0.20708287830336472, -0.08648968437523129, 0.02659549205929188]
[0.01095154270248736, -0.06482314369809655, 0.1690448215473784, -0.0583315768755481, -0.10890998189557567, 0.16187991961967094, -0.06118070943806764, 0.024825807645530048, 0.06509206299781745, 0.09577691328804286, 0.1452766603828116, -0.10401505144237916, -0.21842808645368472, -0.1368088230873763, 0.11190310520249909, 0.1995759437365179, -0.02309230169818174, 0.0060902055880652055, 0.08610711634904082, 0.04015839330109686, -0.1322405113498206, 0.06963806792578836, -0.08907897845852326, -0.034224922825614276, -0.02279639221226343]
[0.036027980221890334, -0.17312938820222853, -0.21978819944885486, 0.0009010922789939349, -0.23574119865093215, -0.1585305618100606, -0.057625450940868315, 0.05755372309731842, -0.18490355675976458, -0.20872400120046664, 0.21993537009732908, -0.09919406618268167, 0.10515171865594308, -0.07593864947969711, -0.0037492569890906803, -0.03770099128032146, -0.08930722561420738, -0.04130433026769958, 0.18935280008553443, 0.07619418034192373, -0.08065227909578426, -0.03559714685533209, -0.10616672528189919, 0.02619301543373833, 0.047105789560562654]
[0.009043795679097114, -0.057284148790928316, -0.2187578783568972, 0.12434749220816489, -0.08862095557834901, -0.021284118068722904, -0.1383748735368935, -0.14675329967035208, 0.1326323313154723, -0.023410405869876763, 0.12331444920460893, -0.21319200536457408, -0.11064754861176254, 0.17134613685923517, 0.14833613516244526, -0.07488572407928808, -0.15099061755767765, 0.15087061712370878, -0.13589429219475488, 0.0896470503978936, 0.03597132956225123, -0.13209062105050215, -0.1739678975217556, 0.1751229919071313, -0.005837224459689643]
[-0.017669654018866304, -0.05173064086501842, -0.16938004567840348, 0.002140784010516606, -0.15246554423587544, 0.14883516489969673, 0.15661250351097333, -0.19300760943509696, 0.14803136456377422, -0.20831606115393791, -0.14219254211608798, -0.15955751667392815, -0.18306265483634704, -0.0409979862857656, -0.03761979147075001, 0.12826763148543455, 0.0015274948729934207, -0.05719144211711402, -0.008278324550789772, -0.06876372684804959, -0.1172117761889428, 0.16019863270061777, 0.019697224595920895, 0.20661047019050144, 0.06339684594010138]
[-0.012447342643861022, -0.10761884542148584, 0.050998417535100087, -0.06469466038564785, 0.03930615239570007, -0.00946802958464397, 0.06736427572667374, -0.19607680198236707, 0.08438587892191937, -0.20697641786556417, 0.09078601398819428, -0.041443423425043736, 0.06300216503062694, -0.001909834306086221, 0.08837616302000305, -0.08815767125521289, 0.051895713672732574, -0.032007369241763464, 0.1863441167542751, 0.16215079680666325, -0.15594051205934797, 0.026870545965147517, -0.07684108955464046, 0.2076240988598112, 0.12191484307060853]
[-0.03841007598851511, 0.07081155555610233, 0.055381808645809646, -0.10505540794940291, 0.11537302180959762, 0.18972248822198887, -0.0015862176313214396, 0.09489481386943029, -0.21010705696774087, 0.10383988854147044, 0.04259093422241574, 0.09620542920365367, -0.10965782081000883, 0.12756417817220025, -0.05407774079582927, 0.14923670527260366, 0.08041621927195763, 0.22408306461789795, -0.20549199512509583, -0.17139370571770365, -0.21950368083258612, -0.14966132700592874, 0.1683435353524993, 0.20374430713524747, -0.052431604998225904]
[0.12369984713728835, 0.12840326836744018, 0.08722031948272829, 0.05356176658087293, -0.1714293433201191, 0.05565804236937031, 0.04280794442524797, 0.18065340944879302, -0.15424638729657883, -0.1576700793342462, 0.0837799105617782, -0.22553637161129464, -0.20162733364794394, 0.05819173661759875, 0.13700185304917958, 0.07044115124198971, 0.14281022745313415, -0.05743671395800146, -0.09232915031669009, -0.05430243086382047, 0.16064842926198789, 0.08838768215059262, 0.16669932139424862, 0.03351857478176474, -0.03569383131755819]
[0.1372267419764022, -0.11472122923245655, 0.06565482369034281, 0.07529326391804583, 0.09792096951449882, 0.13516500790867894, -0.0629616466077231, 0.06224040470410665, 0.14339467477497134, -0.00893374182328695, -0.035928849204898854, 0.12359631994207256, -0.01428778841618532, 0.014377877074681448, 0.06277725056712569, 0.1442184268421111, -0.06575134921246512, -0.15828879778162483, 0.006081347963045933, 0.1532316914185967, 0.029939600867430485, 0.05407299383699122, 0.05002946177443625, 0.013773693288946303, 0.03549260930130286]
[-0.17342065442456062, 0.1659306494057632, -0.131572030339386, 0.13725805497322674, 0.1272055018015909, -0.13535466815329772, 0.061602763828835, 0.09048352041399986, -0.03862541849723035, -0.03141256176178391, 0.1410285461488036, 0.031673208177979265, 0.13507058330382568, -0.0712601430374886, 0.1886579459623996, 0.1949815584116262, 0.09741095055367381, 0.20988373963892804, -0.10554652747703604, 0.13007774622611232, 0.062124966386061804, 0.045530261487905406, -0.16664340636125347, -0.17204409768015247, -0.2508349428519886]
[-0.18621115153792456, 0.1123061597523982, -0.08847796305612295, 0.07261230372634533, 0.006683806822538832, -0.008236465191832137, 0.2293359235768216, -0.19325812262310052, -0.042373247862132146, 0.10030100926553817, -0.13265486762654163, 0.03530861297404213, -0.1101367823152322, -0.11847125625734453, 0.006931633281786923, 0.04193820124131609, -0.1435064347615876, 0.06317803096844704, -0.06743998861243146, -0.21886015013877824, -0.16207442189661275, -0.15349999014640064, 0.016449779984064904, -0.16340838378041214, 0.1234981261796647]
[0.056136957984745633, 0.17112880779938552, -0.122328576955044, 0.12261815739299471, 0.15263178814789458, 0.14096599837271903, -0.026458587656044516, 0.057556377577302316, 0.014893280490352571, -0.06479328511962046, -0.06301315215547709, -0.2032695705617548, -0.17280356183100792, -0.09263270912724139, 0.014800227584164707, 0.08434881341030973, 0.14537920918163327, -0.1480111648654778, 0.12317388586737306, -0.19918516045361961, -0.00991698954943043, 0.10144191115870045, 0.05321686427234378, 0.20213422964403366, -0.10468850491556421]
[-0.055621256156836725, -0.15063873244679835, -0.025769576416015256, 0.0883042683962776, -0.15522907392122462, -0.05968754727673743, 0.13580014445673907, -0.10703815473967838, -0.12299416128059044, 0.1473815377653154, 0.2219401590481751, -0.1602047312348382, 0.15028714771716353, 0.06301231810311378, -0.16139672393224447, 0.05194810291351352, 0.09512309127410802, -0.15117114548233482, 0.09624534911043352, 0.11111528492867599, -0.20361725767740352, 0.06304454045064818, -0.014444975695087226, -0.0811745927935961, -0.06445844975621214]
[-0.21200063814713024, -0.061723946930396824, 0.008592280169541208, -0.04299619251484721, -0.010555768401943489, 0.05279776963992917, 0.18834897399836917, -0.07300988941209656, 0.10104767130933447, -0.19502008755551983, -0.006870394164595597, -0.07214544984790693, -0.015301623920995405, 0.1538977615110406, 0.03550507023157753, 0.2119640082598443, 0.1824963579288562, -0.11429363648945667, -0.07665684367163339, -0.2035693720201022, 0.05590490317698726, -0.18783414543364324, 0.15770167673770805, -0.10371418594267394, -0.07396828092118436]
[-0.24608563374081052, -0.06942176347941728, -0.09058558584091571, -0.21439316611663473, 0.08020086790299658, 0.12378750832192519, -0.01583907694135363, 0.12237732855739372, -0.1982214622230303, -0.20791327524882317, -0.03303484155113358, 0.17876082458603193, 0.10099001073655688, 0.10689175080631104, 0.05236416272656353, 0.14025648250816883, 0.007585594950509104, -0.14545714323606784, 0.11718228904731713, -0.13468854006997028, -0.08289281084761153, -0.05282668233900759, -0.1600820789996522, -0.03168589177160115, -0.16150829876664574]
[-0.03550778963703378, 0.06454284640250828, -0.24196317807313306, -0.04920871675480323, -0.0011867383273115699, 0.1885769646013223, 0.043671467686946144, -0.18273040727370307, -0.2074767748410994, 0.11337760158656883, 0.1371797183560486, 0.17259888922001348, -0.09913027875058174, 0.09575717236952985, -0.12818729853525307, 0.14452875433292534, -0.025563229211624666, 0.22061652809256269, -0.013808344423449869, -0.19445056271747171, 0.11595291585708473, 0.053776221213748705, -0.08744827966279166, -0.15057872922429077, -0.09802907085180897]
[-0.23553851260963266, 0.028103942187894648, -0.17523891744374223, -0.1612966821976153, 0.14970900153397393, 0.09848248776217548, -0.06789923691208707, 0.1376159916565065, 0.0223941773783587, 0.14422335300792638, 0.011330944330703526, 0.17509278072765413, 0.06531737746777039, -0.1467946778897503, -0.0722665057331783, -0.07478343553869335, -0.09188165367754493, -0.06446723559981851, -0.10913815455572319, 0.1473467121724112, -0.06301542979166526, 0.15427295807595462, -0.1476026124070151, 0.05884890206690021, -0.2418400987123779]
[0.07467807310623974, -0.1935045323007871, -0.08115561835360499, 0.09499664431858282, 0.17974066920383958, -0.1535231213500877, 0.1619928683807587, -0.010403128602531994, -0.20807897896639713, 0.0709782855774565, -0.14360149631985544, 0.07664586405566351, 0.10540165884125996, 0.08532644706738003, -0.014916419382400008, -0.16627496637466027, 0.014496437733026153, 0.20268829960144644, -0.06606150366789999, -0.10130192627970906, -0.19391359081982895, 0.009272766701748054, 0.019135337123786553, -0.1479788850675776, -0.08917264644065305]
[-0.03854696558196368, 0.1774487599779726, -0.0663265812112328, -0.049298906341506965, -0.042426876475816215, -0.0748519780285848, -0.02657443884290583, 0.03843471123312293, -0.06171207539215184, -0.005545645331949186, 0.14418735335758312, 0.25477994291599676, 0.12587190838769902, -0.02945405579586572, -0.15354736458441867, 0.05817926018246898, 0.021211517484207118, -0.06953668930634883, -0.18383787149733896, -0.07190699917550546, 0.06541402568642647, 0.19126081420059324, -0.1477217004851199, 0.16845790737684757, -0.23352341931066023]
[-0.009602377150636767, -0.19318352838540218, -0.07573998637900199, 0.12539023602880264, -0.08297343073547245, 0.1969619304021801, 0.12492421464779059, 0.022508144265579788, -0.15538853965087546, -0.09850004249370992, -0.026300680136545823, 0.08895571628411728, 0.17324249667300845, -0.06040458925206422, 0.03668849037873866, 0.19467603798277514, -0.029352679601865876, 0.08441630379003975, 0.10467990465893984, 0.050778572265482665, 0.051197081698085754, -0.11708579436264481, 0.19198777448059332, -0.09292761531373683, -0.029076644870193763]
[-0.17135336114960462, 0.04749132718886738, -0.12312904251894567, -0.046362251181045686, 0.024868290466295358, -0.06563383228873028, 0.13985143004521736, -0.07699565654659887, -0.16455624947755237, 0.013098176951356897, -0.12272627052038576, -0.0009334178062276075, -0.06936166979134463, -0.1531787735372836, 0.12628858071102816, 0.10042073261008848, 0.14164233173189747, 0.050045265124571005, 0.016167469934926307, -0.13611420034042196, -0.16757235971410417, -0.10234748322914383, 0.018130378882017816, 0.1618327150174275, -0.10926107792698182]
[0.04897521449568355, 0.11575436290449757, 0.054749621996799905, -0.08693810442984404, -0.19817767564928354, 0.21316904536463774, 0.184131362107018, -0.05426007692470656, 0.12080583627239438, 0.12021379341822552, -0.05568883136880692, -0.019691155290795223, -0.11762636962909931, 0.1047266951862043, 0.20781739857934045, 0.22548209423961185, 0.12960106552815248, -0.04230940743072157, 0.14440607114081727, 0.19049200114659023, -0.11254679638413434, 0.18583796142829043, 0.008130162333867052, 0.23021410947599694, 0.16124969543803408]
[0.023266974543106406, 0.06360472969595983, -0.17362440983615168, -0.21353266547570582, 0.0029341514104419815, 0.10889144810718332, 0.20846137719009364, -0.014285187895975514, 0.05865565903563298, 0.021881525221505736, -0.10827477268254405, 0.004139605799051982, 0.14494360748129806, -0.13036935757607349, 0.12179380478574274, 0.0673170687427655, -0.018579572609309796, 0.14937713186091475, -0.2045699154838856, 0.14833145358589794, 0.07096977005924461, -0.0014461773977838856, -0.14386639929971534, 0.029048694199086685, -0.011124640372937368]
[-0.20058173999912632, -0.02398793399863137, 0.07476559392154175, 0.15242747051282374, -0.005559324375310199, 0.15809641740117286, -0.14609249699433022, 0.12200452797272726, 0.15352508751663257, -0.17041260680438888, 0.14169601491516295, 0.08983450012168855, 0.11834785493099745, 0.042472235137104325, 0.08631581481920232, -0.0993950280045816, 0.11361194864141974, -0.009128225515811005, -0.20020165919313435, -0.15599234026308165, -0.09515287142422053, 0.16025214289783757, 0.04024681140929501, 0.20529832824151092, 0.13253973769049118]
[-0.2641495785278931, -0.005717510740484124, -0.11395113817274789, -0.0065033222511575684, -0.0459808888576204, 0.015536019987892703, -0.13036539126552815, 0.10672522546423664, -0.015278733270424815, 0.023451176662560653, -0.0009484223002854209, -0.17680195235984608, -0.0016877269753258007, -0.1270595307198114, 0.18771891139450686, 0.15593101309391874, -0.10785392903484638, -0.1435817741872853, -0.18036267069072723, -0.050411684721949214, 0.1290665675712227, 0.029602799287578564, -0.0805479850299054, -0.07149708105157011, -0.19867670309761967]
[-0.23599395153000224, 0.08271881431908905, -0.19526124460851935, 0.14225556425375596, 0.10269082849249336, -0.12015604707583083, 0.05637897310594006, -0.22965687653118436, 0.135467497460859, -0.013802157341920133, 0.11196316616668951, -0.06441147735191664, 0.05827633114079669, 0.17937370784801746, 0.06714392663117646, 0.17689943936249647, -0.025486795354186024, -0.13039467045333014, -0.20862065027558685, -0.11826084725097692, 0.0857977037813624, -0.06920053144902752, -0.10227090429659035, 0.029164878341851275, 0.1375440986888138]
[-0.07909382236558234, -0.11475493289408954, -0.22061009773153337, 0.03204080760408972, -0.13955760169610934, -0.027036959672946555, -0.004937091560451961, 0.06614023695113351, -0.11721736835999204, 0.13843000139548994, 0.11285487244643368, -0.053180915560859764, 0.11033302953263185, -0.03713608145178333, -0.0011819826897267816, -0.11859386153909138, 0.14344575256197103, -0.008607910350233897, -0.011144958519963251, -0.023098364662269003, 0.009481235887057588, -0.04491367068512864, 0.17048004676028894, 0.017071392927731965, -0.09333393938321528]
[-0.12032372118794428, 0.06945086066330028, 0.1549625135187633, 0.1485275440977901, -0.04311994412448781, -0.05643563036603402, 0.027143510442112998, -0.09528873072365618, -0.11067376347334341, -0.16031337341648855, 0.19822545946521092, -0.05825228856257179, -0.20882151063338394, -0.021381850633198526, -0.0007592092515305591, 0.0371495634000889, 0.22411554626650446, 0.21943809763987235, 0.014420604402344307, 0.03645816954097002, 0.010954494005734493, 0.007086549343284906, -0.0014627213297825333, -0.031067490189975653, 0.04060892127685859]
[-0.2335688995631888, -0.12324547911078285, 0.11083510951148921, -0.10927361894489213, 0.14909314656338063, 0.2189955129725309, 0.0709311952838531, -0.21282416486671124, -0.16843954509456968, -0.15492119529273282, -0.04887073282140851, -0.20098357164353578, 0.07435080865646952, -0.01272326477205331, -0.058632907099658724, -0.1410966784050008, -0.015408418972581942, -0.16763394722460248, -0.16595818882139063, 0.03106613503353978, 0.11595672246613534, -0.11409592275171326, 0.0895393727475424, -0.08351608808414127, -0.22708345554512938]
[0.10497258387606556, 0.09624656865108766, -0.21339443074956208, -0.13188512804133085, -0.14329853670307358, 0.19231532554611183, -0.005958943973576343, 0.10012945489651877, -0.03484689991664033, -0.08584385198300243, 0.11978663396893346, 0.006028185626610258, -0.13595766006522006, 0.08088230820686453, 0.13113831827036496, 0.17115107803279223, 0.09905149966650886, 0.08811061301895876, 0.02695561676834249, -0.17227831619845005, 0.11680848577935567, 0.09156548107595434, -0.10726966868824132, 0.1078708634582236, 0.007928563475320146]
[-0.007327006344515021, -0.08554926747933451, -0.023400901230923112, 0.056119547896588295, -0.15190409029567128, 0.017251785587297813, -0.1093426361933724, -0.17272338233114964, 0.1554466123248545, -0.18566764032918184, 0.1684886275157281, -0.048032994632808634, -0.05480712724012652, 0.007567997456742503, 0.012114329443992808, -0.008424038492880474, 0.062047031197914396, -0.036037709494480846, 0.11712095858109163, -0.11207371653589653, -0.16049278429191716, -0.0030634037966301647, 0.15845893826817903, -0.16703062971771174, 0.04870719109757975]
[-0.26102399280914346, -0.1080352636488743, 0.06059899447533332, -0.0335828854639931, -0.04977045027778941, -0.09423455099615409, 0.02640397047220139, -0.12421865828722009, -0.09727157738751391, 0.02687317901741433, 0.049388458585480105, 0.13742153285240044, 0.15644035230816622, 0.06923981327832782, -0.11765950897272377, -0.04390289701118202, 0.02978447485880202, 0.09738643959153882, 0.16572397974340206, -0.14194442854966907, -0.24742549657351107, 0.15209474378904528, 0.10277077851145641, 0.13458569898347997, -0.046826309496978406]
[0.0034416199210280424, -0.13373246759102497, -0.1603911361966117, -0.05158007522791171, 0.10170014156232757, 0.11961074858821825, 0.18865783585632753, 0.12973044378970158, 0.06088326254096852, -0.02566562544391873, 0.0957830308084145, -0.14788341225648788, 0.12732358426424828, 0.14587646910719118, 0.08412760767712231, 0.010570500917363316, 0.07142988034048063, 0.0772629684427311, 0.1482969456018632, 0.02308822923468832, -0.17984916811477503, -0.01953669134071892, -0.12025588640306502, 0.18420670432961134, 0.11551601210465609]
[-0.05021223793216789, -0.2701217748685149, -0.19607810291114, -0.15854403915604914, -0.041969971304616695, 0.06544561092372533, -0.12086762858323236, 0.04939495912911693, 0.13136413553815648, 0.06672392033742917, -0.01137103022884222, 0.014072844538178685, 0.15280354223133447, 0.21665373758602188, -0.01637236843673567, 0.10928000336062162, -0.11108440151023287, 0.04398063776998094, -0.06664544416101086, -0.03327412522728642, -0.08938757926259477, 0.06500149834781838, 0.1274551392784485, 0.014688254410306231, -0.1658263140699776]
[0.044495337554574806, -0.040781862431629144, 0.18686565860298474, -0.058312338570750126, -0.03369697667779419, 0.008547391206696592, 0.1308849744898153, 0.05544585406200278, -0.21355559105584324, -0.15040415193438855, 0.16132175328354684, -0.013757049595636698, 0.09697280678972794, 0.03188024376392079, -0.06559939024637816, -0.16150010153195682, 0.21847853958922123, -0.12481245888177914, 0.04893872824883773, -0.012248198625201706, -0.11041370208913323, 0.015128736067810195, -0.1808934855276973, 0.2130192542024071, -0.03667333614725344]
[-0.233706998132765, -0.1936664435029557, 0.1173723803684723, -0.08852399694915848, 0.07714181540482465, 0.0976932717718202, -0.1292833234092438, 0.16039314953433165, -0.21229921142150446, 0.11101203136583189, 0.020793580360681244, -0.1917482317549993, -0.12689700440604884, 0.09518984714547292, -0.03910167731188789, 0.1696132515195071, -0.0938853276393053, -0.02629258544602077, -0.0052016734410993744, -0.07236538228319336, 0.06520042344570888, -0.09345270600114636, -0.16973435522773828, -0.11307242345964708, 0.01878567421056701]
[-0.019854625151329457, -0.3539402309803477, 0.22386350515548364, -0.02518875747083505, -0.09279535894962687, 0.0716951780873141, -0.21449466607193876, -0.05097345442776177, 0.04263446340529422, 0.15005834382519523, 0.12556544466985994, 0.10004334586117852, -0.1889500095834362, 0.04258310420586702, -0.14158808290072358, -0.06435520519260017, -0.030437298381294317, -0.045589218211697285, -0.05863644958488824, 0.1100512985819394, -0.18714545298846733, 0.12825641240645408, 0.00790489529251854, -0.046930763604796984, -0.009732396432108568]
[-0.17642263446368556, -0.19442647683690686, -0.15145433443954448, 0.12786141030035134, -0.0878429985995174, -0.08960872109413114, 0.17753991614118728, 0.017548370039256852, -0.056970839329764815, 0.07936752572736243, -0.15359458710100754, -0.014392319007986052, -0.02512332758333208, 0.20179843782619913, 0.08226441102738312, 0.014566217590378091, 0.02119185478232665, 0.12829017057610806, -0.0674764937465361, 0.012045647559301436, 0.016870696420620807, 0.1946820468035901, 0.06786648913110944, 0.21067518475307356, -0.0738606816629731]
[0.023282684697068574, -0.09811183577723841, -0.020450524544163715, -0.11045821769653628, 0.16119404889354438, -0.09548030839246431, 0.18870004049905045, 0.11726163681747122, -0.14379539560808718, 0.09509218428547757, 0.21430295575247685, -0.11913846169387758, 0.028786067129133452, 0.1638818975334053, -0.11822455732791447, 0.14223313461781698, -0.06576350915459986, 0.09722247226853012, 0.17338211988691227, -0.1966343336048253, -0.021944317110456125, -0.08708151402886781, -0.16079082556287344, 0.11795761905994313, 0.1580456676662637]
[0.0034989580379305653, -0.24523377087740833, 0.012209585465369766, -0.05174803228475894, -0.02152416153543138, -0.0743411935888721, -0.16220143327181732, 0.16994964817343977, 0.16333891937965345, -0.16354580343839017, -0.0797609093416078, -0.04842635582000503, 0.04110541024870984, -0.11934665892281497, 0.18353567569611468, 0.0554674572209603, -0.08321479366805305, 0.1640214085406109, 0.059457858937903715, -0.0839588404827551, -0.04938389996869733, 0.18743277528194224, -0.1885435403218731, 0.12156814602679085, 0.10767843429679988]
[0.09879355048962649, -0.3190372544033575, 0.06110607805009383, 0.09699733465859217, -0.06771452327729147, -0.005594702448916023, -0.10686700955405229, -0.09681813819608877, 0.08524653809929149, -0.04038568075179091, 0.0060261785365588166, -0.16617242917277192, -0.07196385854317466, 0.04463568601399202, -0.06069295457598577, 0.11827159466465437, -0.03675508981839708, -0.08929638089961629, -0.08145114302600374, 0.11759420886289752, 0.08989708593970477, 0.17823419743509586, -0.19749821601573414, 0.14777903668150102, -0.018070117956622944]
[-0.13987826949869944, -0.25876680241982647, -0.06940658500627586, -0.05715519208679123, -0.04239137268464302, 0.13927526951134733, -0.19350617158795017, 0.060103946124386895, 0.10219822611473563, -0.09717143245033243, -0.07582208441994942, -0.14149490441687546, -0.10593006440468379, -0.08446261470620985, 0.06906504325177926, -0.09987061311424533, -0.1795880566172774, -0.08880374191903609, 0.12321394780208536, -0.04870440492473119, 0.07821861036610851, 0.17246838402244022, -0.11255292716219066, 0.07298090787600295, 0.11533934153119076]
[0.03391059119230529, -0.2741754332669349, -0.08569276111591938, 0.17437668335098133, -0.11843603089531982, 0.11286953634141095, 0.109289408378111, 0.07344765497779009, 0.05103922886406337, 0.07796538579401452, 0.1701116281373259, -0.20638123869473832, -0.16146306856695727, 0.06230849755935618, -0.06333621915232689, 0.011121806929669948, 0.006800206596735499, -0.13407219647129545, -0.17098151957914057, -0.21113811424433226, 0.05055363583518591, -0.1725299108096913, 0.1749407290476556, 0.24589687906106275, 0.05749400590733595]
[0.00496506952309314, -0.22829619783361982, -0.004574633310397241, -0.08447110751818744, -0.07314633600612527, 0.057484629653805165, 0.1524314710653839, -0.15829026839604948, -0.14727430078363682, -0.15926056236980476, -0.15018786533583017, 0.11077015592955995, -0.020128403510503864, -0.13205975105738565, 0.031555790223224855, -0.025739923208164036, 0.11993709262711355, 0.12043917781946323, -0.15090850327433075, 0.03393329591885317, -0.07537788911871997, -0.1989108225463318, -0.1471766403118709, 0.13629397003481952, -0.09031514662177585]
[0.22582798624943426, -0.12259311596191488, 0.10137697787554148, -0.17217059077776153, -0.043285275663658924, 0.06553580347009211, 0.13818167868491002, -0.13902090752457072, -0.08798946244909002, -0.05679288872542839, 0.005311293997944066, -0.04435678827966418, -0.10121716477091734, 0.1512992573741441, 0.2213339540700264, -0.06722264709141988, 0.06130364060879287, -0.02607341622864149, 0.029155155899044015, 0.06184664252279289, -0.07461976603735493, 0.067206116299354, 0.08751011561720436, 0.19791704948901706, -0.16058715290295508]
[-0.08502732244965032, -0.08965040451407504, 0.017608870804849262, 0.09556690999513547, -0.021240672260479015, 0.14303367149822974, 0.10703360967547072, -0.03570151555109113, 0.08990658265694614, -0.06214244914978433, -0.04476477500270958, -0.06968953549238287, -0.050192229143745895, 0.09140005553776313, -0.11887159361032171, 0.08529823816426854, 0.19746888154582432, 0.009330389050809781, -0.17728928999384821, -0.13915820111507923, -0.2350206196950793, -0.09715233402062089, 0.0943742071684331, -0.1349618405023834, 0.10037916850086427]
[0.16446097385691907, -0.1828211881709069, -0.133002606488181, 0.1546848469271923, -0.08169374431851795, 0.11149961221313352, -0.2123927104536153, 0.15633623874305025, -0.22761669375624852, -0.013151801207859092, 0.1873146070695117, 0.08730627108846462, -0.12270770329390313, 0.16523942713148526, 0.014849915614049325, -0.0062924645558327, -0.04279076285593444, -0.034774486483088736, 0.027164258748683986, 0.09335713518674373, 0.008723170917848133, 0.10723077852215258, -0.21749939016641195, 0.07145723637399572, -0.11000115913317432]
[-0.13759897989559763, 0.10833705776196413, -0.12318297123660732, -0.15744221236769596, -0.1482236944737978, 0.05072277634198211, 0.02974534509791759, -0.03319750601703985, 0.006792891934751205, 0.12241312960407998, 0.1647262709427167, 0.09407097582610724, -0.21612021544026094, 0.18963000041635905, -0.1281801389293109, 0.05547783739065411, 0.18326314972673977, 0.018717670984659106, -0.03827421094563931, -0.0854353157760318, 0.0996643869676265, 0.16891111696180788, 0.026912773562223737, 0.1359115804513506, -0.1132781942841379]
[-0.14936750849886565, 0.1463931368743442, 0.05022906837696837, -0.1222612846808138, 0.17562470453682913, 0.03728506162565432, -0.0731452921686574, 0.12493793685334546, -0.1928806786749212, 0.07282866091913534, -0.10803125649697354, -0.20443843001301792, -0.12950929539883732, 0.12691622202415032, 0.10322457389939603, -0.036063213769220254, -0.12440356727160601, 0.18438991652677492, 0.10036789370385155, 0.05589196967608181, 0.06441368665950603, 0.10853455207107764, -0.17136926846875775, 0.14325081852913418, 0.08308234555111783]
[0.1017243494312865, -0.044928662385050076, 0.06584509739718236, -0.19091333591051396, 0.09035267981308025, -0.09095959718793896, 0.10783884529861688, 0.02279540534443101, -0.01928144009312505, -0.03768833429068599, -0.14138661113036102, -0.24914338245217219, -0.22453613232161934, 0.144598757698506, -0.08520633060390093, -0.1512258787965089, -0.032227818198392016, 0.20716991209317687, 0.14793280883429896, -0.09373988507950791, 0.07337262735545033, -0.167492555885212, -0.0674217955863698, 0.05670954236759968, 0.14453246458430763]
